svm_type c_svc
kernel_type rbf
gamma 8
nr_class 2
total_sv 15564
rho 6.70692
label 1 -1
nr_sv 7781 7783
SV
2048 1:0.619874 2:0.349753 3:0.435187 4:0.430904 
2048 1:0.432504 2:0.394876 3:0.401644 4:0.58249 
2048 1:0.705415 2:0.32661 3:0.355744 4:0.466194 
2048 1:0.584002 2:0.388381 3:0.43362 4:0.421413 
2048 1:0.479386 2:0.360279 3:0.454609 4:0.523325 
2048 1:0.393771 2:0.407363 3:0.450657 4:0.550953 
2048 1:0.629679 2:0.411307 3:0.399911 4:0.391722 
2048 1:0.523613 2:0.380409 3:0.430624 4:0.487314 
2048 1:0.349611 2:0.535193 3:0.579517 4:0.30975 
2048 1:0.266486 2:0.642915 3:0.654434 4:0.181866 
2048 1:0.491469 2:0.397505 3:0.4015 4:0.528647 
2048 1:0.686093 2:0.267497 3:0.342028 4:0.564477 
2048 1:0.358148 2:0.594035 3:0.537814 4:0.281415 
2048 1:0.423162 2:0.414968 3:0.460436 4:0.506882 
2048 1:0.259147 2:0.59393 3:0.621377 4:0.27899 
2048 1:0.275935 2:0.55368 3:0.580588 4:0.353634 
2048 1:0.278018 2:0.647296 3:0.505861 4:0.325234 
2048 1:0.548005 2:0.409644 3:0.355889 4:0.514055 
2048 1:0.411122 2:0.548178 3:0.484796 4:0.340928 
2048 1:0.248768 2:0.506017 3:0.705267 4:0.298022 
2048 1:0.408563 2:0.428137 3:0.507794 4:0.454803 
2048 1:0.289611 2:0.588443 3:0.522114 4:0.366181 
2048 1:0.230449 2:0.593771 3:0.546204 4:0.387352 
2048 1:0.472066 2:0.509995 3:0.438319 4:0.379001 
2048 1:0.486896 2:0.368546 3:0.5085 4:0.450883 
2048 1:0.477712 2:0.376819 3:0.670463 4:0.274808 
2048 1:0.47352 2:0.490916 3:0.501862 4:0.332971 
2048 1:0.546796 2:0.483015 3:0.377676 4:0.408229 
2048 1:0.347534 2:0.444154 3:0.560659 4:0.432626 
2048 1:0.531228 2:0.372071 3:0.47452 4:0.444277 
2048 1:0.527236 2:0.342522 3:0.457939 4:0.498621 
2048 1:0.360312 2:0.480861 3:0.486055 4:0.462332 
2048 1:0.419571 2:0.404563 3:0.501831 4:0.476082 
2048 1:0.453853 2:0.389338 3:0.490038 4:0.47607 
2048 1:0.633505 2:0.329307 3:0.413543 4:0.466643 
2048 1:0.435373 2:0.405847 3:0.577226 4:0.382119 
2048 1:0.435317 2:0.461894 3:0.552178 4:0.346587 
2048 1:0.528525 2:0.391316 3:0.455417 4:0.444388 
2048 1:0.370039 2:0.548289 3:0.505068 4:0.358511 
2048 1:0.371455 2:0.480472 3:0.602398 4:0.327045 
2048 1:0.435733 2:0.423214 3:0.473759 4:0.472012 
2048 1:0.337396 2:0.470397 3:0.506616 4:0.472357 
2048 1:0.42278 2:0.456398 3:0.508716 4:0.410266 
2048 1:0.555936 2:0.426886 3:0.426197 4:0.41256 
2048 1:0.416483 2:0.474696 3:0.526155 4:0.376725 
2048 1:0.396294 2:0.503919 3:0.59873 4:0.284678 
2048 1:0.519079 2:0.420935 3:0.447824 4:0.428457 
2048 1:0.513447 2:0.38733 3:0.439601 4:0.478836 
2048 1:0.509898 2:0.302388 3:0.481731 4:0.533205 
2048 1:0.521985 2:0.450114 3:0.48883 4:0.348833 
2048 1:0.467753 2:0.417055 3:0.52001 4:0.402417 
2048 1:0.452439 2:0.410183 3:0.43375 4:0.515328 
2048 1:0.446092 2:0.485515 3:0.364515 4:0.510552 
2048 1:0.372902 2:0.464573 3:0.590629 4:0.358157 
2048 1:0.380129 2:0.509755 3:0.518991 4:0.37561 
2048 1:0.579234 2:0.402642 3:0.489673 4:0.350202 
2048 1:0.54803 2:0.379615 3:0.417263 4:0.481106 
534.1704625718158 1:0.474621 2:0.752422 3:0.100508 4:0.461966 
2048 1:0.443427 2:0.417059 3:0.441759 4:0.507472 
2048 1:0.406608 2:0.465283 3:0.596931 4:0.320607 
2048 1:0.495115 2:0.411278 3:0.460925 4:0.446517 
2048 1:0.339244 2:0.547244 3:0.565453 4:0.322628 
2048 1:0.487131 2:0.349194 3:0.373287 4:0.617823 
2048 1:0.490142 2:0.504008 3:0.423318 4:0.388035 
2048 1:0.51426 2:0.40319 3:0.503898 4:0.393689 
2048 1:0.492487 2:0.472155 3:0.443784 4:0.397686 
2048 1:0.466731 2:0.433253 3:0.414847 4:0.495788 
2048 1:0.450746 2:0.4702 3:0.536734 4:0.337426 
2048 1:0.494674 2:0.407782 3:0.549977 4:0.354001 
2048 1:0.538933 2:0.299008 3:0.580584 4:0.405774 
2048 1:0.429758 2:0.474538 3:0.497847 4:0.393294 
2048 1:0.380715 2:0.449437 3:0.508545 4:0.455631 
2048 1:0.525855 2:0.333235 3:0.449563 4:0.519871 
2048 1:0.344159 2:0.546558 3:0.539435 4:0.344939 
2048 1:0.445784 2:0.435439 3:0.500476 4:0.421627 
2048 1:0.349939 2:0.488139 3:0.600103 4:0.339231 
2048 1:0.576376 2:0.356225 3:0.517775 4:0.374307 
2048 1:0.576705 2:0.307293 3:0.341345 4:0.617666 
2048 1:0.488422 2:0.381969 3:0.489588 4:0.455833 
2048 1:0.519979 2:0.434601 3:0.389831 4:0.475207 
2048 1:0.428241 2:0.439913 3:0.509303 4:0.421307 
2048 1:0.6367 2:0.48188 3:0.326742 4:0.38366 
2048 1:0.410376 2:0.475719 3:0.57135 4:0.332656 
2048 1:0.478901 2:0.347478 3:0.40526 4:0.591283 
2048 1:0.406809 2:0.406087 3:0.678227 4:0.299228 
2048 1:0.525732 2:0.353251 3:0.464802 4:0.480974 
2048 1:0.392235 2:0.387131 3:0.528613 4:0.493915 
2048 1:0.54741 2:0.369764 3:0.383285 4:0.529042 
2048 1:0.480403 2:0.46073 3:0.462124 4:0.402226 
2048 1:0.504672 2:0.366337 3:0.501176 4:0.446144 
2048 1:0.403589 2:0.473774 3:0.511573 4:0.404739 
2048 1:0.598704 2:0.362642 3:0.430054 4:0.442607 
2048 1:0.565569 2:0.379129 3:0.472942 4:0.406038 
2048 1:0.530015 2:0.313859 3:0.428803 4:0.559657 
2048 1:0.376769 2:0.4245 3:0.515563 4:0.479563 
2048 1:0.512048 2:0.34881 3:0.46351 4:0.499 
2048 1:0.555678 2:0.376983 3:0.442667 4:0.451331 
2048 1:0.401105 2:0.449 3:0.537065 4:0.407458 
2048 1:0.573568 2:0.334218 3:0.397006 4:0.531364 
2048 1:0.475172 2:0.415817 3:0.431782 4:0.490812 
2048 1:0.496457 2:0.383273 3:0.480592 4:0.456554 
2048 1:0.301309 2:0.497377 3:0.652477 4:0.316447 
2048 1:0.357022 2:0.456079 3:0.569382 4:0.40197 
2048 1:0.470003 2:0.437191 3:0.467997 4:0.433139 
2048 1:0.502456 2:0.385487 3:0.557159 4:0.365124 
2048 1:0.483324 2:0.361139 3:0.472839 4:0.501099 
2048 1:0.41167 2:0.438012 3:0.492448 4:0.45791 
2048 1:0.445588 2:0.361494 3:0.546711 4:0.453275 
2048 1:0.437491 2:0.425698 3:0.477702 4:0.463369 
2048 1:0.472824 2:0.352487 3:0.471929 4:0.521497 
2048 1:0.541995 2:0.359842 3:0.453809 4:0.470019 
2048 1:0.502078 2:0.414604 3:0.516435 4:0.378022 
2048 1:0.400527 2:0.415062 3:0.492383 4:0.493936 
2048 1:0.543374 2:0.394089 3:0.4469 4:0.438427 
2048 1:0.52666 2:0.321462 3:0.333269 4:0.655765 
2048 1:0.516571 2:0.441335 3:0.53424 4:0.313576 
2048 1:0.44746 2:0.340747 3:0.490261 4:0.536647 
2048 1:0.336574 2:0.570706 3:0.454215 4:0.417209 
2048 1:0.481693 2:0.335119 3:0.472718 4:0.531228 
2048 1:0.507555 2:0.435169 3:0.482363 4:0.384445 
2048 1:0.352315 2:0.64764 3:0.470062 4:0.297269 
2048 1:0.67469 2:0.241571 3:0.364022 4:0.579792 
2048 1:0.477024 2:0.344054 3:0.504897 4:0.491141 
2048 1:0.585376 2:0.348641 3:0.470499 4:0.426319 
2048 1:0.568144 2:0.43963 3:0.440822 4:0.370724 
2048 1:0.535389 2:0.414268 3:0.509977 4:0.354013 
2048 1:0.463804 2:0.319628 3:0.515614 4:0.518821 
2048 1:0.505967 2:0.42594 3:0.471027 4:0.408907 
2048 1:0.510483 2:0.343581 3:0.406049 4:0.567749 
2048 1:0.491794 2:0.409517 3:0.431816 4:0.48373 
2048 1:0.506217 2:0.310835 3:0.439671 4:0.572251 
2048 1:0.487293 2:0.381492 3:0.512507 4:0.432302 
2048 1:0.331136 2:0.510933 3:0.519441 4:0.417302 
2048 1:0.449579 2:0.353691 3:0.399355 4:0.617927 
2048 1:0.502127 2:0.499354 3:0.349493 4:0.461405 
2048 1:0.383628 2:0.446616 3:0.610427 4:0.347782 
2048 1:0.394507 2:0.497495 3:0.590636 4:0.300164 
2048 1:0.497232 2:0.420601 3:0.469096 4:0.426727 
2048 1:0.47572 2:0.415065 3:0.4471 4:0.475666 
2048 1:0.300823 2:0.550611 3:0.542466 4:0.374419 
2048 1:0.475328 2:0.356576 3:0.513181 4:0.467958 
2048 1:0.539003 2:0.367243 3:0.437842 4:0.481463 
2048 1:0.419804 2:0.464043 3:0.433748 4:0.483695 
2048 1:0.60521 2:0.384682 3:0.407104 4:0.436013 
2048 1:0.434302 2:0.392164 3:0.556108 4:0.418709 
2048 1:0.423283 2:0.408961 3:0.50084 4:0.471627 
2048 1:0.687355 2:0.292671 3:0.386553 4:0.488057 
2048 1:0.633408 2:0.241239 3:0.303866 4:0.682662 
2048 1:0.513698 2:0.34865 3:0.491765 4:0.467736 
2048 1:0.492284 2:0.357277 3:0.453203 4:0.518492 
2048 1:0.418114 2:0.450704 3:0.522937 4:0.402847 
2048 1:0.445974 2:0.434629 3:0.512351 4:0.409283 
2048 1:0.330016 2:0.506258 3:0.596672 4:0.341952 
2048 1:0.380111 2:0.514184 3:0.482504 4:0.411825 
2048 1:0.460092 2:0.468477 3:0.452396 4:0.423361 
2048 1:0.395992 2:0.495855 3:0.554588 4:0.338633 
2048 1:0.462329 2:0.453529 3:0.519088 4:0.364841 
2048 1:0.379865 2:0.458871 3:0.416604 4:0.54258 
2048 1:0.627682 2:0.275542 3:0.357663 4:0.590953 
2048 1:0.377151 2:0.575284 3:0.496713 4:0.327848 
2048 1:0.598963 2:0.294833 3:0.398866 4:0.549707 
2048 1:0.382222 2:0.522231 3:0.478567 4:0.404753 
2048 1:0.50344 2:0.390193 3:0.46678 4:0.457152 
2048 1:0.532419 2:0.35421 3:0.460338 4:0.478145 
2048 1:0.429685 2:0.446127 3:0.454924 4:0.473188 
2048 1:0.564913 2:0.442327 3:0.464577 4:0.344334 
2048 1:0.563356 2:0.332571 3:0.515067 4:0.415292 
2048 1:0.478895 2:0.44114 3:0.488826 4:0.397529 
2048 1:0.502401 2:0.383335 3:0.473562 4:0.456694 
2048 1:0.388593 2:0.453942 3:0.41536 4:0.543178 
2048 1:0.526544 2:0.284699 3:0.39324 4:0.6334 
2048 1:0.607385 2:0.297416 3:0.283429 4:0.664383 
2048 1:0.731765 2:0.262914 3:0.406582 4:0.459207 
2048 1:0.398155 2:0.507982 3:0.49821 4:0.383828 
2048 1:0.527188 2:0.375125 3:0.520097 4:0.395577 
2048 1:0.507969 2:0.487035 3:0.46874 4:0.340973 
2048 1:0.630478 2:0.322815 3:0.392505 4:0.497528 
2048 1:0.384962 2:0.476953 3:0.510608 4:0.41642 
2048 1:0.467534 2:0.500035 3:0.456987 4:0.374895 
2048 1:0.478293 2:0.41814 3:0.459979 4:0.455673 
2048 1:0.711874 2:0.278588 3:0.297114 4:0.577169 
2048 1:0.449577 2:0.396775 3:0.473618 4:0.490098 
2048 1:0.53327 2:0.364393 3:0.480151 4:0.443584 
2048 1:0.440674 2:0.449741 3:0.59674 4:0.304742 
2048 1:0.529476 2:0.425387 3:0.404367 4:0.460506 
2048 1:0.559724 2:0.410621 3:0.408297 4:0.446875 
2048 1:0.689974 2:0.373082 3:0.403253 4:0.378223 
2048 1:0.512879 2:0.336274 3:0.506216 4:0.467103 
2048 1:0.525651 2:0.488331 3:0.408453 4:0.389118 
2048 1:0.345932 2:0.47497 3:0.527722 4:0.437075 
2048 1:0.37572 2:0.49793 3:0.494724 4:0.420516 
2048 1:0.555176 2:0.32211 3:0.384733 4:0.574923 
2048 1:0.555746 2:0.289071 3:0.317466 4:0.682911 
2048 1:0.456319 2:0.412687 3:0.362608 4:0.584899 
2048 1:0.485459 2:0.404253 3:0.39663 4:0.532106 
2048 1:0.771179 2:0.274026 3:0.289789 4:0.537111 
2048 1:0.674125 2:0.265547 3:0.344731 4:0.575082 
2048 1:0.664128 2:0.235539 3:0.271734 4:0.69486 
2048 1:0.768631 2:0.237915 3:0.358142 4:0.506936 
2048 1:0.481157 2:0.432081 3:0.493711 4:0.400165 
2048 1:0.601518 2:0.290653 3:0.475117 4:0.470422 
2048 1:0.595827 2:0.373207 3:0.342802 4:0.525499 
2048 1:0.517759 2:0.378692 3:0.411125 4:0.515896 
2048 1:0.607362 2:0.334744 3:0.404166 4:0.493414 
2048 1:0.516172 2:0.398479 3:0.41843 4:0.488364 
2048 1:0.642876 2:0.352157 3:0.330226 4:0.520611 
27.4150939814215 1:0.491384 2:0.334607 3:0.810086 4:0.157139 
2048 1:0.546637 2:0.413663 3:0.448854 4:0.412123 
2048 1:0.624038 2:0.351474 3:0.374479 4:0.491119 
2048 1:0.515472 2:0.397453 3:0.502723 4:0.398601 
2048 1:0.568647 2:0.329415 3:0.341829 4:0.599785 
2048 1:0.58109 2:0.335685 3:0.418849 4:0.500001 
2048 1:0.568632 2:0.322367 3:0.390078 4:0.555914 
2048 1:0.535958 2:0.358161 3:0.395384 4:0.539222 
2048 1:0.555292 2:0.386099 3:0.335317 4:0.555187 
2048 1:0.653286 2:0.356263 3:0.408803 4:0.424208 
2048 1:0.774732 2:0.222018 3:0.301531 4:0.579214 
2048 1:0.719156 2:0.285875 3:0.23727 4:0.626982 
2048 1:0.677313 2:0.314392 3:0.389978 4:0.468971 
2048 1:0.678203 2:0.201437 3:0.38713 4:0.595999 
2048 1:0.571775 2:0.29551 3:0.383774 4:0.590903 
2048 1:0.584114 2:0.237774 3:0.442862 4:0.579319 
2048 1:0.666879 2:0.206705 3:0.41752 4:0.567852 
2048 1:0.755595 2:0.209088 3:0.386064 4:0.520163 
2048 1:0.497357 2:0.381072 3:0.490066 4:0.448344 
2048 1:0.661766 2:0.264756 3:0.349176 4:0.581281 
2048 1:0.680123 2:0.236102 3:0.373319 4:0.572056 
2048 1:0.553694 2:0.316744 3:0.41352 4:0.55186 
2048 1:0.600324 2:0.344158 3:0.379096 4:0.516153 
2048 1:0.682382 2:0.260373 3:0.334868 4:0.584137 
2048 1:0.494484 2:0.334496 3:0.351947 4:0.650179 
2048 1:0.710373 2:0.317723 3:0.355104 4:0.472662 
2048 1:0.592109 2:0.29082 3:0.408037 4:0.551993 
2048 1:0.615056 2:0.201738 3:0.342369 4:0.701741 
2048 1:0.614092 2:0.314442 3:0.396021 4:0.517749 
2048 1:0.708337 2:0.276723 3:0.361825 4:0.513518 
2048 1:0.681066 2:0.288672 3:0.360348 4:0.526132 
2048 1:0.479119 2:0.406343 3:0.486116 4:0.440028 
2048 1:0.516489 2:0.307353 3:0.392417 4:0.61713 
2048 1:0.626474 2:0.263805 3:0.354694 4:0.608617 
2048 1:0.612981 2:0.335956 3:0.38541 4:0.506627 
2048 1:0.593634 2:0.290917 3:0.296568 4:0.669444 
2048 1:0.644815 2:0.314175 3:0.360232 4:0.529682 
2048 1:0.526559 2:0.436451 3:0.443474 4:0.409847 
2048 1:0.608751 2:0.331305 3:0.305232 4:0.601796 
2048 1:0.52673 2:0.336962 3:0.351527 4:0.61891 
2048 1:0.585564 2:0.344045 3:0.431034 4:0.47226 
2048 1:0.50941 2:0.2674 3:0.36303 4:0.698331 
2048 1:0.603837 2:0.339423 3:0.498993 4:0.388166 
2048 1:0.410373 2:0.447253 3:0.495542 4:0.443323 
2048 1:0.535337 2:0.38469 3:0.422434 4:0.4815 
2048 1:0.668522 2:0.229741 3:0.358949 4:0.604183 
2048 1:0.478259 2:0.440942 3:0.454396 4:0.433965 
2048 1:0.42064 2:0.406991 3:0.451599 4:0.526693 
2048 1:0.627283 2:0.270535 3:0.305785 4:0.653029 
2048 1:0.553112 2:0.320316 3:0.445975 4:0.512951 
2048 1:0.610662 2:0.322459 3:0.415283 4:0.49124 
2048 1:0.542034 2:0.32908 3:0.369165 4:0.59561 
2048 1:0.387507 2:0.418415 3:0.469187 4:0.526092 
2048 1:0.791597 2:0.195385 3:0.288646 4:0.60944 
2048 1:0.793634 2:0.239824 3:0.329698 4:0.514013 
2048 1:0.452376 2:0.489599 3:0.409236 4:0.452285 
2048 1:0.692129 2:0.324911 3:0.296632 4:0.543187 
2048 1:0.456956 2:0.377652 3:0.479255 4:0.498852 
2048 1:0.685904 2:0.248261 3:0.335298 4:0.593494 
2048 1:0.700179 2:0.234042 3:0.391943 4:0.535383 
2048 1:0.64598 2:0.27817 3:0.355198 4:0.574803 
2048 1:0.751015 2:0.275687 3:0.285957 4:0.556744 
2048 1:0.503896 2:0.360203 3:0.382471 4:0.580622 
2048 1:0.492449 2:0.414758 3:0.450631 4:0.456727 
2048 1:0.678235 2:0.265776 3:0.311262 4:0.607316 
2048 1:0.634892 2:0.300183 3:0.299281 4:0.620359 
2048 1:0.612102 2:0.271487 3:0.356347 4:0.61141 
2048 1:0.5841 2:0.271169 3:0.390222 4:0.600448 
2048 1:0.570204 2:0.304996 3:0.395745 4:0.567767 
2048 1:0.720566 2:0.201084 3:0.266761 4:0.688924 
2048 1:0.595422 2:0.388257 3:0.434837 4:0.410345 
2048 1:0.688618 2:0.338925 3:0.439373 4:0.379245 
2048 1:0.637382 2:0.253841 3:0.341705 4:0.62336 
2048 1:0.737162 2:0.233282 3:0.353948 4:0.54518 
2048 1:0.425727 2:0.516348 3:0.533073 4:0.311688 
2048 1:0.568818 2:0.253965 3:0.306171 4:0.722353 
2048 1:0.55041 2:0.398499 3:0.544605 4:0.322181 
2048 1:0.533527 2:0.324698 3:0.413176 4:0.560766 
2048 1:0.372145 2:0.494162 3:0.523278 4:0.39511 
2048 1:0.629694 2:0.279554 3:0.317886 4:0.627613 
2048 1:0.515235 2:0.429461 3:0.445837 4:0.423457 
2048 1:0.656365 2:0.38674 3:0.326841 4:0.472996 
2048 1:0.599902 2:0.344928 3:0.344457 4:0.552795 
2048 1:0.555571 2:0.28741 3:0.4388 4:0.555696 
2048 1:0.467343 2:0.430718 3:0.470617 4:0.437912 
2048 1:0.572646 2:0.306774 3:0.387272 4:0.573914 
2048 1:0.386243 2:0.53407 3:0.450355 4:0.416348 
2048 1:0.717628 2:0.249171 3:0.264131 4:0.640658 
2048 1:0.466642 2:0.468663 3:0.420363 4:0.450086 
2048 1:0.390376 2:0.445577 3:0.451542 4:0.510104 
2048 1:0.484542 2:0.350714 3:0.363355 4:0.626935 
2048 1:0.44483 2:0.405624 3:0.54109 4:0.412163 
2048 1:0.469296 2:0.453532 3:0.327561 4:0.563968 
2048 1:0.597196 2:0.402086 3:0.462352 4:0.363832 
2048 1:0.226421 2:0.636403 3:0.647064 4:0.234375 
2048 1:0.50801 2:0.373029 3:0.496327 4:0.440499 
2048 1:0.606912 2:0.287756 3:0.37672 4:0.575879 
2048 1:0.427261 2:0.431809 3:0.481403 4:0.462067 
2048 1:0.395886 2:0.448472 3:0.492065 4:0.460671 
2048 1:0.49195 2:0.36445 3:0.497667 4:0.46225 
2048 1:0.671081 2:0.339583 3:0.365458 4:0.472694 
2048 1:0.530166 2:0.328284 3:0.379338 4:0.59484 
2048 1:0.581631 2:0.376124 3:0.439419 4:0.43283 
2048 1:0.631818 2:0.262298 3:0.403629 4:0.552728 
2048 1:0.413873 2:0.386793 3:0.510648 4:0.492235 
2048 1:0.495941 2:0.384647 3:0.374283 4:0.568948 
2048 1:0.650406 2:0.253368 3:0.345929 4:0.608403 
2048 1:0.436071 2:0.511113 3:0.442761 4:0.407631 
2048 1:0.517179 2:0.362623 3:0.443912 4:0.500105 
2048 1:0.513415 2:0.353219 3:0.551543 4:0.397837 
2048 1:0.676945 2:0.231363 3:0.363739 4:0.590527 
2048 1:0.400372 2:0.533042 3:0.429962 4:0.428257 
2048 1:0.624994 2:0.186681 3:0.34023 4:0.711864 
2048 1:0.517626 2:0.425835 3:0.416784 4:0.457266 
2048 1:0.620107 2:0.29126 3:0.355194 4:0.582618 
2048 1:0.4015 2:0.54991 3:0.489689 4:0.342478 
2048 1:0.521231 2:0.434158 3:0.430096 4:0.43136 
2048 1:0.424141 2:0.34149 3:0.332615 4:0.72345 
2048 1:0.68791 2:0.21776 3:0.378495 4:0.579257 
2048 1:0.674367 2:0.267753 3:0.453981 4:0.455656 
2048 1:0.409554 2:0.421483 3:0.462447 4:0.510677 
2048 1:0.570796 2:0.297364 3:0.355339 4:0.620125 
2048 1:0.50453 2:0.365307 3:0.44195 4:0.509045 
2048 1:0.431255 2:0.464379 3:0.488422 4:0.413639 
2048 1:0.705974 2:0.184834 3:0.261993 4:0.725706 
2048 1:0.551616 2:0.362543 3:0.370161 4:0.548702 
2048 1:0.681169 2:0.193156 3:0.29688 4:0.700348 
2048 1:0.563383 2:0.299447 3:0.379109 4:0.59904 
2048 1:0.430081 2:0.525452 3:0.576857 4:0.251501 
2048 1:0.537423 2:0.377753 3:0.35873 4:0.556047 
2048 1:0.656009 2:0.28203 3:0.387524 4:0.526448 
2048 1:0.450783 2:0.443368 3:0.469426 4:0.441721 
2048 1:0.673276 2:0.314001 3:0.400738 4:0.461458 
2048 1:0.481574 2:0.520079 3:0.34383 4:0.461247 
2048 1:0.524123 2:0.269785 3:0.307257 4:0.743265 
2048 1:0.522394 2:0.411542 3:0.384053 4:0.503443 
2048 1:0.658926 2:0.286366 3:0.355247 4:0.55262 
2048 1:0.511294 2:0.360268 3:0.412843 4:0.54011 
2048 1:0.499966 2:0.319289 3:0.470158 4:0.535897 
2048 1:0.562168 2:0.316286 3:0.42362 4:0.531864 
2048 1:0.622978 2:0.318889 3:0.417931 4:0.482354 
2048 1:0.560928 2:0.306192 3:0.377941 4:0.593648 
2048 1:0.586799 2:0.305542 3:0.323934 4:0.630151 
2048 1:0.593663 2:0.338926 3:0.410075 4:0.494923 
2048 1:0.671726 2:0.331641 3:0.397811 4:0.446593 
2048 1:0.694517 2:0.313258 3:0.347182 4:0.501439 
2048 1:0.437806 2:0.435849 3:0.480355 4:0.448273 
2048 1:0.434071 2:0.440096 3:0.45338 4:0.476679 
2048 1:0.541655 2:0.30633 3:0.361484 4:0.629505 
2048 1:0.60925 2:0.3017 3:0.313495 4:0.625849 
2048 1:0.776829 2:0.228606 3:0.28856 4:0.585092 
2048 1:0.606386 2:0.32021 3:0.468626 4:0.440253 
2048 1:0.578586 2:0.369496 3:0.378111 4:0.507126 
2048 1:0.683846 2:0.261636 3:0.279169 4:0.64095 
2048 1:0.461955 2:0.479845 3:0.500994 4:0.35501 
2048 1:0.524133 2:0.38705 3:0.404378 4:0.508766 
2048 1:0.726459 2:0.251587 3:0.360121 4:0.528032 
2048 1:0.458749 2:0.343017 3:0.440001 4:0.577353 
2048 1:0.326704 2:0.614224 3:0.581888 4:0.237861 
2048 1:0.638312 2:0.386789 3:0.381213 4:0.432104 
2048 1:0.56405 2:0.280151 3:0.334319 4:0.66809 
2048 1:0.456138 2:0.409551 3:0.397798 4:0.550111 
2048 1:0.594214 2:0.299884 3:0.32546 4:0.628666 
2048 1:0.466825 2:0.388501 3:0.444486 4:0.515359 
2048 1:0.532646 2:0.383446 3:0.408144 4:0.500152 
2048 1:0.460301 2:0.48894 3:0.472437 4:0.377211 
2048 1:0.439404 2:0.489349 3:0.465812 4:0.402667 
2048 1:0.41343 2:0.479198 3:0.505922 4:0.395702 
2048 1:0.503173 2:0.363829 3:0.395974 4:0.562021 
2048 1:0.602427 2:0.314735 3:0.404622 4:0.52023 
2048 1:0.39111 2:0.525199 3:0.591064 4:0.271611 
2048 1:0.516511 2:0.418035 3:0.424801 4:0.457605 
2048 1:0.412342 2:0.511112 3:0.405277 4:0.467307 
2048 1:0.464467 2:0.350706 3:0.397342 4:0.609807 
2048 1:0.435495 2:0.344717 3:0.536107 4:0.492811 
2048 1:0.480054 2:0.427418 3:0.457921 4:0.446349 
2048 1:0.308607 2:0.456478 3:0.632641 4:0.37758 
2048 1:0.473104 2:0.32341 3:0.384384 4:0.646147 
2048 1:0.38999 2:0.5189 3:0.480451 4:0.399203 
2048 1:0.398372 2:0.4594 3:0.499476 4:0.438705 
2048 1:0.795677 2:0.155143 3:0.305633 4:0.632089 
2048 1:0.318353 2:0.597527 3:0.533037 4:0.317311 
2048 1:0.591972 2:0.400254 3:0.445437 4:0.389778 
2048 1:0.457838 2:0.436831 3:0.473296 4:0.437965 
2048 1:0.60424 2:0.386221 3:0.31543 4:0.53372 
2048 1:0.742387 2:0.240068 3:0.309592 4:0.578894 
2048 1:0.583511 2:0.352447 3:0.427461 4:0.468536 
2048 1:0.499192 2:0.401547 3:0.436408 4:0.480461 
2048 1:0.769846 2:0.268206 3:0.430742 4:0.393483 
2048 1:0.794833 2:0.219696 3:0.29835 4:0.567566 
2048 1:0.62832 2:0.247019 3:0.338527 4:0.643337 
2048 1:0.553813 2:0.302067 3:0.378079 4:0.605823 
2048 1:0.505839 2:0.380432 3:0.485156 4:0.446055 
2048 1:0.533388 2:0.370487 3:0.448101 4:0.472456 
2048 1:0.7478 2:0.269623 3:0.40396 4:0.440847 
2048 1:0.598491 2:0.266845 3:0.39829 4:0.582535 
2048 1:0.517792 2:0.337997 3:0.366533 4:0.608826 
2048 1:0.615785 2:0.312834 3:0.413232 4:0.501658 
2048 1:0.504821 2:0.482407 3:0.411135 4:0.411372 
2048 1:0.714964 2:0.241764 3:0.361832 4:0.547255 
2048 1:0.388146 2:0.484038 3:0.528772 4:0.388108 
2048 1:0.63081 2:0.246558 3:0.501281 4:0.465645 
2048 1:0.639217 2:0.246232 3:0.440822 4:0.523257 
311.4647365210661 1:0.652714 2:0.256746 3:0.322534 4:0.62605 
2048 1:0.612562 2:0.267302 3:0.320096 4:0.654651 
2048 1:0.604088 2:0.289058 3:0.35549 4:0.600165 
2048 1:0.568075 2:0.356529 3:0.314384 4:0.600009 
2048 1:0.427933 2:0.444345 3:0.51345 4:0.414163 
2048 1:0.499795 2:0.316119 3:0.458611 4:0.550802 
2048 1:0.643553 2:0.282333 3:0.469297 4:0.450879 
2048 1:0.52548 2:0.396228 3:0.476979 4:0.420209 
2048 1:0.525083 2:0.377011 3:0.40282 4:0.519702 
2048 1:0.340626 2:0.536355 3:0.445278 4:0.459289 
2048 1:0.715789 2:0.257431 3:0.382824 4:0.505927 
2048 1:0.614515 2:0.305434 3:0.385269 4:0.538846 
2048 1:0.516346 2:0.381991 3:0.391266 4:0.534242 
2048 1:0.554406 2:0.309047 3:0.440822 4:0.528661 
2048 1:0.486063 2:0.405081 3:0.44177 4:0.482614 
2048 1:0.684258 2:0.253426 3:0.308267 4:0.618142 
2048 1:0.684694 2:0.318557 3:0.389474 4:0.458572 
2048 1:0.649231 2:0.30083 3:0.377707 4:0.521287 
2048 1:0.538609 2:0.358625 3:0.401346 4:0.529646 
2048 1:0.506773 2:0.378629 3:0.478541 4:0.45485 
2048 1:0.526372 2:0.331285 3:0.382948 4:0.59117 
2048 1:0.750433 2:0.247181 3:0.438314 4:0.426136 
2048 1:0.445543 2:0.467293 3:0.450898 4:0.439862 
2048 1:0.618609 2:0.279739 3:0.339827 4:0.613963 
2048 1:0.644429 2:0.229725 3:0.317471 4:0.670451 
2048 1:0.53207 2:0.298117 3:0.433754 4:0.569786 
2048 1:0.60732 2:0.245939 3:0.430324 4:0.56308 
2048 1:0.611359 2:0.255363 3:0.414942 4:0.56557 
1572.974092232518 1:0.590655 2:0.27159 3:0.407508 4:0.573509 
2048 1:0.666525 2:0.364007 3:0.316795 4:0.501497 
2048 1:0.54175 2:0.362921 3:0.447575 4:0.474142 
2048 1:0.609777 2:0.337268 3:0.401539 4:0.490959 
2048 1:0.613858 2:0.227561 3:0.413153 4:0.596535 
2048 1:0.467486 2:0.360805 3:0.467481 4:0.51997 
2048 1:0.631889 2:0.220609 3:0.385392 4:0.61831 
2048 1:0.475127 2:0.423248 3:0.412716 4:0.501538 
2048 1:0.491427 2:0.392437 3:0.460078 4:0.472234 
2048 1:0.588682 2:0.305094 3:0.335623 4:0.616504 
2048 1:0.651727 2:0.288023 3:0.359959 4:0.553476 
2048 1:0.391297 2:0.461112 3:0.47546 4:0.468857 
2048 1:0.543383 2:0.370832 3:0.411843 4:0.501874 
2048 1:0.47541 2:0.410104 3:0.457886 4:0.469406 
2048 1:0.56272 2:0.275923 3:0.393691 4:0.60988 
2048 1:0.606212 2:0.291236 3:0.389845 4:0.557202 
2048 1:0.397638 2:0.449243 3:0.616787 4:0.323974 
2048 1:0.369527 2:0.371205 3:0.534545 4:0.523693 
2048 1:0.56859 2:0.341023 3:0.401735 4:0.522909 
2048 1:0.521692 2:0.413363 3:0.382303 4:0.505061 
1966.284180553917 1:0.667796 2:0.27674 3:0.457249 4:0.446061 
2048 1:0.598963 2:0.350667 3:0.369679 4:0.519824 
2048 1:0.532332 2:0.286143 3:0.470458 4:0.541842 
2048 1:0.545199 2:0.443692 3:0.399682 4:0.43104 
2048 1:0.583621 2:0.301373 3:0.393038 4:0.562454 
2048 1:0.61894 2:0.344725 3:0.365644 4:0.512869 
2048 1:0.503173 2:0.424557 3:0.429566 4:0.458209 
2048 1:0.403362 2:0.47106 3:0.483386 4:0.436672 
2048 1:0.461089 2:0.366811 3:0.432841 4:0.555477 
2048 1:0.349359 2:0.538092 3:0.569753 4:0.318687 
2048 1:0.689087 2:0.294899 3:0.294578 4:0.581596 
2048 1:0.536815 2:0.420927 3:0.440822 4:0.42028 
2048 1:0.467343 2:0.334688 3:0.405808 4:0.616377 
2048 1:0.429689 2:0.402274 3:0.484276 4:0.489985 
2048 1:0.453953 2:0.396174 3:0.256635 4:0.71443 
2048 1:0.545482 2:0.356488 3:0.435908 4:0.490538 
2048 1:0.47503 2:0.442252 3:0.456703 4:0.435066 
2048 1:0.489514 2:0.363262 3:0.408672 4:0.561811 
2048 1:0.584387 2:0.343083 3:0.439909 4:0.466537 
2048 1:0.616549 2:0.245291 3:0.412863 4:0.574284 
2048 1:0.708658 2:0.277971 3:0.366207 4:0.507487 
2048 1:0.466833 2:0.4173 3:0.440371 4:0.487596 
2048 1:0.711985 2:0.218517 3:0.270435 4:0.67385 
2048 1:0.666922 2:0.236315 3:0.261287 4:0.703348 
2048 1:0.629167 2:0.262128 3:0.406787 4:0.550686 
2048 1:0.550881 2:0.332368 3:0.375317 4:0.5776 
2048 1:0.420414 2:0.505245 3:0.385766 4:0.486965 
2048 1:0.500803 2:0.427364 3:0.494035 4:0.386998 
2048 1:0.45442 2:0.383947 3:0.560394 4:0.40642 
2048 1:0.347086 2:0.580712 3:0.443841 4:0.406135 
2048 1:0.450611 2:0.433137 3:0.530812 4:0.385912 
2048 1:0.268652 2:0.663889 3:0.381232 4:0.449487 
2048 1:0.714919 2:0.222991 3:0.308699 4:0.624807 
2048 1:0.64444 2:0.243619 3:0.328851 4:0.643001 
2048 1:0.554326 2:0.252594 3:0.380412 4:0.657328 
2048 1:0.723066 2:0.240696 3:0.284479 4:0.623747 
2048 1:0.591984 2:0.304601 3:0.514675 4:0.421075 
2048 1:0.809943 2:0.181458 3:0.285037 4:0.611898 
2048 1:0.515023 2:0.41731 3:0.448705 4:0.434725 
2048 1:0.582151 2:0.401285 3:0.465113 4:0.375641 
2048 1:0.737689 2:0.319878 3:0.340225 4:0.462791 
2048 1:0.648851 2:0.263941 3:0.300368 4:0.646782 
2048 1:0.526687 2:0.387898 3:0.440018 4:0.467457 
2048 1:0.6456 2:0.310521 3:0.389023 4:0.502668 
2048 1:0.800086 2:0.220352 3:0.334217 4:0.523523 
2048 1:0.628861 2:0.280495 3:0.360959 4:0.579965 
2048 1:0.640977 2:0.284597 3:0.359618 4:0.567651 
2048 1:0.571956 2:0.356322 3:0.427556 4:0.476038 
2048 1:0.46512 2:0.429711 3:0.403068 4:0.515139 
2048 1:0.501943 2:0.425536 3:0.390682 4:0.499067 
2048 1:0.515172 2:0.339388 3:0.486015 4:0.481366 
2048 1:0.446353 2:0.438477 3:0.402702 4:0.522369 
2048 1:0.535869 2:0.357413 3:0.349186 4:0.589385 
2048 1:0.507251 2:0.379394 3:0.398729 4:0.538627 
2048 1:0.5169 2:0.364334 3:0.4418 4:0.501363 
2048 1:0.508985 2:0.413853 3:0.511386 4:0.378059 
2048 1:0.476866 2:0.339644 3:0.509815 4:0.490394 
2048 1:0.551957 2:0.382601 3:0.41822 4:0.474737 
2048 1:0.549607 2:0.353249 3:0.506691 4:0.413282 
2048 1:0.543498 2:0.382668 3:0.465226 4:0.431826 
2048 1:0.613568 2:0.317018 3:0.473562 4:0.432003 
2048 1:0.609596 2:0.305249 3:0.476598 4:0.445496 
2048 1:0.514343 2:0.368078 3:0.404213 4:0.53918 
2048 1:0.640268 2:0.29336 3:0.35701 4:0.559746 
2048 1:0.471504 2:0.383501 3:0.404146 4:0.560172 
2048 1:0.53155 2:0.404063 3:0.408445 4:0.478786 
2048 1:0.430686 2:0.420216 3:0.618057 4:0.323738 
2048 1:0.621088 2:0.262613 3:0.388984 4:0.576525 
2048 1:0.653866 2:0.318037 3:0.414496 4:0.458662 
2048 1:0.426514 2:0.387871 3:0.561649 4:0.426542 
2048 1:0.65572 2:0.28081 3:0.36615 4:0.550575 
2048 1:0.61738 2:0.255326 3:0.359041 4:0.619799 
2048 1:0.492406 2:0.360694 3:0.393496 4:0.577779 
2048 1:0.333171 2:0.474469 3:0.453343 4:0.528621 
2048 1:0.6004 2:0.358606 3:0.321183 4:0.561715 
2048 1:0.587906 2:0.305257 3:0.36343 4:0.587726 
2048 1:0.489295 2:0.412156 3:0.462621 4:0.447839 
2048 1:0.508267 2:0.361812 3:0.419036 4:0.535872 
2048 1:0.751484 2:0.268391 3:0.301398 4:0.548582 
2048 1:0.533809 2:0.334484 3:0.395687 4:0.56844 
2048 1:0.63007 2:0.301867 3:0.344678 4:0.573451 
2048 1:0.558377 2:0.237957 3:0.378713 4:0.671772 
2048 1:0.636346 2:0.378598 3:0.474105 4:0.342562 
2048 1:0.560723 2:0.329126 3:0.430485 4:0.512558 
2048 1:0.303551 2:0.567956 3:0.554043 4:0.340267 
2048 1:0.549778 2:0.401595 3:0.43793 4:0.434196 
2048 1:0.587687 2:0.325519 3:0.423182 4:0.501471 
7.040328601141073 1:0.498683 2:0.413632 3:0.272814 4:0.640712 
2048 1:0.661158 2:0.277331 3:0.359826 4:0.557479 
2048 1:0.301444 2:0.513906 3:0.472852 4:0.490568 
2048 1:0.528435 2:0.310049 3:0.459495 4:0.5307 
2048 1:0.585183 2:0.378326 3:0.367328 4:0.503569 
2048 1:0.395125 2:0.487266 3:0.367758 4:0.55064 
2048 1:0.550468 2:0.311955 3:0.444397 4:0.525073 
2048 1:0.349151 2:0.626182 3:0.472586 4:0.323922 
2048 1:0.483639 2:0.411154 3:0.509243 4:0.404809 
2048 1:0.525997 2:0.398512 3:0.462174 4:0.432422 
2048 1:0.701604 2:0.254422 3:0.252076 4:0.662261 
2048 1:0.592484 2:0.375839 3:0.411269 4:0.453232 
2048 1:0.470639 2:0.414558 3:0.439319 4:0.487759 
2048 1:0.580902 2:0.319236 3:0.359519 4:0.582168 
2048 1:0.562582 2:0.378896 3:0.409877 4:0.476648 
2048 1:0.417528 2:0.394027 3:0.42202 4:0.575528 
2048 1:0.429735 2:0.426161 3:0.420466 4:0.530329 
2048 1:0.382828 2:0.43027 3:0.51099 4:0.472438 
2048 1:0.536445 2:0.372671 3:0.416843 4:0.500123 
2048 1:0.533222 2:0.393021 3:0.390553 4:0.508665 
2048 1:0.658879 2:0.280421 3:0.458185 4:0.450737 
2048 1:0.579179 2:0.308891 3:0.416107 4:0.535343 
2048 1:0.380683 2:0.479585 3:0.554501 4:0.372109 
2048 1:0.577276 2:0.29576 3:0.309642 4:0.665362 
2048 1:0.590965 2:0.342362 3:0.362845 4:0.543841 
2048 1:0.548747 2:0.292918 3:0.29681 4:0.706681 
2048 1:0.408677 2:0.378776 3:0.343306 4:0.682911 
2048 1:0.604601 2:0.329843 3:0.403782 4:0.501986 
2048 1:0.557694 2:0.329995 3:0.384149 4:0.56466 
2048 1:0.460035 2:0.448743 3:0.502522 4:0.390012 
2048 1:0.437411 2:0.488923 3:0.413287 4:0.463087 
2048 1:0.561553 2:0.328281 3:0.306016 4:0.646488 
2048 1:0.609324 2:0.3634 3:0.518585 4:0.336365 
2048 1:0.385081 2:0.411154 3:0.34262 4:0.666965 
2048 1:0.667089 2:0.231837 3:0.301332 4:0.66408 
2048 1:0.674156 2:0.335441 3:0.397181 4:0.440741 
2048 1:0.604585 2:0.275779 3:0.342872 4:0.626176 
2048 1:0.387237 2:0.482066 3:0.593737 4:0.321839 
2048 1:0.617433 2:0.287938 3:0.340917 4:0.604762 
2048 1:0.5047 2:0.448275 3:0.416702 4:0.442894 
2048 1:0.575507 2:0.312012 3:0.369496 4:0.583929 
2048 1:0.553234 2:0.367393 3:0.425434 4:0.482809 
2048 1:0.70405 2:0.256793 3:0.33602 4:0.567856 
2048 1:0.628136 2:0.274146 3:0.506734 4:0.431714 
2048 1:0.583985 2:0.422745 3:0.431795 4:0.385417 
2048 1:0.547052 2:0.302816 3:0.364752 4:0.624631 
2048 1:0.603369 2:0.284597 3:0.488176 4:0.461846 
2048 1:0.660405 2:0.244468 3:0.42661 4:0.523725 
2048 1:0.525732 2:0.483771 3:0.412682 4:0.389564 
2048 1:0.639206 2:0.223229 3:0.398613 4:0.594997 
2048 1:0.552473 2:0.372679 3:0.441223 4:0.460834 
2048 1:0.433034 2:0.451962 3:0.520636 4:0.390839 
2048 1:0.442263 2:0.362707 3:0.493541 4:0.513458 
2048 1:0.501574 2:0.410739 3:0.447469 4:0.454599 
2048 1:0.303657 2:0.562018 3:0.418876 4:0.491098 
2048 1:0.489117 2:0.382238 3:0.493811 4:0.449999 
2048 1:0.452268 2:0.380096 3:0.509427 4:0.466158 
2048 1:0.507823 2:0.385191 3:0.470465 4:0.453102 
2048 1:0.402414 2:0.434604 3:0.539338 4:0.419879 
2048 1:0.496007 2:0.416831 3:0.456315 4:0.443584 
2048 1:0.430216 2:0.426027 3:0.507134 4:0.437001 
2048 1:0.486755 2:0.401081 3:0.399864 4:0.531523 
2048 1:0.505856 2:0.400701 3:0.476523 4:0.431423 
2048 1:0.416873 2:0.434218 3:0.581231 4:0.361336 
2048 1:0.502294 2:0.447907 3:0.533646 4:0.320093 
2048 1:0.473737 2:0.401304 3:0.549405 4:0.381122 
2048 1:0.530841 2:0.409879 3:0.427817 4:0.451969 
2048 1:0.542646 2:0.310039 3:0.384794 4:0.599783 
2048 1:0.42187 2:0.420717 3:0.472964 4:0.487499 
2048 1:0.51468 2:0.402454 3:0.466441 4:0.433463 
2048 1:0.425742 2:0.372765 3:0.437954 4:0.576276 
2048 1:0.584094 2:0.372012 3:0.410045 4:0.465136 
2048 1:0.578186 2:0.371151 3:0.519835 4:0.354505 
2048 1:0.672433 2:0.331121 3:0.39965 4:0.443617 
2048 1:0.522822 2:0.253675 3:0.34979 4:0.71773 
2048 1:0.493828 2:0.402439 3:0.431638 4:0.488995 
2048 1:0.625488 2:0.351683 3:0.343903 4:0.522497 
2048 1:0.587367 2:0.289723 3:0.441686 4:0.521644 
2048 1:0.628409 2:0.313575 3:0.431354 4:0.467972 
2048 1:0.634079 2:0.352916 3:0.423309 4:0.42865 
2048 1:0.578867 2:0.315629 3:0.495318 4:0.44208 
2048 1:0.62854 2:0.356312 3:0.366056 4:0.490163 
2048 1:0.667572 2:0.333515 3:0.347388 4:0.501042 
2048 1:0.729243 2:0.272347 3:0.390745 4:0.468599 
2048 1:0.689801 2:0.268937 3:0.418651 4:0.47696 
2048 1:0.666591 2:0.303914 3:0.398389 4:0.480294 
2048 1:0.610832 2:0.324596 3:0.417389 4:0.486159 
2048 1:0.61922 2:0.293781 3:0.420177 4:0.510663 
2048 1:0.477358 2:0.34098 3:0.396147 4:0.610462 
2048 1:0.603381 2:0.339296 3:0.359126 4:0.539428 
2048 1:0.464294 2:0.36027 3:0.357777 4:0.640047 
2048 1:0.626781 2:0.340033 3:0.369407 4:0.507695 
2048 1:0.675065 2:0.222128 3:0.312651 4:0.657579 
2048 1:0.551696 2:0.352887 3:0.361546 4:0.567297 
2048 1:0.537466 2:0.393182 3:0.455759 4:0.433404 
2048 1:0.647623 2:0.363193 3:0.34391 4:0.490762 
2048 1:0.466122 2:0.389038 3:0.501699 4:0.454602 
2048 1:0.652533 2:0.270333 3:0.35504 4:0.578087 
2048 1:0.612106 2:0.377831 3:0.434443 4:0.407188 
2048 1:0.458909 2:0.359678 3:0.420137 4:0.581124 
2048 1:0.561335 2:0.397252 3:0.431787 4:0.433894 
2048 1:0.369123 2:0.480633 3:0.519048 4:0.418482 
2048 1:0.500029 2:0.371716 3:0.421094 4:0.529561 
2048 1:0.465104 2:0.400126 3:0.470044 4:0.474975 
2048 1:0.346903 2:0.506894 3:0.514171 4:0.413722 
2048 1:0.594823 2:0.360634 3:0.392936 4:0.487862 
2048 1:0.553009 2:0.327539 3:0.394775 4:0.559741 
2048 1:0.55276 2:0.340285 3:0.373738 4:0.568773 
2048 1:0.407512 2:0.462239 3:0.507383 4:0.417739 
2048 1:0.567461 2:0.280957 3:0.349305 4:0.647772 
2048 1:0.56154 2:0.33303 3:0.399893 4:0.54114 
2048 1:0.487218 2:0.442457 3:0.411945 4:0.471607 
2048 1:0.559106 2:0.396594 3:0.386629 4:0.486214 
2048 1:0.510922 2:0.383958 3:0.397001 4:0.531588 
2048 1:0.463561 2:0.401127 3:0.532004 4:0.409593 
2048 1:0.476862 2:0.406606 3:0.474735 4:0.453712 
2048 1:0.534903 2:0.329776 3:0.360801 4:0.609931 
2048 1:0.373224 2:0.463586 3:0.517755 4:0.43545 
2048 1:0.554722 2:0.372636 3:0.389725 4:0.51374 
2048 1:0.615546 2:0.281864 3:0.346186 4:0.605796 
2048 1:0.442487 2:0.359444 3:0.47758 4:0.532396 
2048 1:0.432689 2:0.453732 3:0.468524 4:0.446876 
2048 1:0.588699 2:0.292055 3:0.296293 4:0.673597 
2048 1:0.445907 2:0.432011 3:0.419176 4:0.511513 
2048 1:0.365246 2:0.470757 3:0.504225 4:0.449361 
2048 1:0.626826 2:0.323938 3:0.459864 4:0.428247 
2048 1:0.604459 2:0.355006 3:0.372748 4:0.506882 
2048 1:0.405518 2:0.438103 3:0.509642 4:0.444321 
2048 1:0.561741 2:0.246397 3:0.362897 4:0.675301 
2048 1:0.561996 2:0.340138 3:0.425358 4:0.504891 
2048 1:0.548629 2:0.352568 3:0.444182 4:0.483224 
2048 1:0.463621 2:0.423019 3:0.557912 4:0.356637 
2048 1:0.459205 2:0.387554 3:0.437409 4:0.529642 
2048 1:0.444844 2:0.52676 3:0.398679 4:0.426977 
2048 1:0.606677 2:0.299166 3:0.371444 4:0.568794 
2048 1:0.573866 2:0.342302 3:0.411726 4:0.505304 
2048 1:0.553606 2:0.365358 3:0.475332 4:0.431473 
2048 1:0.623215 2:0.342593 3:0.376121 4:0.499738 
2048 1:0.456641 2:0.343329 3:0.478781 4:0.539058 
2048 1:0.556522 2:0.381123 3:0.412661 4:0.477241 
2048 1:0.369987 2:0.442229 3:0.46888 4:0.513142 
2048 1:0.614965 2:0.30427 3:0.372001 4:0.555579 
2048 1:0.46313 2:0.415932 3:0.442176 4:0.490292 
2048 1:0.606132 2:0.331114 3:0.351956 4:0.554537 
2048 1:0.666765 2:0.289359 3:0.342127 4:0.557533 
2048 1:0.372065 2:0.546606 3:0.465807 4:0.398722 
2048 1:0.563787 2:0.273269 3:0.406631 4:0.59784 
2048 1:0.689123 2:0.247012 3:0.293988 4:0.636556 
2048 1:0.70469 2:0.245959 3:0.347093 4:0.566928 
2048 1:0.368415 2:0.428654 3:0.304855 4:0.701708 
2048 1:0.730062 2:0.238542 3:0.299485 4:0.603438 
2048 1:0.515667 2:0.324349 3:0.552515 4:0.426411 
2048 1:0.391028 2:0.405979 3:0.48105 4:0.523138 
2048 1:0.518158 2:0.384998 3:0.511924 4:0.399463 
2048 1:0.86015 2:0.248306 3:0.289432 4:0.488527 
2048 1:0.525672 2:0.381167 3:0.424154 4:0.492517 
2048 1:0.574459 2:0.370826 3:0.436714 4:0.446251 
2048 1:0.536684 2:0.408931 3:0.420332 4:0.456384 
2048 1:0.46309 2:0.444631 3:0.297691 4:0.610998 
2048 1:0.56846 2:0.348966 3:0.428293 4:0.484952 
2048 1:0.462702 2:0.439889 3:0.403785 4:0.505364 
2048 1:0.609432 2:0.269263 3:0.371774 4:0.599476 
2048 1:0.583236 2:0.36526 3:0.414713 4:0.469289 
2048 1:0.444307 2:0.412543 3:0.400115 4:0.555792 
2048 1:0.620376 2:0.316654 3:0.447513 4:0.455692 
2048 1:0.551093 2:0.299292 3:0.425939 4:0.559904 
2048 1:0.564299 2:0.306561 3:0.407931 4:0.55776 
2048 1:0.567369 2:0.316761 3:0.347926 4:0.608507 
2048 1:0.527716 2:0.383977 3:0.433029 4:0.477948 
2048 1:0.664128 2:0.196236 3:0.303827 4:0.703832 
2048 1:0.496033 2:0.332127 3:0.451327 4:0.544095 
84.08104252134753 1:0.566621 2:0.12916 3:0.25088 4:0.918554 
2048 1:0.544595 2:0.342064 3:0.453809 4:0.487945 
2048 1:0.431816 2:0.447331 3:0.432752 4:0.493252 
2048 1:0.523619 2:0.363197 3:0.393358 4:0.54801 
2048 1:0.511236 2:0.347783 3:0.400308 4:0.569315 
2048 1:0.56386 2:0.345169 3:0.435252 4:0.487673 
2048 1:0.411608 2:0.434057 3:0.475252 4:0.480933 
2048 1:0.492635 2:0.41502 3:0.474122 4:0.430252 
2048 1:0.360126 2:0.489766 3:0.536752 4:0.397399 
2048 1:0.546916 2:0.352608 3:0.449058 4:0.479656 
2048 1:0.63132 2:0.248599 3:0.355167 4:0.621165 
2048 1:0.657111 2:0.251729 3:0.291547 4:0.661628 
2048 1:0.537906 2:0.324217 3:0.364035 4:0.609435 
2048 1:0.536431 2:0.305155 3:0.403156 4:0.590621 
2048 1:0.584757 2:0.282581 3:0.400643 4:0.573898 
2048 1:0.449321 2:0.372759 3:0.46343 4:0.528767 
2048 1:0.588801 2:0.351437 3:0.407093 4:0.488088 
2048 1:0.602503 2:0.252308 3:0.327268 4:0.672455 
2048 1:0.519072 2:0.329958 3:0.346002 4:0.63992 
2048 1:0.582322 2:0.330979 3:0.312047 4:0.618357 
2048 1:0.625552 2:0.273049 3:0.309647 4:0.647506 
2048 1:0.380329 2:0.40592 3:0.538719 4:0.470777 
2048 1:0.586889 2:0.383789 3:0.43122 4:0.426542 
2048 1:0.579381 2:0.330611 3:0.441285 4:0.482445 
2048 1:0.399107 2:0.482311 3:0.475683 4:0.436635 
2048 1:0.597695 2:0.287451 3:0.434161 4:0.522831 
2048 1:0.375686 2:0.379239 3:0.593954 4:0.445449 
2048 1:0.549613 2:0.400229 3:0.433546 4:0.440179 
2048 1:0.450505 2:0.43042 3:0.494649 4:0.428994 
2048 1:0.539493 2:0.374389 3:0.494791 4:0.411681 
2048 1:0.686848 2:0.26581 3:0.347247 4:0.560931 
2048 1:0.441447 2:0.38983 3:0.420484 4:0.560973 
2048 1:0.601416 2:0.305264 3:0.427817 4:0.506119 
2048 1:0.555338 2:0.361967 3:0.489304 4:0.418093 
2048 1:0.490742 2:0.401267 3:0.496266 4:0.424506 
2048 1:0.834553 2:0.256264 3:0.279532 4:0.513005 
2048 1:0.677396 2:0.267982 3:0.376057 4:0.535383 
2048 1:0.539866 2:0.343678 3:0.372632 4:0.577143 
2048 1:0.565909 2:0.363803 3:0.366018 4:0.538548 
2048 1:0.637253 2:0.233058 3:0.598738 4:0.372779 
2048 1:0.497251 2:0.395623 3:0.397206 4:0.531112 
2048 1:0.542989 2:0.35179 3:0.396607 4:0.539949 
2048 1:0.518626 2:0.351789 3:0.344445 4:0.617058 
2048 1:0.519834 2:0.391151 3:0.405833 4:0.506575 
2048 1:0.579985 2:0.32254 3:0.39936 4:0.536493 
2048 1:0.587679 2:0.317768 3:0.370549 4:0.565015 
2048 1:0.590058 2:0.31491 3:0.466289 4:0.464952 
2048 1:0.568622 2:0.345394 3:0.430096 4:0.487724 
85.88238228101619 1:0.282091 2:0.485566 3:0.564636 4:0.439669 
2048 1:0.491539 2:0.447463 3:0.397442 4:0.47745 
2048 1:0.53595 2:0.405391 3:0.461264 4:0.415709 
2048 1:0.769629 2:0.201083 3:0.410424 4:0.491484 
2048 1:0.709693 2:0.296241 3:0.29952 4:0.556173 
2048 1:0.661503 2:0.222963 3:0.311372 4:0.669548 
2048 1:0.656347 2:0.215875 3:0.307477 4:0.686091 
2048 1:0.405416 2:0.357216 3:0.569933 4:0.470244 
2048 1:0.668633 2:0.284064 3:0.415995 4:0.483145 
2048 1:0.51139 2:0.356203 3:0.425077 4:0.532287 
2048 1:0.476136 2:0.365786 3:0.509283 4:0.46313 
2048 1:0.533952 2:0.394378 3:0.411186 4:0.484274 
2048 1:0.693443 2:0.285358 3:0.427885 4:0.44582 
2048 1:0.496084 2:0.370649 3:0.454879 4:0.497241 
2048 1:0.610237 2:0.332009 3:0.349385 4:0.552344 
2048 1:0.472753 2:0.440575 3:0.459059 4:0.43608 
2048 1:0.440627 2:0.377666 3:0.460826 4:0.532548 
2048 1:0.565965 2:0.332493 3:0.3863 4:0.552278 
2048 1:0.601273 2:0.336086 3:0.380446 4:0.521885 
2048 1:0.376528 2:0.516489 3:0.524644 4:0.364904 
2048 1:0.409601 2:0.486814 3:0.492207 4:0.403245 
2048 1:0.537029 2:0.396245 3:0.434702 4:0.454725 
2048 1:0.588067 2:0.342749 3:0.306189 4:0.606928 
2048 1:0.567644 2:0.341693 3:0.356003 4:0.572727 
2048 1:0.622139 2:0.330395 3:0.347829 4:0.544406 
2048 1:0.709899 2:0.175956 3:0.453101 4:0.526944 
2048 1:0.67086 2:0.274028 3:0.299784 4:0.616388 
2048 1:0.667624 2:0.263039 3:0.46019 4:0.458792 
2048 1:0.597758 2:0.309691 3:0.401623 4:0.53274 
2048 1:0.663105 2:0.339089 3:0.336124 4:0.510903 
2048 1:0.396543 2:0.394272 3:0.342435 4:0.676168 
2048 1:0.413426 2:0.51607 3:0.385766 4:0.482717 
2048 1:0.670414 2:0.355234 3:0.454397 4:0.360744 
2048 1:0.718293 2:0.256528 3:0.362433 4:0.525851 
2048 1:0.593388 2:0.29291 3:0.457895 4:0.49413 
2048 1:0.368695 2:0.534596 3:0.320224 4:0.56997 
2048 1:0.619963 2:0.352433 3:0.388527 4:0.478229 
2048 1:0.541287 2:0.384352 3:0.412716 4:0.486204 
2048 1:0.635691 2:0.282505 3:0.382555 4:0.55034 
2048 1:0.564749 2:0.364946 3:0.438054 4:0.461782 
2048 1:0.491105 2:0.289042 3:0.401209 4:0.649835 
2048 1:0.536423 2:0.313407 3:0.402583 4:0.580636 
2048 1:0.550946 2:0.356794 3:0.405068 4:0.517009 
2048 1:0.542226 2:0.340231 3:0.424827 4:0.522197 
2048 1:0.503173 2:0.400653 3:0.322063 4:0.599736 
2048 1:0.547444 2:0.330899 3:0.426858 4:0.526077 
2048 1:0.28419 2:0.631782 3:0.451534 4:0.396061 
2048 1:0.640392 2:0.310732 3:0.330697 4:0.569914 
2048 1:0.583621 2:0.408916 3:0.584175 4:0.235995 
2048 1:0.471012 2:0.548153 3:0.459462 4:0.31483 
2048 1:0.609939 2:0.324675 3:0.465732 4:0.435054 
2048 1:0.681844 2:0.258758 3:0.297069 4:0.626692 
2048 1:0.433577 2:0.465171 3:0.418839 4:0.485722 
2048 1:0.35207 2:0.550948 3:0.424432 4:0.454931 
2048 1:0.44433 2:0.564912 3:0.465949 4:0.313524 
2048 1:0.526018 2:0.352572 3:0.395602 4:0.554962 
2048 1:0.613919 2:0.335352 3:0.462749 4:0.423167 
2048 1:0.485303 2:0.415199 3:0.47691 4:0.434552 
2048 1:0.459266 2:0.455784 3:0.537079 4:0.346141 
2048 1:0.591881 2:0.276279 3:0.400968 4:0.576456 
2048 1:0.324506 2:0.534302 3:0.498452 4:0.421228 
2048 1:0.568516 2:0.322977 3:0.539237 4:0.396328 
2048 1:0.524297 2:0.352436 3:0.392258 4:0.560477 
2048 1:0.60036 2:0.308782 3:0.392011 4:0.541097 
2048 1:0.496491 2:0.449769 3:0.303615 4:0.570223 
2048 1:0.528878 2:0.318377 3:0.401788 4:0.584157 
2048 1:0.485616 2:0.387938 3:0.402637 4:0.543782 
2048 1:0.678149 2:0.2865 3:0.295672 4:0.601131 
2048 1:0.625215 2:0.367876 3:0.413728 4:0.429556 
2048 1:0.5091 2:0.291918 3:0.317021 4:0.721599 
2048 1:0.645692 2:0.207889 3:0.323749 4:0.687126 
2048 1:0.666847 2:0.315486 3:0.396908 4:0.469853 
2048 1:0.519509 2:0.327661 3:0.480282 4:0.496479 
2048 1:0.605116 2:0.30899 3:0.31685 4:0.617639 
2048 1:0.51738 2:0.410448 3:0.416456 4:0.476067 
2048 1:0.434031 2:0.470532 3:0.481891 4:0.41096 
2048 1:0.56764 2:0.346129 3:0.444519 4:0.472088 
2048 1:0.520617 2:0.339869 3:0.40441 4:0.564419 
2048 1:0.601697 2:0.328239 3:0.412305 4:0.496271 
2048 1:0.842177 2:0.293365 3:0.295515 4:0.446326 
2048 1:0.531414 2:0.33518 3:0.393563 4:0.571678 
2048 1:0.543176 2:0.340069 3:0.44145 4:0.504505 
2048 1:0.416158 2:0.458186 3:0.411487 4:0.516681 
2048 1:0.458864 2:0.391361 3:0.433453 4:0.529904 
2048 1:0.343446 2:0.513402 3:0.498655 4:0.427212 
2048 1:0.427807 2:0.451265 3:0.425411 4:0.499081 
2048 1:0.649508 2:0.301907 3:0.270251 4:0.635795 
2048 1:0.33743 2:0.473774 3:0.351235 4:0.631993 
2048 1:0.460348 2:0.404858 3:0.438173 4:0.509308 
2048 1:0.663687 2:0.262275 3:0.36156 4:0.570395 
2048 1:0.669189 2:0.33327 3:0.354597 4:0.492264 
2048 1:0.449155 2:0.414087 3:0.374216 4:0.576876 
2048 1:0.628947 2:0.344335 3:0.376574 4:0.492595 
2048 1:0.620856 2:0.300232 3:0.493517 4:0.423406 
2048 1:0.570703 2:0.281739 3:0.441652 4:0.545735 
2048 1:0.547618 2:0.360829 3:0.410637 4:0.511469 
2048 1:0.69309 2:0.291673 3:0.456473 4:0.409144 
2048 1:0.54339 2:0.360748 3:0.477508 4:0.443168 
2048 1:0.667631 2:0.247453 3:0.344584 4:0.600408 
2048 1:0.593922 2:0.345113 3:0.422107 4:0.473213 
2048 1:0.513076 2:0.36157 3:0.430327 4:0.519766 
2048 1:0.733136 2:0.162801 3:0.525177 4:0.443998 
2048 1:0.499352 2:0.412494 3:0.43256 4:0.470666 
2048 1:0.646151 2:0.322987 3:0.368659 4:0.509738 
2048 1:0.613802 2:0.270216 3:0.411827 4:0.552005 
2048 1:0.586623 2:0.303951 3:0.484274 4:0.459065 
2048 1:0.900107 2:0.228906 3:0.356281 4:0.402325 
2048 1:0.605441 2:0.306784 3:0.354946 4:0.57953 
2048 1:0.683354 2:0.300025 3:0.316714 4:0.557813 
2048 1:0.505528 2:0.410344 3:0.445915 4:0.455192 
2048 1:0.638366 2:0.322448 3:0.464124 4:0.415861 
2048 1:0.585755 2:0.311826 3:0.430417 4:0.510461 
2048 1:0.504933 2:0.381648 3:0.43318 4:0.501521 
2048 1:0.391297 2:0.498163 3:0.460807 4:0.440569 
2048 1:0.44528 2:0.47294 3:0.476759 4:0.403787 
2048 1:0.421267 2:0.375987 3:0.489747 4:0.52141 
2048 1:0.655622 2:0.318395 3:0.377149 4:0.496401 
2048 1:0.492982 2:0.36341 3:0.497536 4:0.461662 
2048 1:0.611644 2:0.343568 3:0.37441 4:0.511672 
2048 1:0.61597 2:0.292404 3:0.383226 4:0.555211 
2048 1:0.656049 2:0.315919 3:0.404215 4:0.4709 
2048 1:0.475034 2:0.382466 3:0.467419 4:0.490664 
2048 1:0.39077 2:0.444318 3:0.497663 4:0.4634 
2048 1:0.643213 2:0.300385 3:0.322108 4:0.587588 
2048 1:0.366307 2:0.58509 3:0.469493 4:0.35563 
2048 1:0.474827 2:0.367744 3:0.41955 4:0.556597 
2048 1:0.245043 2:0.653353 3:0.660565 4:0.183068 
2048 1:0.553236 2:0.348309 3:0.433883 4:0.494729 
2048 1:0.401296 2:0.445975 3:0.461226 4:0.491777 
2048 1:0.54668 2:0.390721 3:0.440822 4:0.444251 
2048 1:0.433837 2:0.451976 3:0.480381 4:0.435293 
2048 1:0.432936 2:0.359818 3:0.433481 4:0.588876 
2048 1:0.790052 2:0.256613 3:0.334871 4:0.492136 
2048 1:0.562826 2:0.306346 3:0.334907 4:0.639309 
2048 1:0.530826 2:0.427265 3:0.426528 4:0.43271 
2048 1:0.335742 2:0.494002 3:0.575252 4:0.372685 
2048 1:0.451164 2:0.419678 3:0.481576 4:0.454913 
2048 1:0.463621 2:0.439693 3:0.426021 4:0.479975 
2048 1:0.61249 2:0.265605 3:0.381932 4:0.590397 
2048 1:0.558243 2:0.33769 3:0.517146 4:0.411281 
2048 1:0.598776 2:0.365221 3:0.382845 4:0.490224 
2048 1:0.642417 2:0.274146 3:0.414101 4:0.517992 
2048 1:0.513241 2:0.403514 3:0.493148 4:0.404107 
2048 1:0.476062 2:0.336926 3:0.482405 4:0.524156 
2048 1:0.300138 2:0.517653 3:0.520275 4:0.435661 
2048 1:0.592425 2:0.345374 3:0.455145 4:0.438752 
2048 1:0.561081 2:0.264637 3:0.364132 4:0.655843 
2048 1:0.681461 2:0.333626 3:0.336526 4:0.500285 
2048 1:0.321756 2:0.463052 3:0.584395 4:0.409361 
2048 1:0.640103 2:0.2538 3:0.45391 4:0.501381 
2048 1:0.565573 2:0.31713 3:0.378219 4:0.578407 
2048 1:0.566433 2:0.387722 3:0.363167 4:0.513451 
2048 1:0.44123 2:0.419813 3:0.52381 4:0.416298 
1268.956190786967 1:0.68001 2:0.371547 3:0.466073 4:0.319639 
2048 1:0.460942 2:0.376325 3:0.419211 4:0.560725 
2048 1:0.389154 2:0.550941 3:0.425851 4:0.421148 
2048 1:0.565197 2:0.339749 3:0.458014 4:0.466117 
2048 1:0.446405 2:0.402238 3:0.421684 4:0.540769 
2048 1:0.706208 2:0.206693 3:0.445248 4:0.503219 
2048 1:0.509794 2:0.46575 3:0.396777 4:0.439909 
2048 1:0.557484 2:0.342939 3:0.384974 4:0.54819 
2048 1:0.54354 2:0.335051 3:0.492372 4:0.456083 
2048 1:0.639925 2:0.245422 3:0.343874 4:0.629226 
2048 1:0.55368 2:0.285695 3:0.45554 4:0.540659 
2048 1:0.625286 2:0.406502 3:0.311305 4:0.495138 
2048 1:0.291559 2:0.488396 3:0.447956 4:0.554221 
2048 1:0.370759 2:0.422305 3:0.491749 4:0.511963 
2048 1:0.489788 2:0.354052 3:0.412134 4:0.568308 
2048 1:0.670722 2:0.366578 3:0.35481 4:0.453335 
2048 1:0.42693 2:0.422143 3:0.396929 4:0.562035 
2048 1:0.62725 2:0.321253 3:0.391243 4:0.504377 
2048 1:0.556571 2:0.341419 3:0.488237 4:0.441379 
2048 1:0.439806 2:0.459667 3:0.524703 4:0.374002 
2048 1:0.674609 2:0.283274 3:0.373172 4:0.524969 
2048 1:0.275572 2:0.662525 3:0.597643 4:0.2127 
2048 1:0.502543 2:0.346923 3:0.350205 4:0.631213 
2048 1:0.617109 2:0.306547 3:0.390662 4:0.531163 
2048 1:0.586047 2:0.373208 3:0.380944 4:0.494581 
2048 1:0.449521 2:0.486923 3:0.474939 4:0.386438 
2048 1:0.597791 2:0.294474 3:0.406399 4:0.543072 
2048 1:0.609983 2:0.260717 3:0.318395 4:0.664542 
2048 1:0.480081 2:0.45165 3:0.391398 4:0.49007 
2048 1:0.570155 2:0.306905 3:0.433 4:0.526934 
2048 1:0.524917 2:0.406669 3:0.414043 4:0.475981 
2048 1:0.563069 2:0.288554 3:0.395913 4:0.593199 
2048 1:0.67533 2:0.230657 3:0.376145 4:0.578861 
2048 1:0.650731 2:0.258667 3:0.395164 4:0.54914 
2048 1:0.482169 2:0.377316 3:0.440822 4:0.51678 
2048 1:0.713933 2:0.248419 3:0.330606 4:0.573645 
2048 1:0.56476 2:0.34893 3:0.360597 4:0.561888 
2048 1:0.612395 2:0.293001 3:0.380412 4:0.56123 
2048 1:0.582337 2:0.301873 3:0.406547 4:0.549844 
2048 1:0.597751 2:0.332145 3:0.37639 4:0.534738 
2048 1:0.637241 2:0.253575 3:0.314008 4:0.653984 
2048 1:0.399643 2:0.465213 3:0.557765 4:0.368551 
2048 1:0.652158 2:0.211181 3:0.323269 4:0.67863 
2048 1:0.704177 2:0.224037 3:0.372443 4:0.56343 
2048 1:0.666723 2:0.297445 3:0.467127 4:0.413869 
2048 1:0.711695 2:0.298564 3:0.456793 4:0.38366 
2048 1:0.474057 2:0.410209 3:0.548323 4:0.37266 
2048 1:0.510512 2:0.418461 3:0.363523 4:0.528387 
2048 1:0.528983 2:0.37944 3:0.382873 4:0.534768 
2048 1:0.589813 2:0.341815 3:0.388424 4:0.51678 
2048 1:0.631933 2:0.215724 3:0.40486 4:0.604103 
2048 1:0.575266 2:0.35395 3:0.342163 4:0.565889 
2048 1:0.587029 2:0.37343 3:0.381818 4:0.491694 
2048 1:0.559541 2:0.351457 3:0.343888 4:0.580873 
2048 1:0.680488 2:0.241637 3:0.326687 4:0.613771 
2048 1:0.560566 2:0.31719 3:0.334593 4:0.62792 
2048 1:0.755762 2:0.221094 3:0.309758 4:0.588118 
2048 1:0.652358 2:0.201206 3:0.340068 4:0.669333 
2048 1:0.5735 2:0.420365 3:0.465602 4:0.361297 
2048 1:0.588088 2:0.305292 3:0.353461 4:0.598309 
2048 1:0.647736 2:0.267209 3:0.315476 4:0.628136 
2048 1:0.703143 2:0.306535 3:0.403232 4:0.439291 
2048 1:0.567406 2:0.336274 3:0.496692 4:0.426915 
2048 1:0.570085 2:0.261333 3:0.37256 4:0.641032 
2048 1:0.645313 2:0.238039 3:0.339674 4:0.636973 
2048 1:0.777867 2:0.23357 3:0.436566 4:0.418482 
945.7439279631055 1:0.816472 2:0.227589 3:0.24289 4:0.598929 
2048 1:0.698672 2:0.31485 3:0.30037 4:0.545412 
2048 1:0.608836 2:0.272441 3:0.405576 4:0.560668 
2048 1:0.544672 2:0.401723 3:0.424124 4:0.451783 
2048 1:0.644905 2:0.22826 3:0.381734 4:0.602801 
2048 1:0.572482 2:0.400301 3:0.404885 4:0.450149 
2048 1:0.626536 2:0.325532 3:0.361479 4:0.532606 
2048 1:0.695868 2:0.290279 3:0.329045 4:0.545058 
2048 1:0.617154 2:0.290012 3:0.328025 4:0.616296 
2048 1:0.471839 2:0.424652 3:0.259697 4:0.66621 
2048 1:0.732312 2:0.252298 3:0.357207 4:0.524992 
2048 1:0.605126 2:0.32951 3:0.362562 4:0.54456 
2048 1:0.604212 2:0.246719 3:0.297314 4:0.70895 
2048 1:0.612367 2:0.338272 3:0.383586 4:0.506362 
2048 1:0.683209 2:0.269162 3:0.267801 4:0.6452 
2048 1:0.412128 2:0.388632 3:0.544257 4:0.455914 
2048 1:0.671545 2:0.262109 3:0.337628 4:0.589075 
2048 1:0.622103 2:0.244877 3:0.278323 4:0.715863 
2048 1:0.642435 2:0.313182 3:0.334245 4:0.561288 
2048 1:0.593427 2:0.370048 3:0.433208 4:0.434972 
2048 1:0.54406 2:0.391142 3:0.355261 4:0.539563 
2048 1:0.626787 2:0.288265 3:0.358267 4:0.57602 
2048 1:0.367081 2:0.500267 3:0.529587 4:0.388173 
2048 1:0.573182 2:0.33708 3:0.414188 4:0.510645 
2048 1:0.522208 2:0.391586 3:0.451374 4:0.453511 
2048 1:0.563489 2:0.213783 3:0.30222 4:0.777 
2048 1:0.540738 2:0.313103 3:0.437814 4:0.541027 
2048 1:0.438123 2:0.453093 3:0.541906 4:0.363275 
2048 1:0.660402 2:0.291302 3:0.329705 4:0.574805 
2048 1:0.633156 2:0.251267 3:0.33193 4:0.641529 
2048 1:0.31843 2:0.562384 3:0.55693 4:0.331658 
2048 1:0.603435 2:0.381032 3:0.390219 4:0.460261 
2048 1:0.703211 2:0.240261 3:0.367929 4:0.551033 
2048 1:0.546092 2:0.397699 3:0.335193 4:0.550865 
2048 1:0.524958 2:0.440406 3:0.461836 4:0.385082 
2048 1:0.400478 2:0.524546 3:0.523509 4:0.33697 
2048 1:0.250499 2:0.619363 3:0.640788 4:0.236604 
2048 1:0.434633 2:0.429838 3:0.508572 4:0.42915 
2048 1:0.60829 2:0.335297 3:0.355006 4:0.544827 
2048 1:0.432183 2:0.461043 3:0.460065 4:0.44805 
2048 1:0.496679 2:0.417648 3:0.406622 4:0.496172 
2048 1:0.577975 2:0.291919 3:0.451075 4:0.515505 
2048 1:0.651316 2:0.336371 3:0.3613 4:0.49838 
2048 1:0.581186 2:0.327794 3:0.312322 4:0.622409 
2048 1:0.644282 2:0.2741 3:0.35978 4:0.576057 
2048 1:0.549552 2:0.351161 3:0.352546 4:0.580942 
2048 1:0.491261 2:0.344225 3:0.462615 4:0.521892 
2048 1:0.561828 2:0.346118 3:0.397407 4:0.527283 
2048 1:0.506735 2:0.382059 3:0.431936 4:0.498952 
2048 1:0.572444 2:0.286497 3:0.31767 4:0.669802 
2048 1:0.550305 2:0.33883 3:0.414593 4:0.529406 
2048 1:0.417392 2:0.391801 3:0.461863 4:0.535811 
2048 1:0.379172 2:0.484768 3:0.614192 4:0.304685 
2048 1:0.631503 2:0.288295 3:0.358079 4:0.573448 
2048 1:0.520828 2:0.294895 3:0.431034 4:0.584671 
2048 1:0.484119 2:0.319405 3:0.353422 4:0.673256 
2048 1:0.501028 2:0.392817 3:0.477963 4:0.444671 
2048 1:0.841941 2:0.229896 3:0.355698 4:0.453079 
2048 1:0.569022 2:0.344081 3:0.350862 4:0.573094 
2048 1:0.572672 2:0.248484 3:0.305802 4:0.725779 
2048 1:0.648198 2:0.290623 3:0.337944 4:0.577301 
2048 1:0.724732 2:0.236672 3:0.342924 4:0.562699 
2048 1:0.675155 2:0.227599 3:0.315683 4:0.646989 
2048 1:0.369842 2:0.547055 3:0.406523 4:0.462552 
2048 1:0.538826 2:0.319294 3:0.364833 4:0.613705 
2048 1:0.683122 2:0.276727 3:0.358031 4:0.539189 
2048 1:0.562413 2:0.28363 3:0.373876 4:0.621289 
2048 1:0.591543 2:0.315184 3:0.368432 4:0.568213 
2048 1:0.587669 2:0.320129 3:0.408439 4:0.521246 
2048 1:0.544503 2:0.305506 3:0.311799 4:0.680582 
2048 1:0.745347 2:0.200542 3:0.296707 4:0.634709 
2048 1:0.712407 2:0.21589 3:0.300339 4:0.643121 
2048 1:0.668839 2:0.257648 3:0.296844 4:0.639649 
2048 1:0.499716 2:0.385342 3:0.382754 4:0.55414 
2048 1:0.510796 2:0.39808 3:0.413194 4:0.499493 
2048 1:0.565033 2:0.310777 3:0.319996 4:0.64788 
2048 1:0.694743 2:0.29532 3:0.362171 4:0.504649 
2048 1:0.278487 2:0.582348 3:0.63538 4:0.260842 
2048 1:0.505183 2:0.440653 3:0.44918 4:0.416611 
2048 1:0.668434 2:0.231266 3:0.368182 4:0.59227 
2048 1:0.586439 2:0.370655 3:0.38417 4:0.492649 
1719.590169971903 1:0.739649 2:0.309676 3:0.329985 4:0.481782 
2048 1:0.673535 2:0.262783 3:0.344896 4:0.579049 
2048 1:0.724274 2:0.296745 3:0.409581 4:0.425204 
2048 1:0.727935 2:0.252775 3:0.339893 4:0.545708 
2048 1:0.600345 2:0.255189 3:0.377754 4:0.615807 
2048 1:0.403106 2:0.506073 3:0.621719 4:0.248409 
2048 1:0.553578 2:0.310593 3:0.403319 4:0.569794 
2048 1:0.600607 2:0.283146 3:0.394861 4:0.566151 
2048 1:0.759661 2:0.268687 3:0.294209 4:0.549021 
2048 1:0.677877 2:0.257556 3:0.301433 4:0.625829 
2048 1:0.686287 2:0.210249 3:0.308937 4:0.663916 
191.6021501540974 1:0.667796 2:0.216508 3:0.331306 4:0.647892 
2048 1:0.605158 2:0.285986 3:0.354458 4:0.603018 
2048 1:0.574875 2:0.261093 3:0.35831 4:0.652146 
2048 1:0.586307 2:0.307172 3:0.375195 4:0.574639 
2048 1:0.656213 2:0.250049 3:0.310173 4:0.645619 
2048 1:0.630948 2:0.26802 3:0.346947 4:0.607102 
2048 1:0.464547 2:0.442939 3:0.445764 4:0.453552 
2048 1:0.424691 2:0.487006 3:0.465657 4:0.418658 
2048 1:0.392138 2:0.424389 3:0.62285 4:0.349229 
2048 1:0.611942 2:0.353375 3:0.404642 4:0.466798 
2048 1:0.74121 2:0.25832 3:0.352274 4:0.515442 
2048 1:0.247905 2:0.660922 3:0.56062 4:0.277984 
2048 1:0.666813 2:0.336299 3:0.363333 4:0.481653 
2048 1:0.495013 2:0.345987 3:0.357401 4:0.630113 
2048 1:0.690872 2:0.241091 3:0.315821 4:0.618832 
2048 1:0.436451 2:0.400324 3:0.345963 4:0.631551 
2048 1:0.496693 2:0.391801 3:0.46507 4:0.461247 
2048 1:0.634505 2:0.287148 3:0.335289 4:0.596745 
2048 1:0.696241 2:0.264619 3:0.264643 4:0.642268 
2048 1:0.631355 2:0.298702 3:0.367089 4:0.552299 
2048 1:0.655782 2:0.280021 3:0.348024 4:0.571741 
2048 1:0.543982 2:0.322586 3:0.447106 4:0.515929 
2048 1:0.559627 2:0.302558 3:0.363239 4:0.615631 
2048 1:0.464401 2:0.410342 3:0.4065 4:0.532456 
2048 1:0.555407 2:0.304923 3:0.340668 4:0.640373 
2048 1:0.598788 2:0.284315 3:0.380453 4:0.582307 
2048 1:0.552403 2:0.257877 3:0.322823 4:0.714474 
2048 1:0.658956 2:0.237617 3:0.408282 4:0.55023 
2048 1:0.468252 2:0.422134 3:0.46008 4:0.460191 
2048 1:0.538358 2:0.290266 3:0.334048 4:0.679686 
2048 1:0.699033 2:0.225706 3:0.295848 4:0.64876 
2048 1:0.445794 2:0.483303 3:0.547263 4:0.315408 
2048 1:0.461103 2:0.455692 3:0.475806 4:0.40966 
2048 1:0.586011 2:0.413791 3:0.452978 4:0.370243 
2048 1:0.666321 2:0.243353 3:0.337861 4:0.614155 
2048 1:0.374987 2:0.470794 3:0.375394 4:0.576684 
2048 1:0.546068 2:0.453141 3:0.537131 4:0.270948 
2048 1:0.615508 2:0.359651 3:0.361939 4:0.502441 
2048 1:0.439057 2:0.419741 3:0.298643 4:0.657181 
2048 1:0.66052 2:0.282968 3:0.384979 4:0.525005 
2048 1:0.579708 2:0.331277 3:0.307375 4:0.625198 
2048 1:0.651334 2:0.317659 3:0.476757 4:0.395238 
2048 1:0.723519 2:0.264061 3:0.348897 4:0.528085 
2048 1:0.784912 2:0.25333 3:0.318505 4:0.518182 
2048 1:0.559915 2:0.332676 3:0.393637 4:0.549285 
2048 1:0.265661 2:0.564315 3:0.574618 4:0.356248 
2048 1:0.513415 2:0.422225 3:0.381203 4:0.502746 
2048 1:0.748517 2:0.209739 3:0.366808 4:0.545982 
2048 1:0.635587 2:0.240453 3:0.386245 4:0.592968 
2048 1:0.756464 2:0.266369 3:0.448344 4:0.388631 
2048 1:0.561828 2:0.546574 3:0.399551 4:0.299374 
2048 1:0.575451 2:0.307801 3:0.413502 4:0.542488 
2048 1:0.534429 2:0.37361 3:0.407223 4:0.511365 
2048 1:0.622416 2:0.29861 3:0.402409 4:0.521556 
2048 1:0.680086 2:0.255887 3:0.343074 4:0.581231 
2048 1:0.58288 2:0.301061 3:0.423015 4:0.53278 
2048 1:0.657284 2:0.396085 3:0.494728 4:0.283895 
2048 1:0.590755 2:0.312356 3:0.416912 4:0.519571 
2048 1:0.584272 2:0.255226 3:0.394906 4:0.612294 
2048 1:0.447565 2:0.361949 3:0.418239 4:0.58885 
2048 1:0.502385 2:0.36081 3:0.450651 4:0.506289 
2048 1:0.603159 2:0.322598 3:0.416103 4:0.498189 
2048 1:0.518652 2:0.327935 3:0.388047 4:0.597552 
2048 1:0.41359 2:0.432529 3:0.338488 4:0.626598 
2048 1:0.493021 2:0.489155 3:0.480217 4:0.339458 
2048 1:0.374102 2:0.469738 3:0.569464 4:0.373344 
2048 1:0.211311 2:0.600181 3:0.690561 4:0.240249 
2048 1:0.611288 2:0.285161 3:0.332248 4:0.622281 
2048 1:0.645589 2:0.340231 3:0.315607 4:0.548435 
2048 1:0.614429 2:0.320309 3:0.407054 4:0.500774 
2048 1:0.546835 2:0.372209 3:0.413861 4:0.495404 
2048 1:0.412746 2:0.442561 3:0.388326 4:0.560967 
2048 1:0.428736 2:0.469985 3:0.416195 4:0.486544 
2048 1:0.382044 2:0.486096 3:0.469601 4:0.452742 
2048 1:0.605922 2:0.369207 3:0.383302 4:0.477292 
2048 1:0.454463 2:0.449017 3:0.512961 4:0.384922 
2048 1:0.502223 2:0.290039 3:0.476381 4:0.559104 
2048 1:0.641281 2:0.308405 3:0.366241 4:0.533428 
2048 1:0.470674 2:0.465713 3:0.434719 4:0.435247 
2048 1:0.431047 2:0.495407 3:0.45431 4:0.416993 
2048 1:0.485546 2:0.445363 3:0.445708 4:0.433148 
2048 1:0.399991 2:0.481565 3:0.510018 4:0.400571 
2048 1:0.585006 2:0.287894 3:0.340812 4:0.63371 
2048 1:0.618922 2:0.314329 3:0.412419 4:0.497474 
132.5740155194202 1:0.371078 2:0.369818 3:0.541514 4:0.515347 
2048 1:0.708415 2:0.29548 3:0.336216 4:0.519316 
2048 1:0.449242 2:0.414296 3:0.535793 4:0.402779 
2048 1:0.500404 2:0.363875 3:0.392473 4:0.56712 
2048 1:0.611662 2:0.313915 3:0.378866 4:0.539915 
2048 1:0.444107 2:0.372393 3:0.431309 4:0.56776 
1869.47271160588 1:0.383024 2:0.458776 3:0.556373 4:0.389045 
2048 1:0.446916 2:0.427344 3:0.478363 4:0.453829 
2048 1:0.46843 2:0.34922 3:0.44264 4:0.559896 
2048 1:0.579864 2:0.324012 3:0.362331 4:0.574404 
2048 1:0.688312 2:0.248677 3:0.382063 4:0.541029 
2048 1:0.521432 2:0.384099 3:0.544772 4:0.363934 
2048 1:0.507539 2:0.366732 3:0.374558 4:0.57822 
2048 1:0.588208 2:0.337179 3:0.519514 4:0.384718 
2048 1:0.488664 2:0.44061 3:0.479974 4:0.399766 
2048 1:0.246272 2:0.569352 3:0.475279 4:0.4737 
2048 1:0.479617 2:0.364094 3:0.58494 4:0.380683 
2048 1:0.281211 2:0.627838 3:0.689786 4:0.147257 
2048 1:0.440594 2:0.477725 3:0.524084 4:0.351237 
2048 1:0.656773 2:0.301448 3:0.467878 4:0.417138 
2048 1:0.256758 2:0.582581 3:0.466547 4:0.458827 
2048 1:0.470347 2:0.404701 3:0.74109 4:0.174992 
2048 1:0.612795 2:0.39526 3:0.493598 4:0.323707 
2048 1:0.490516 2:0.470838 3:0.484237 4:0.359448 
2048 1:0.341864 2:0.481057 3:0.552427 4:0.407508 
2048 1:0.489383 2:0.400325 3:0.391274 4:0.539014 
2048 1:0.719677 2:0.317431 3:0.373847 4:0.445579 
2048 1:0.586093 2:0.414877 3:0.526801 4:0.289336 
2048 1:0.41466 2:0.529903 3:0.481087 4:0.364544 
2048 1:0.307364 2:0.457929 3:0.470263 4:0.550351 
2048 1:0.566779 2:0.586431 3:0.307246 4:0.349249 
2048 1:0.31069 2:0.621499 3:0.472665 4:0.362884 
2048 1:0.374345 2:0.640133 3:0.442946 4:0.317785 
2048 1:0.713948 2:0.180859 3:0.283873 4:0.699886 
2048 1:0.495237 2:0.465132 3:0.450721 4:0.397078 
2048 1:0.495162 2:0.37512 3:0.507644 4:0.43777 
2048 1:0.510119 2:0.457155 3:0.484768 4:0.357082 
2048 1:0.387393 2:0.5243 3:0.503613 4:0.369074 
2048 1:0.681301 2:0.276955 3:0.327092 4:0.573432 
2048 1:0.455303 2:0.338165 3:0.454091 4:0.57058 
2048 1:0.457701 2:0.406944 3:0.420748 4:0.528206 
2048 1:0.362281 2:0.498671 3:0.54551 4:0.377279 
2048 1:0.442121 2:0.436829 3:0.382968 4:0.547505 
2048 1:0.333559 2:0.514337 3:0.491581 4:0.442943 
2048 1:0.414141 2:0.429847 3:0.494637 4:0.462685 
2048 1:0.492768 2:0.345204 3:0.325675 4:0.665739 
2048 1:0.578621 2:0.318554 3:0.3689 4:0.573716 
2048 1:0.476463 2:0.451339 3:0.465066 4:0.414981 
2048 1:0.304822 2:0.608901 3:0.61745 4:0.227378 
2048 1:0.536657 2:0.387777 3:0.464912 4:0.432616 
2048 1:0.576399 2:0.323249 3:0.41176 4:0.525358 
2048 1:0.61847 2:0.297838 3:0.368329 4:0.562244 
2048 1:0.684454 2:0.24307 3:0.298114 4:0.639662 
2048 1:0.635393 2:0.305866 3:0.345696 4:0.5631 
2048 1:0.404399 2:0.408728 3:0.515841 4:0.472387 
2048 1:0.400281 2:0.418278 3:0.52221 4:0.458523 
2048 1:0.625876 2:0.322467 3:0.430435 4:0.461191 
2048 1:0.411807 2:0.411046 3:0.50211 4:0.47793 
2048 1:0.61876 2:0.281291 3:0.368463 4:0.580016 
2048 1:0.370443 2:0.449464 3:0.629819 4:0.332638 
2048 1:0.782913 2:0.270066 3:0.334553 4:0.483693 
2048 1:0.620763 2:0.197895 3:0.350281 4:0.690908 
2048 1:0.628272 2:0.244622 3:0.37041 4:0.61081 
2048 1:0.545537 2:0.394222 3:0.427513 4:0.456478 
2048 1:0.557229 2:0.331502 3:0.355865 4:0.593446 
2048 1:0.53469 2:0.39019 3:0.42852 4:0.468931 
2048 1:0.382086 2:0.390248 3:0.404207 4:0.631073 
2048 1:0.606594 2:0.235396 3:0.329319 4:0.685056 
2048 1:0.454249 2:0.348416 3:0.552702 4:0.454496 
2048 1:0.546356 2:0.359799 3:0.398298 4:0.526075 
2048 1:0.607308 2:0.243136 3:0.276822 4:0.731988 
2048 1:0.645112 2:0.25485 3:0.282761 4:0.679458 
2048 1:0.537408 2:0.34632 3:0.471664 4:0.470442 
2048 1:0.72988 2:0.296763 3:0.329525 4:0.505494 
2048 1:0.592393 2:0.318111 3:0.360965 4:0.571826 
2048 1:0.461221 2:0.505252 3:0.404169 4:0.432096 
2048 1:0.681416 2:0.325395 3:0.324591 4:0.52199 
2048 1:0.40781 2:0.486459 3:0.437351 4:0.465835 
2048 1:0.736507 2:0.222881 3:0.299097 4:0.61648 
2048 1:0.44144 2:0.484608 3:0.553761 4:0.31297 
2048 1:0.564235 2:0.394738 3:0.392563 4:0.476509 
2048 1:0.346971 2:0.512308 3:0.607827 4:0.307086 
2048 1:0.672633 2:0.213143 3:0.334992 4:0.643921 
2048 1:0.462482 2:0.397121 3:0.419212 4:0.537119 
2048 1:0.685624 2:0.281024 3:0.345121 4:0.545662 
2048 1:0.491112 2:0.328727 3:0.317955 4:0.694027 
2048 1:0.361123 2:0.464901 3:0.461231 4:0.504377 
2048 1:0.776792 2:0.254158 3:0.309818 4:0.532619 
2048 1:0.729412 2:0.250523 3:0.332098 4:0.55565 
2048 1:0.505895 2:0.397512 3:0.4286 4:0.486599 
2048 1:0.61597 2:0.28367 3:0.394225 4:0.552035 
2048 1:0.535231 2:0.375244 3:0.397568 4:0.519742 
2048 1:0.434902 2:0.440037 3:0.441709 4:0.489154 
2048 1:0.484084 2:0.360788 3:0.514418 4:0.454162 
2048 1:0.493998 2:0.308068 3:0.390217 4:0.639349 
2048 1:0.568676 2:0.416825 3:0.40263 4:0.436256 
2048 1:0.777662 2:0.271289 3:0.32778 4:0.493465 
2048 1:0.681698 2:0.22881 3:0.260029 4:0.699618 
2048 1:0.591333 2:0.335276 3:0.360846 4:0.55275 
2048 1:0.538741 2:0.390333 3:0.446368 4:0.446414 
2048 1:0.653285 2:0.260669 3:0.353218 4:0.589911 
2048 1:0.470193 2:0.374016 3:0.369939 4:0.608602 
2048 1:0.687224 2:0.258301 3:0.346681 4:0.569215 
2048 1:0.663741 2:0.217766 3:0.347575 4:0.634698 
2048 1:0.627116 2:0.27447 3:0.37064 4:0.57848 
1878.065480569735 1:0.559002 2:0.39197 3:0.357881 4:0.520866 
2048 1:0.559072 2:0.300746 3:0.381515 4:0.599107 
2048 1:0.531076 2:0.336563 3:0.529674 4:0.423837 
2048 1:0.670862 2:0.299111 3:0.400492 4:0.481182 
2048 1:0.457868 2:0.427138 3:0.455055 4:0.46806 
2048 1:0.494585 2:0.395913 3:0.421514 4:0.507374 
2048 1:0.52411 2:0.338707 3:0.487161 4:0.474325 
2048 1:0.541409 2:0.451512 3:0.511068 4:0.305401 
2048 1:0.646866 2:0.268211 3:0.285378 4:0.659599 
2048 1:0.517575 2:0.376776 3:0.50352 4:0.418267 
2048 1:0.588417 2:0.355604 3:0.501397 4:0.381501 
2048 1:0.464361 2:0.428743 3:0.479683 4:0.433159 
2048 1:0.43737 2:0.538512 3:0.433807 4:0.383362 
2048 1:0.513401 2:0.376973 3:0.407747 4:0.526075 
2048 1:0.484618 2:0.44117 3:0.495163 4:0.384693 
2048 1:0.76793 2:0.232919 3:0.452978 4:0.410648 
2048 1:0.63798 2:0.323861 3:0.306908 4:0.582699 
2048 1:0.616574 2:0.387434 3:0.399601 4:0.43003 
2048 1:0.316063 2:0.485988 3:0.622902 4:0.347239 
2048 1:0.44659 2:0.55887 3:0.371626 4:0.418904 
2048 1:0.488317 2:0.427746 3:0.446822 4:0.449404 
2048 1:0.54745 2:0.344371 3:0.393056 4:0.547882 
2048 1:0.384087 2:0.513376 3:0.537007 4:0.349493 
2048 1:0.460084 2:0.423471 3:0.465204 4:0.460225 
2048 1:0.569193 2:0.29793 3:0.317177 4:0.661547 
2048 1:0.488317 2:0.365895 3:0.424515 4:0.541719 
2048 1:0.59 2:0.379231 3:0.351159 4:0.516578 
2048 1:0.284997 2:0.529847 3:0.502061 4:0.456043 
2048 1:0.388289 2:0.476319 3:0.595239 4:0.324395 
2048 1:0.578977 2:0.36234 3:0.415855 4:0.475452 
2048 1:0.467343 2:0.434773 3:0.56907 4:0.328325 
2048 1:0.518994 2:0.337449 3:0.404642 4:0.567823 
2048 1:0.332982 2:0.580984 3:0.578623 4:0.272965 
2048 1:0.651025 2:0.367417 3:0.37104 4:0.453693 
2048 1:0.531622 2:0.285757 3:0.52514 4:0.486067 
2048 1:0.500027 2:0.427496 3:0.371395 4:0.520512 
2048 1:0.615794 2:0.336073 3:0.409165 4:0.478877 
2048 1:0.520235 2:0.309567 3:0.369882 4:0.635241 
2048 1:0.518114 2:0.444001 3:0.410002 4:0.444932 
2048 1:0.593931 2:0.283009 3:0.372094 4:0.597477 
2048 1:0.291929 2:0.653494 3:0.403798 4:0.415837 
2048 1:0.333303 2:0.535908 3:0.521541 4:0.385835 
2048 1:0.532815 2:0.317859 3:0.582094 4:0.388466 
955.58998164796 1:0.337497 2:0.478388 3:0.692052 4:0.262015 
2048 1:0.543851 2:0.330951 3:0.399478 4:0.559326 
2048 1:0.427381 2:0.442657 3:0.445882 4:0.487432 
2048 1:0.498585 2:0.391529 3:0.320632 4:0.616041 
2048 1:0.411979 2:0.459475 3:0.44574 4:0.483345 
2048 1:0.451982 2:0.458797 3:0.482157 4:0.408124 
2048 1:0.371262 2:0.508987 3:0.63355 4:0.262803 
2048 1:0.574137 2:0.303411 3:0.341486 4:0.625031 
2048 1:0.492209 2:0.45804 3:0.390171 4:0.47306 
2048 1:0.59154 2:0.373832 3:0.3901 4:0.479426 
2048 1:0.413805 2:0.390954 3:0.510572 4:0.489013 
2048 1:0.408872 2:0.423478 3:0.392982 4:0.582729 
2048 1:0.45282 2:0.443321 3:0.55486 4:0.348804 
2048 1:0.578287 2:0.362322 3:0.475264 4:0.412839 
2048 1:0.578798 2:0.382891 3:0.413034 4:0.455684 
2048 1:0.653265 2:0.23558 3:0.362236 4:0.606556 
2048 1:0.546566 2:0.293289 3:0.423448 4:0.571462 
2048 1:0.51666 2:0.426687 3:0.418944 4:0.455914 
2048 1:0.469422 2:0.42155 3:0.439206 4:0.48213 
2048 1:0.576039 2:0.298401 3:0.321792 4:0.65019 
2048 1:0.495653 2:0.384211 3:0.398186 4:0.542553 
239.3049550275823 1:0.501691 2:0.380314 3:0.32621 4:0.618236 
2048 1:0.492976 2:0.397121 3:0.443511 4:0.484077 
2048 1:0.743442 2:0.267355 3:0.327931 4:0.52944 
2048 1:0.50938 2:0.488263 3:0.298869 4:0.521983 
2048 1:0.566283 2:0.373174 3:0.36375 4:0.530924 
2048 1:0.564526 2:0.361872 3:0.413997 4:0.489606 
2048 1:0.567756 2:0.314008 3:0.387117 4:0.568915 
2048 1:0.5925 2:0.332723 3:0.402258 4:0.510996 
2048 1:0.616898 2:0.338505 3:0.400738 4:0.48485 
2048 1:0.637361 2:0.280662 3:0.375515 4:0.557868 
2048 1:0.629297 2:0.296103 3:0.331753 4:0.594824 
2048 1:0.566973 2:0.349406 3:0.399663 4:0.517901 
2048 1:0.635064 2:0.330563 3:0.381205 4:0.498219 
2048 1:0.647017 2:0.296275 3:0.364103 4:0.544261 
2048 1:0.600786 2:0.326367 3:0.33124 4:0.586845 
2048 1:0.561472 2:0.401739 3:0.437408 4:0.424443 
2048 1:0.493525 2:0.336984 3:0.42852 4:0.56493 
2048 1:0.655157 2:0.330348 3:0.324159 4:0.541489 
2048 1:0.591796 2:0.37366 3:0.498141 4:0.362065 
2048 1:0.585815 2:0.350655 3:0.343252 4:0.560144 
2048 1:0.491072 2:0.303923 3:0.366039 4:0.672233 
2048 1:0.424743 2:0.449462 3:0.449583 4:0.478801 
2048 1:0.528152 2:0.312718 3:0.509529 4:0.475303 
2048 1:0.609633 2:0.313054 3:0.461438 4:0.45476 
2048 1:0.652895 2:0.264525 3:0.376169 4:0.560914 
2048 1:0.641443 2:0.323658 3:0.407121 4:0.47249 
2048 1:0.433261 2:0.417474 3:0.440442 4:0.516492 
2048 1:0.581263 2:0.334669 3:0.379881 4:0.541683 
2048 1:0.629247 2:0.304035 3:0.295282 4:0.625188 
2048 1:0.698965 2:0.241863 3:0.282524 4:0.646044 
2048 1:0.575252 2:0.332982 3:0.479683 4:0.441603 
2048 1:0.589811 2:0.339096 3:0.345997 4:0.566894 
2048 1:0.671101 2:0.273055 3:0.298259 4:0.617947 
2048 1:0.493432 2:0.370098 3:0.369824 4:0.592002 
1506.568692866162 1:0.910045 2:0.195744 3:0.394775 4:0.386704 
2048 1:0.608278 2:0.257603 3:0.321828 4:0.665668 
2048 1:0.512899 2:0.334538 3:0.43311 4:0.547028 
2048 1:0.575275 2:0.284034 3:0.393371 4:0.589711 
2048 1:0.569672 2:0.270492 3:0.405774 4:0.597026 
2048 1:0.515245 2:0.355942 3:0.439291 4:0.51451 
635.4374728716264 1:0.717117 2:0.153474 3:0.295168 4:0.714936 
2048 1:0.631136 2:0.257319 3:0.342924 4:0.623115 
2048 1:0.750346 2:0.248085 3:0.338051 4:0.532387 
2048 1:0.718399 2:0.261771 3:0.329693 4:0.554526 
2048 1:0.640346 2:0.225019 3:0.335626 4:0.660469 
2048 1:0.553534 2:0.39625 3:0.420985 4:0.453872 
2048 1:0.591783 2:0.323222 3:0.398467 4:0.524921 
2048 1:0.48102 2:0.371101 3:0.458299 4:0.507731 
2048 1:0.661428 2:0.317948 3:0.348998 4:0.522461 
2048 1:0.75452 2:0.215865 3:0.301226 4:0.605809 
2048 1:0.601224 2:0.362586 3:0.425997 4:0.442994 
2048 1:0.68911 2:0.232466 3:0.341889 4:0.600218 
2048 1:0.662651 2:0.222991 3:0.396616 4:0.577315 
2048 1:0.558307 2:0.452494 3:0.307644 4:0.50745 
2048 1:0.50936 2:0.376572 3:0.344945 4:0.59722 
2048 1:0.816532 2:0.226733 3:0.292649 4:0.5471 
2048 1:0.725939 2:0.249285 3:0.380831 4:0.5087 
2048 1:0.666665 2:0.250242 3:0.39719 4:0.541052 
2048 1:0.566782 2:0.361561 3:0.395941 4:0.507775 
2048 1:0.60053 2:0.260373 3:0.290321 4:0.70426 
2048 1:0.490072 2:0.388734 3:0.477199 4:0.459685 
2048 1:0.502765 2:0.34742 3:0.406557 4:0.569365 
2048 1:0.635687 2:0.300327 3:0.338754 4:0.576742 
2048 1:0.62584 2:0.281681 3:0.370473 4:0.572199 
2048 1:0.512585 2:0.330513 3:0.392742 4:0.594937 
2048 1:0.38199 2:0.485491 3:0.443474 4:0.481622 
2048 1:0.658087 2:0.275057 3:0.512389 4:0.398609 
2048 1:0.619563 2:0.32124 3:0.371288 4:0.533638 
2048 1:0.680096 2:0.306263 3:0.349587 4:0.519316 
2048 1:0.596714 2:0.259796 3:0.415496 4:0.575026 
2048 1:0.807274 2:0.316177 3:0.402552 4:0.336252 
2048 1:0.245225 2:0.590112 3:0.536356 4:0.386019 
2048 1:0.511357 2:0.349566 3:0.365963 4:0.602769 
2048 1:0.585891 2:0.287288 3:0.372818 4:0.599339 
2048 1:0.539632 2:0.336254 3:0.354719 4:0.604189 
2048 1:0.664634 2:0.293056 3:0.318616 4:0.580824 
2048 1:0.668892 2:0.316212 3:0.357928 4:0.508918 
2048 1:0.695044 2:0.249967 3:0.398467 4:0.515004 
2048 1:0.664237 2:0.272579 3:0.382798 4:0.534474 
2048 1:0.609811 2:0.36472 3:0.330101 4:0.537002 
2048 1:0.662399 2:0.297922 3:0.435117 4:0.452484 
2048 1:0.655903 2:0.249047 3:0.280632 4:0.677887 
2048 1:0.535389 2:0.342758 3:0.442691 4:0.505772 
2048 1:0.707886 2:0.296075 3:0.316636 4:0.54051 
2048 1:0.658435 2:0.242998 3:0.475844 4:0.472891 
2048 1:0.521781 2:0.370639 3:0.53676 4:0.386678 
2048 1:0.474321 2:0.355994 3:0.510134 4:0.473003 
2048 1:0.676599 2:0.285606 3:0.365197 4:0.52773 
2048 1:0.521472 2:0.312875 3:0.516908 4:0.471789 
2048 1:0.657386 2:0.297292 3:0.323904 4:0.576907 
2048 1:0.524109 2:0.346251 3:0.372396 4:0.58879 
2048 1:0.743169 2:0.267924 3:0.294299 4:0.564611 
2048 1:0.432262 2:0.394508 3:0.384879 4:0.600785 
2048 1:0.495753 2:0.412074 3:0.342661 4:0.570696 
2048 1:0.432388 2:0.492012 3:0.480791 4:0.389423 
2048 1:0.674933 2:0.282992 3:0.330291 4:0.570405 
2048 1:0.48806 2:0.459365 3:0.369244 4:0.496372 
2048 1:0.489582 2:0.433576 3:0.470617 4:0.415659 
2048 1:0.329808 2:0.463384 3:0.652375 4:0.329964 
2048 1:0.681492 2:0.274596 3:0.301585 4:0.604803 
2048 1:0.315152 2:0.498551 3:0.625919 4:0.332468 
2048 1:0.410259 2:0.39269 3:0.521208 4:0.478278 
2048 1:0.497652 2:0.317578 3:0.42705 4:0.585705 
2048 1:0.675536 2:0.240683 3:0.332145 4:0.615745 
2048 1:0.471521 2:0.454563 3:0.506945 4:0.370276 
2048 1:0.527586 2:0.354307 3:0.442852 4:0.50121 
2048 1:0.655329 2:0.229926 3:0.306311 4:0.672756 
2048 1:0.380253 2:0.495648 3:0.490502 4:0.423188 
2048 1:0.5838 2:0.336763 3:0.512376 4:0.396468 
2048 1:0.567218 2:0.321881 3:0.419292 4:0.526053 
2048 1:0.530424 2:0.335212 3:0.485532 4:0.472886 
2048 1:0.46019 2:0.416515 3:0.460873 4:0.472503 
2048 1:0.56378 2:0.373056 3:0.452162 4:0.437905 
2048 1:0.607023 2:0.332869 3:0.453684 4:0.441477 
2048 1:0.428167 2:0.356995 3:0.391105 4:0.642259 
2048 1:0.458477 2:0.423101 3:0.514324 4:0.409782 
2048 1:0.612342 2:0.244345 3:0.368705 4:0.627221 
2048 1:0.608446 2:0.294155 3:0.341581 4:0.605414 
2048 1:0.615879 2:0.308502 3:0.332759 4:0.591541 
2048 1:0.518306 2:0.366447 3:0.337003 4:0.608385 
2048 1:0.470375 2:0.473916 3:0.493032 4:0.365082 
2048 1:0.730321 2:0.257208 3:0.267573 4:0.616612 
2048 1:0.602401 2:0.436133 3:0.360846 4:0.429332 
2048 1:0.601456 2:0.31726 3:0.385121 4:0.538612 
2048 1:0.563939 2:0.311204 3:0.335819 4:0.631759 
2048 1:0.607403 2:0.307477 3:0.383645 4:0.546081 
2048 1:0.622886 2:0.260323 3:0.365899 4:0.603927 
2048 1:0.810775 2:0.229703 3:0.49372 4:0.332439 
2048 1:0.608019 2:0.327882 3:0.438746 4:0.462521 
2048 1:0.634193 2:0.276725 3:0.388664 4:0.551512 
2048 1:0.599347 2:0.355994 3:0.445265 4:0.431705 
2048 1:0.62787 2:0.258594 3:0.352004 4:0.616543 
2048 1:0.490995 2:0.388411 3:0.306598 4:0.641592 
2048 1:0.547221 2:0.332301 3:0.365344 4:0.591841 
2048 1:0.541221 2:0.398072 3:0.537392 4:0.339119 
2048 1:0.601631 2:0.333443 3:0.318426 4:0.591562 
2048 1:0.517168 2:0.353905 3:0.389715 4:0.566606 
2048 1:0.577929 2:0.322294 3:0.352035 4:0.589765 
2048 1:0.348867 2:0.537023 3:0.580568 4:0.307637 
2048 1:0.609704 2:0.299277 3:0.395493 4:0.540598 
2048 1:0.430521 2:0.472144 3:0.461724 4:0.436137 
2048 1:0.627901 2:0.233721 3:0.282461 4:0.718185 
2048 1:0.44545 2:0.41507 3:0.324045 4:0.632795 
2048 1:0.489684 2:0.344902 3:0.418675 4:0.571689 
2048 1:0.701323 2:0.224414 3:0.289893 4:0.65526 
2048 1:0.795515 2:0.236648 3:0.319561 4:0.524921 
2048 1:0.518938 2:0.43507 3:0.459891 4:0.400292 
2048 1:0.580836 2:0.317018 3:0.355954 4:0.588927 
2048 1:0.637523 2:0.293574 3:0.296811 4:0.628026 
2048 1:0.677491 2:0.237487 3:0.388771 4:0.554984 
2048 1:0.595143 2:0.327552 3:0.391638 4:0.525775 
2048 1:0.675543 2:0.219874 3:0.338888 4:0.631231 
2048 1:0.568402 2:0.313973 3:0.382121 4:0.574908 
2048 1:0.584028 2:0.323306 3:0.441462 4:0.485526 
2048 1:0.575819 2:0.384456 3:0.337041 4:0.537159 
2048 1:0.63178 2:0.262658 3:0.358451 4:0.601779 
2048 1:0.354664 2:0.506464 3:0.596534 4:0.317957 
2048 1:0.561535 2:0.320687 3:0.336238 4:0.622614 
2048 1:0.648139 2:0.237485 3:0.349246 4:0.624578 
2048 1:0.540396 2:0.392259 3:0.468962 4:0.417623 
2048 1:0.671345 2:0.158868 3:0.307893 4:0.736001 
2048 1:0.584259 2:0.267479 3:0.347189 4:0.649765 
2048 1:0.719393 2:0.230843 3:0.290568 4:0.631892 
2048 1:0.496256 2:0.405765 3:0.413415 4:0.502656 
2048 1:0.651134 2:0.287343 3:0.375201 4:0.537414 
2048 1:0.582183 2:0.253576 3:0.374188 4:0.637669 
2048 1:0.698705 2:0.229696 3:0.332813 4:0.606182 
2048 1:0.626738 2:0.260084 3:0.388841 4:0.57457 
2048 1:0.623508 2:0.297595 3:0.414879 4:0.508986 
2048 1:0.518265 2:0.389655 3:0.45036 4:0.462 
2048 1:0.651058 2:0.280991 3:0.46391 4:0.44998 
2048 1:0.245345 2:0.531045 3:0.623391 4:0.358752 
2048 1:0.542069 2:0.25806 3:0.327782 4:0.718443 
2048 1:0.605815 2:0.321886 3:0.416308 4:0.496103 
2048 1:0.456319 2:0.356312 3:0.368162 4:0.642042 
2048 1:0.631063 2:0.315401 3:0.429406 4:0.465617 
2048 1:0.59879 2:0.271293 3:0.427609 4:0.547054 
2048 1:0.642004 2:0.242217 3:0.285852 4:0.692465 
2048 1:0.717818 2:0.264095 3:0.307948 4:0.57663 
2048 1:0.586313 2:0.354921 3:0.422232 4:0.470572 
2048 1:0.554392 2:0.347201 3:0.369426 4:0.564208 
2048 1:0.739069 2:0.191995 3:0.299311 4:0.646973 
2048 1:0.661808 2:0.272531 3:0.365672 4:0.556517 
2048 1:0.721616 2:0.261114 3:0.317449 4:0.566659 
2048 1:0.675949 2:0.233509 3:0.392218 4:0.558746 
2048 1:0.700678 2:0.24254 3:0.289515 4:0.636254 
2048 1:0.55316 2:0.330541 3:0.396175 4:0.554672 
2048 1:0.600602 2:0.320723 3:0.429747 4:0.487692 
2048 1:0.751808 2:0.241943 3:0.252835 4:0.630389 
2048 1:0.662399 2:0.287009 3:0.424008 4:0.475579 
2048 1:0.720895 2:0.259857 3:0.324432 4:0.560264 
2048 1:0.656171 2:0.278168 3:0.416817 4:0.498352 
1116.091656688787 1:0.662951 2:0.204087 3:0.38754 4:0.606033 
2048 1:0.480341 2:0.316466 3:0.367938 4:0.663954 
2048 1:0.546784 2:0.300401 3:0.288796 4:0.709011 
2048 1:0.535921 2:0.338396 3:0.383883 4:0.574605 
2048 1:0.657386 2:0.284597 3:0.346546 4:0.565229 
2048 1:0.593041 2:0.278243 3:0.393266 4:0.580467 
2048 1:0.610808 2:0.229567 3:0.497216 4:0.507395 
2048 1:0.609852 2:0.275525 3:0.419973 4:0.5399 
2048 1:0.722479 2:0.255591 3:0.268602 4:0.624297 
2048 1:0.654005 2:0.303384 3:0.418939 4:0.470128 
2048 1:0.604058 2:0.437603 3:0.383421 4:0.404138 
2048 1:0.626009 2:0.266832 3:0.375819 4:0.583272 
2048 1:0.618095 2:0.28546 3:0.324306 4:0.624745 
2048 1:0.684326 2:0.222342 3:0.406704 4:0.546818 
2048 1:0.565913 2:0.321891 3:0.349071 4:0.603946 
2048 1:0.583227 2:0.388875 3:0.400301 4:0.458681 
2048 1:0.614143 2:0.226538 3:0.385454 4:0.627239 
2048 1:0.619512 2:0.229122 3:0.312557 4:0.698618 
2048 1:0.647706 2:0.243539 3:0.511219 4:0.444425 
2048 1:0.607609 2:0.313171 3:0.418725 4:0.502193 
2048 1:0.520768 2:0.49145 3:0.472174 4:0.320866 
2048 1:0.646748 2:0.30709 3:0.40826 4:0.485158 
2048 1:0.384105 2:0.481673 3:0.415067 4:0.514743 
2048 1:0.547198 2:0.411191 3:0.44592 4:0.416077 
2048 1:0.487283 2:0.352002 3:0.52157 4:0.453438 
2048 1:0.562466 2:0.331115 3:0.300746 4:0.647834 
2048 1:0.65803 2:0.252845 3:0.429375 4:0.512603 
2048 1:0.425899 2:0.60927 3:0.418142 4:0.330215 
2048 1:0.450964 2:0.405402 3:0.452663 4:0.500004 
2048 1:0.546982 2:0.292443 3:0.385502 4:0.614279 
2048 1:0.634065 2:0.355227 3:0.365722 4:0.487658 
2048 1:0.464791 2:0.494316 3:0.425557 4:0.417211 
2048 1:0.574087 2:0.349261 3:0.431345 4:0.477787 
2048 1:0.280535 2:0.418246 3:0.685346 4:0.38756 
2048 1:0.669952 2:0.223844 3:0.446852 4:0.515114 
2048 1:0.708011 2:0.264809 3:0.341318 4:0.54804 
2048 1:0.570519 2:0.351733 3:0.398094 4:0.513959 
2048 1:0.537889 2:0.333798 3:0.501184 4:0.450926 
2048 1:0.690537 2:0.239509 3:0.31391 4:0.622901 
2048 1:0.624019 2:0.301438 3:0.393038 4:0.527656 
2048 1:0.619878 2:0.310283 3:0.384986 4:0.529875 
2048 1:0.586685 2:0.287034 3:0.387941 4:0.580873 
2048 1:0.512449 2:0.381492 3:0.492245 4:0.429862 
2048 1:0.602069 2:0.318521 3:0.418433 4:0.501235 
2048 1:0.420658 2:0.441515 3:0.477769 4:0.461745 
2048 1:0.474472 2:0.419541 3:0.507119 4:0.407149 
2048 1:0.596814 2:0.288875 3:0.384831 4:0.575517 
2048 1:0.710791 2:0.25135 3:0.416811 4:0.479908 
2048 1:0.447898 2:0.358016 3:0.411815 4:0.601155 
2048 1:0.54175 2:0.378263 3:0.393547 4:0.514728 
2048 1:0.493802 2:0.380428 3:0.421897 4:0.523142 
2048 1:0.544283 2:0.330195 3:0.368373 4:0.592623 
2048 1:0.56198 2:0.346326 3:0.439751 4:0.48244 
2048 1:0.49816 2:0.40143 3:0.415809 4:0.502468 
2048 1:0.649391 2:0.351586 3:0.476257 4:0.358461 
2048 1:0.534265 2:0.40298 3:0.470068 4:0.411107 
2048 1:0.532022 2:0.399244 3:0.472055 4:0.415028 
2048 1:0.531286 2:0.311926 3:0.469394 4:0.515213 
2048 1:0.567732 2:0.377027 3:0.466498 4:0.413494 
2048 1:0.569807 2:0.370621 3:0.406013 4:0.485162 
2048 1:0.517008 2:0.383468 3:0.460587 4:0.458913 
2048 1:0.447105 2:0.413926 3:0.47685 4:0.468618 
2048 1:0.404399 2:0.488864 3:0.481891 4:0.41681 
2048 1:0.519118 2:0.432223 3:0.488556 4:0.371127 
2048 1:0.423574 2:0.480591 3:0.489747 4:0.400473 
2048 1:0.478754 2:0.402557 3:0.423948 4:0.51076 
2048 1:0.507596 2:0.376567 3:0.399777 4:0.540582 
2048 1:0.631927 2:0.296151 3:0.425723 4:0.491388 
2048 1:0.540598 2:0.376747 3:0.435861 4:0.471212 
2048 1:0.339684 2:0.419468 3:0.455259 4:0.581907 
2048 1:0.544755 2:0.34333 3:0.416883 4:0.526235 
2048 1:0.398773 2:0.563363 3:0.483963 4:0.33703 
2048 1:0.387722 2:0.441657 3:0.598625 4:0.360208 
2048 1:0.768455 2:0.178352 3:0.358154 4:0.573372 
2048 1:0.44499 2:0.479835 3:0.393951 4:0.486903 
2048 1:0.279442 2:0.639484 3:0.48266 4:0.357887 
2048 1:0.439535 2:0.338764 3:0.517108 4:0.515612 
2048 1:0.485368 2:0.468771 3:0.438412 4:0.415224 
2048 1:0.710726 2:0.306698 3:0.464069 4:0.367088 
2048 1:0.460028 2:0.388221 3:0.380322 4:0.590487 
2048 1:0.2593 2:0.525825 3:0.580185 4:0.398239 
2048 1:0.567176 2:0.371769 3:0.439028 4:0.450427 
2048 1:0.369051 2:0.416147 3:0.63334 4:0.367523 
2048 1:0.491178 2:0.497047 3:0.374321 4:0.447239 
2048 1:0.525265 2:0.382329 3:0.599162 4:0.302323 
2048 1:0.503789 2:0.340861 3:0.403119 4:0.580176 
2048 1:0.513497 2:0.392883 3:0.466023 4:0.445786 
2048 1:0.558359 2:0.35893 3:0.441251 4:0.470586 
2048 1:0.389257 2:0.534973 3:0.492053 4:0.369797 
2048 1:0.361909 2:0.54218 3:0.482505 4:0.394577 
2048 1:0.378527 2:0.441877 3:0.514523 4:0.459084 
2048 1:0.281823 2:0.568791 3:0.53612 4:0.380028 
2048 1:0.480626 2:0.381625 3:0.39874 4:0.560036 
2048 1:0.37509 2:0.415451 3:0.499994 4:0.505903 
2048 1:0.464406 2:0.467727 3:0.496008 4:0.372616 
2048 1:0.346829 2:0.407939 3:0.459059 4:0.58315 
2048 1:0.403335 2:0.424476 3:0.522321 4:0.446149 
2048 1:0.415677 2:0.402906 3:0.485597 4:0.498777 
2048 1:0.453053 2:0.454188 3:0.495249 4:0.398875 
2048 1:0.437887 2:0.335641 3:0.415987 4:0.630919 
2048 1:0.454352 2:0.40923 3:0.440822 4:0.506115 
2048 1:0.480805 2:0.396547 3:0.456561 4:0.480501 
2048 1:0.552648 2:0.402781 3:0.364609 4:0.508037 
2048 1:0.432312 2:0.491819 3:0.475927 4:0.396668 
2048 1:0.444373 2:0.387534 3:0.463048 4:0.516534 
2048 1:0.413364 2:0.527897 3:0.395716 4:0.457078 
2048 1:0.532246 2:0.420409 3:0.552267 4:0.304908 
2048 1:0.479434 2:0.347874 3:0.497636 4:0.493216 
2048 1:0.421817 2:0.493221 3:0.498847 4:0.380196 
2048 1:0.40563 2:0.528043 3:0.586828 4:0.258918 
2048 1:0.530197 2:0.409074 3:0.452157 4:0.428012 
2048 1:0.332097 2:0.625227 3:0.617476 4:0.185133 
2048 1:0.667225 2:0.307852 3:0.388145 4:0.48713 
2048 1:0.372162 2:0.496594 3:0.511921 4:0.406873 
2048 1:0.719254 2:0.33285 3:0.4415 4:0.354526 
2048 1:0.478755 2:0.385483 3:0.489498 4:0.459831 
2048 1:0.304505 2:0.600637 3:0.468054 4:0.397645 
2048 1:0.514818 2:0.344844 3:0.402507 4:0.56641 
2048 1:0.416987 2:0.368285 3:0.555889 4:0.46324 
2048 1:0.43108 2:0.497533 3:0.459232 4:0.409548 
2048 1:0.604567 2:0.302021 3:0.41682 4:0.517486 
2048 1:0.595328 2:0.29897 3:0.401757 4:0.547114 
2048 1:0.580818 2:0.43251 3:0.386682 4:0.425949 
2048 1:0.765452 2:0.291665 3:0.379753 4:0.426158 
2048 1:0.606937 2:0.259311 3:0.401908 4:0.581421 
2048 1:0.494336 2:0.436216 3:0.409854 4:0.475039 
2048 1:0.548008 2:0.298861 3:0.320787 4:0.67552 
2048 1:0.851814 2:0.216403 3:0.319364 4:0.499403 
2048 1:0.312348 2:0.50038 3:0.571012 4:0.391339 
2048 1:0.438494 2:0.355099 3:0.366459 4:0.661511 
2048 1:0.632468 2:0.263196 3:0.460088 4:0.49114 
2048 1:0.527154 2:0.274133 3:0.378719 4:0.658313 
2048 1:0.697202 2:0.219348 3:0.331554 4:0.620163 
2048 1:0.591643 2:0.289862 3:0.345024 4:0.619622 
2048 1:0.677937 2:0.311989 3:0.327551 4:0.536887 
2048 1:0.67383 2:0.282236 3:0.333686 4:0.568299 
2048 1:0.389967 2:0.4422 3:0.518618 4:0.444962 
2048 1:0.400515 2:0.40992 3:0.538836 4:0.449848 
2048 1:0.547367 2:0.35316 3:0.426441 4:0.50301 
2048 1:0.60612 2:0.296197 3:0.345702 4:0.599951 
2048 1:0.619968 2:0.287854 3:0.299586 4:0.645852 
2048 1:0.516205 2:0.431968 3:0.456842 4:0.410212 
2048 1:0.599311 2:0.302816 3:0.390892 4:0.550981 
2048 1:0.583352 2:0.36092 3:0.407126 4:0.48315 
2048 1:0.465755 2:0.386639 3:0.363851 4:0.604516 
2048 1:0.649912 2:0.339651 3:0.415496 4:0.436754 
2048 1:0.557128 2:0.328236 3:0.41001 4:0.539102 
2048 1:0.72884 2:0.252386 3:0.277614 4:0.613333 
2048 1:0.442415 2:0.470898 3:0.483768 4:0.402674 
2048 1:0.522992 2:0.342608 3:0.36501 4:0.60026 
2048 1:0.56228 2:0.366704 3:0.44013 4:0.459547 
2048 1:0.666717 2:0.290333 3:0.313391 4:0.586169 
2048 1:0.69396 2:0.281449 3:0.376186 4:0.504577 
2048 1:0.47045 2:0.377383 3:0.384967 4:0.587083 
2048 1:0.602845 2:0.291644 3:0.403371 4:0.544982 
2048 1:0.624321 2:0.291824 3:0.310696 4:0.625841 
2048 1:0.482169 2:0.330361 3:0.425473 4:0.585695 
2048 1:0.799565 2:0.17003 3:0.30905 4:0.60757 
2048 1:0.616667 2:0.320065 3:0.42351 4:0.479679 
2048 1:0.612299 2:0.303685 3:0.340676 4:0.591965 
2048 1:0.625285 2:0.362762 3:0.330798 4:0.524905 
2048 1:0.593755 2:0.284921 3:0.385202 4:0.582148 
2048 1:0.747949 2:0.242874 3:0.314757 4:0.566962 
2048 1:0.643569 2:0.235461 3:0.325869 4:0.65506 
2048 1:0.696749 2:0.250095 3:0.30092 4:0.619143 
2048 1:0.5792 2:0.305491 3:0.386948 4:0.569639 
2048 1:0.423334 2:0.424127 3:0.558956 4:0.391556 
2048 1:0.427709 2:0.450091 3:0.443063 4:0.481421 
2048 1:0.610115 2:0.34266 3:0.423423 4:0.460676 
2048 1:0.517404 2:0.399604 3:0.360348 4:0.547626 
2048 1:0.508318 2:0.352031 3:0.433122 4:0.531437 
2048 1:0.568096 2:0.363506 3:0.431723 4:0.465328 
2048 1:0.535892 2:0.429477 3:0.393786 4:0.463057 
2048 1:0.65111 2:0.286174 3:0.492367 4:0.412818 
2048 1:0.484443 2:0.340374 3:0.425247 4:0.572333 
2048 1:0.721135 2:0.365631 3:0.322994 4:0.444502 
2048 1:0.464028 2:0.330429 3:0.509833 4:0.51109 
2048 1:0.625493 2:0.325896 3:0.422139 4:0.466956 
2048 1:0.581147 2:0.401567 3:0.410437 4:0.435215 
2048 1:0.679714 2:0.264172 3:0.321979 4:0.595597 
2048 1:0.674169 2:0.309487 3:0.425022 4:0.439191 
2048 1:0.68108 2:0.280759 3:0.340522 4:0.556063 
2048 1:0.669156 2:0.243497 3:0.398977 4:0.544497 
2048 1:0.574763 2:0.328284 3:0.404712 4:0.52811 
2048 1:0.802819 2:0.211595 3:0.249389 4:0.622523 
2048 1:0.588917 2:0.346704 3:0.435685 4:0.463078 
2048 1:0.666251 2:0.271736 3:0.276621 4:0.6481 
2048 1:0.560619 2:0.266738 3:0.441916 4:0.570199 
2048 1:0.750604 2:0.244048 3:0.375419 4:0.497318 
2048 1:0.549351 2:0.297539 3:0.397851 4:0.593467 
2048 1:0.621025 2:0.325865 3:0.394739 4:0.501593 
2048 1:0.539916 2:0.341565 3:0.485147 4:0.458547 
2048 1:0.529248 2:0.366811 3:0.496614 4:0.428373 
2048 1:0.676365 2:0.334443 3:0.324275 4:0.517092 
2048 1:0.599123 2:0.319873 3:0.409497 4:0.510311 
2048 1:0.648154 2:0.249494 3:0.309644 4:0.653755 
2048 1:0.814303 2:0.236708 3:0.2864 4:0.544982 
2048 1:0.67197 2:0.282074 3:0.402198 4:0.497465 
2048 1:0.651281 2:0.383833 3:0.383455 4:0.421719 
2048 1:0.624763 2:0.224134 3:0.35172 4:0.658207 
2048 1:0.346715 2:0.482458 3:0.412182 4:0.549115 
2048 1:0.521511 2:0.283335 3:0.292866 4:0.746324 
2048 1:0.533451 2:0.360447 3:0.400673 4:0.534319 
2048 1:0.569325 2:0.355903 3:0.328698 4:0.584104 
2048 1:0.544672 2:0.361261 3:0.406312 4:0.516006 
2048 1:0.719396 2:0.250493 3:0.261017 4:0.641291 
2048 1:0.637641 2:0.332929 3:0.333838 4:0.544219 
2048 1:0.634341 2:0.293518 3:0.384082 4:0.537031 
2048 1:0.648152 2:0.311846 3:0.321853 4:0.571029 
2048 1:0.457917 2:0.390344 3:0.346429 4:0.624317 
2048 1:0.259887 2:0.555227 3:0.460019 4:0.49421 
2048 1:0.704659 2:0.340388 3:0.309003 4:0.501462 
2048 1:0.608498 2:0.289738 3:0.350456 4:0.600253 
2048 1:0.60391 2:0.287392 3:0.372638 4:0.583203 
2048 1:0.743494 2:0.209341 3:0.334481 4:0.587142 
2048 1:0.59979 2:0.303809 3:0.421609 4:0.516314 
2048 1:0.668022 2:0.210369 3:0.296768 4:0.691889 
2048 1:0.65786 2:0.251705 3:0.2923 4:0.660632 
2048 1:0.545155 2:0.335212 3:0.315266 4:0.643015 
2048 1:0.79899 2:0.20155 3:0.309816 4:0.573397 
2048 1:0.754531 2:0.222479 3:0.354297 4:0.54045 
2048 1:0.697699 2:0.242936 3:0.339991 4:0.584613 
2048 1:0.63379 2:0.295091 3:0.394376 4:0.525091 
2048 1:0.667132 2:0.325421 3:0.542915 4:0.300865 
2048 1:0.578396 2:0.318484 3:0.421447 4:0.51767 
2048 1:0.316245 2:0.511968 3:0.695665 4:0.239339 
2048 1:0.591194 2:0.259473 3:0.315762 4:0.686595 
2048 1:0.697781 2:0.255476 3:0.282253 4:0.632283 
2048 1:0.742572 2:0.177577 3:0.288112 4:0.672937 
2048 1:0.518817 2:0.332314 3:0.415011 4:0.563513 
2048 1:0.399857 2:0.510278 3:0.557512 4:0.316321 
2048 1:0.785159 2:0.220957 3:0.336637 4:0.534601 
2048 1:0.640657 2:0.284597 3:0.254425 4:0.680703 
2048 1:0.741647 2:0.185939 3:0.373901 4:0.571219 
2048 1:0.746453 2:0.217759 3:0.24153 4:0.67438 
2048 1:0.648198 2:0.238309 3:0.292658 4:0.684348 
2048 1:0.59767 2:0.287615 3:0.352143 4:0.610759 
2048 1:0.588448 2:0.306398 3:0.450952 4:0.490376 
2048 1:0.446527 2:0.336436 3:0.370429 4:0.669382 
2048 1:0.662569 2:0.300013 3:0.412191 4:0.474263 
2048 1:0.579837 2:0.303341 3:0.412065 4:0.545041 
2048 1:0.609672 2:0.284061 3:0.303955 4:0.654727 
2048 1:0.45345 2:0.472126 3:0.471833 4:0.403757 
2048 1:0.451172 2:0.433845 3:0.519747 4:0.397898 
2048 1:0.470048 2:0.251904 3:0.692111 4:0.399091 
2048 1:0.514724 2:0.403593 3:0.423428 4:0.478314 
2048 1:0.556954 2:0.296932 3:0.337855 4:0.650241 
2048 1:0.368695 2:0.439918 3:0.396655 4:0.593173 
2048 1:0.687874 2:0.253517 3:0.304296 4:0.619769 
2048 1:0.657543 2:0.216827 3:0.327379 4:0.662701 
2048 1:0.63193 2:0.338389 3:0.356824 4:0.518512 
2048 1:0.663136 2:0.303173 3:0.346874 4:0.540908 
987.3035417288185 1:0.67123 2:0.210001 3:0.536944 4:0.432424 
2048 1:0.646594 2:0.278808 3:0.325098 4:0.606011 
2048 1:0.676035 2:0.253331 3:0.28906 4:0.647128 
2048 1:0.54088 2:0.332468 3:0.414893 4:0.544104 
2048 1:0.717183 2:0.233607 3:0.262053 4:0.660969 
2048 1:0.601186 2:0.279154 3:0.342127 4:0.627194 
2048 1:0.648979 2:0.276162 3:0.357575 4:0.572389 
2048 1:0.637153 2:0.291044 3:0.359992 4:0.562805 
2048 1:0.624581 2:0.281095 3:0.357595 4:0.58776 
2048 1:0.456739 2:0.421902 3:0.484886 4:0.443858 
2048 1:0.58372 2:0.292112 3:0.339192 4:0.632057 
2048 1:0.556235 2:0.294444 3:0.337865 4:0.654889 
2048 1:0.630341 2:0.329964 3:0.340203 4:0.546643 
2048 1:0.670323 2:0.244036 3:0.32774 4:0.619117 
2048 1:0.547978 2:0.310217 3:0.427731 4:0.548503 
2048 1:0.61891 2:0.307452 3:0.358391 4:0.563346 
2048 1:0.698347 2:0.260311 3:0.352318 4:0.551197 
2048 1:0.618033 2:0.258019 3:0.408984 4:0.563198 
2048 1:0.504145 2:0.499715 3:0.480406 4:0.317134 
2048 1:0.410186 2:0.479535 3:0.483381 4:0.420861 
2048 1:0.598082 2:0.31169 3:0.370007 4:0.564513 
2048 1:0.702601 2:0.214261 3:0.319979 4:0.633133 
2048 1:0.608574 2:0.315307 3:0.364245 4:0.555914 
2048 1:0.64632 2:0.266472 3:0.333932 4:0.609985 
2048 1:0.481505 2:0.415323 3:0.470852 4:0.442315 
2048 1:0.526081 2:0.366075 3:0.426657 4:0.505703 
2048 1:0.342679 2:0.538884 3:0.5775 4:0.314262 
2048 1:0.674399 2:0.282291 3:0.342131 4:0.558836 
2048 1:0.486569 2:0.418332 3:0.418294 4:0.491906 
2048 1:0.68612 2:0.245393 3:0.32717 4:0.605737 
2048 1:0.562292 2:0.286311 3:0.282265 4:0.718412 
2048 1:0.486296 2:0.463256 3:0.44465 4:0.41264 
2048 1:0.584114 2:0.453677 3:0.317763 4:0.471818 
2048 1:0.533239 2:0.368207 3:0.4436 4:0.47897 
2048 1:0.725166 2:0.199548 3:0.265383 4:0.68859 
2048 1:0.597895 2:0.32907 3:0.321777 4:0.596281 
2048 1:0.663009 2:0.244052 3:0.309344 4:0.647 
2048 1:0.664448 2:0.245035 3:0.344806 4:0.605843 
2048 1:0.516528 2:0.290508 3:0.355357 4:0.674792 
2048 1:0.658227 2:0.277525 3:0.321565 4:0.59969 
2048 1:0.723345 2:0.325488 3:0.267028 4:0.546427 
2048 1:0.675885 2:0.236951 3:0.323248 4:0.628643 
2048 1:0.800688 2:0.272243 3:0.366157 4:0.432403 
2048 1:0.608973 2:0.209319 3:0.307407 4:0.736226 
2048 1:0.517393 2:0.460668 3:0.373812 4:0.464204 
2048 1:0.57971 2:0.274958 3:0.469993 4:0.512787 
2048 1:0.624412 2:0.318472 3:0.323056 4:0.583545 
2048 1:0.503528 2:0.414544 3:0.392681 4:0.508725 
2048 1:0.610986 2:0.367237 3:0.385562 4:0.473985 
2048 1:0.578195 2:0.260037 3:0.349951 4:0.661023 
2048 1:0.726461 2:0.274655 3:0.332735 4:0.531453 
2048 1:0.719776 2:0.216145 3:0.43236 4:0.494496 
2048 1:0.727415 2:0.26498 3:0.33338 4:0.540796 
2048 1:0.594819 2:0.299672 3:0.365649 4:0.583855 
2048 1:0.725865 2:0.252504 3:0.409205 4:0.473039 
2048 1:0.771544 2:0.263205 3:0.318103 4:0.51958 
2048 1:0.570511 2:0.405838 3:0.430641 4:0.418288 
2048 1:0.736431 2:0.245978 3:0.389137 4:0.49254 
2048 1:0.82031 2:0.209322 3:0.413613 4:0.433176 
2048 1:0.717966 2:0.243714 3:0.370109 4:0.532162 
2048 1:0.482169 2:0.493663 3:0.433337 4:0.394491 
2048 1:0.635883 2:0.314661 3:0.330464 4:0.569971 
2048 1:0.651028 2:0.240548 3:0.33977 4:0.628482 
2048 1:0.700407 2:0.291518 3:0.360423 4:0.506095 
2048 1:0.655331 2:0.289692 3:0.407525 4:0.497043 
2048 1:0.60728 2:0.318461 3:0.347789 4:0.571713 
2048 1:0.799444 2:0.195605 3:0.30769 4:0.580256 
2048 1:0.709638 2:0.285824 3:0.317269 4:0.54893 
2048 1:0.640332 2:0.241897 3:0.363557 4:0.609781 
2048 1:0.601722 2:0.359393 3:0.40034 4:0.475324 
2048 1:0.571725 2:0.388786 3:0.384543 4:0.485314 
2048 1:0.665785 2:0.321572 3:0.358313 4:0.505582 
2048 1:0.642155 2:0.284433 3:0.329094 4:0.599177 
2048 1:0.614397 2:0.304652 3:0.392393 4:0.534136 
2048 1:0.419187 2:0.480723 3:0.444212 4:0.453047 
2048 1:0.686204 2:0.23591 3:0.305807 4:0.63944 
2048 1:0.578304 2:0.333149 3:0.35959 4:0.569302 
2048 1:0.765336 2:0.212392 3:0.363815 4:0.531709 
2048 1:0.718702 2:0.267059 3:0.389025 4:0.485504 
2048 1:0.805361 2:0.193787 3:0.274606 4:0.613028 
2048 1:0.586011 2:0.301392 3:0.394223 4:0.560725 
2048 1:0.366561 2:0.557147 3:0.439968 4:0.418221 
2048 1:0.61111 2:0.291213 3:0.324515 4:0.62447 
2048 1:0.637382 2:0.214525 3:0.318915 4:0.690843 
2048 1:0.595989 2:0.284597 3:0.358815 4:0.606593 
2048 1:0.671113 2:0.230498 3:0.286059 4:0.679755 
2048 1:0.583234 2:0.322907 3:0.405137 4:0.525946 
2048 1:0.672416 2:0.269724 3:0.316477 4:0.602114 
2048 1:0.453246 2:0.446619 3:0.518875 4:0.380463 
2048 1:0.59653 2:0.318661 3:0.389248 4:0.536968 
2048 1:0.60961 2:0.318887 3:0.329999 4:0.588759 
2048 1:0.607495 2:0.325282 3:0.379817 4:0.528675 
2048 1:0.516328 2:0.411222 3:0.362857 4:0.533447 
2048 1:0.543677 2:0.327798 3:0.3988 4:0.563302 
2048 1:0.662903 2:0.23581 3:0.279659 4:0.68689 
2048 1:0.532527 2:0.315825 3:0.402681 4:0.582175 
2048 1:0.502603 2:0.35566 3:0.485835 4:0.476045 
2048 1:0.707352 2:0.232055 3:0.262472 4:0.671087 
2048 1:0.417013 2:0.446217 3:0.550285 4:0.382031 
2048 1:0.655053 2:0.21277 3:0.380441 4:0.612692 
2048 1:0.711564 2:0.291626 3:0.35355 4:0.50248 
2048 1:0.600683 2:0.31987 3:0.321969 4:0.603779 
1761.746097206 1:0.465791 2:0.481187 3:0.142766 4:0.73217 
2048 1:0.342336 2:0.55399 3:0.552134 4:0.323397 
2048 1:0.57504 2:0.352442 3:0.37714 4:0.530329 
2048 1:0.625325 2:0.263717 3:0.312187 4:0.655264 
2048 1:0.658618 2:0.287327 3:0.372216 4:0.535468 
2048 1:0.290695 2:0.527963 3:0.546836 4:0.403823 
2048 1:0.581178 2:0.35201 3:0.32351 4:0.583766 
2048 1:0.550261 2:0.327124 3:0.439559 4:0.513331 
2048 1:0.619018 2:0.270069 3:0.341207 4:0.622747 
2048 1:0.453027 2:0.530931 3:0.488082 4:0.320556 
2048 1:0.712072 2:0.252738 3:0.249385 4:0.657935 
2048 1:0.570468 2:0.319732 3:0.448953 4:0.494255 
2048 1:0.604974 2:0.28373 3:0.434876 4:0.519684 
2048 1:0.529026 2:0.443183 3:0.338487 4:0.511406 
2048 1:0.453582 2:0.448376 3:0.465923 4:0.437364 
2048 1:0.549807 2:0.360329 3:0.418696 4:0.500617 
2048 1:0.350548 2:0.521976 3:0.554283 4:0.35226 
2048 1:0.604957 2:0.233378 3:0.267959 4:0.755041 
2048 1:0.478141 2:0.360634 3:0.377384 4:0.60804 
2048 1:0.654856 2:0.275273 3:0.374795 4:0.549716 
2048 1:0.543458 2:0.359704 3:0.372483 4:0.555914 
2048 1:0.544761 2:0.380367 3:0.38036 4:0.523687 
2048 1:0.668471 2:0.260792 3:0.316885 4:0.615893 
2048 1:0.557493 2:0.321005 3:0.432992 4:0.520882 
2048 1:0.260414 2:0.595646 3:0.617 4:0.280116 
2048 1:0.364326 2:0.535462 3:0.56134 4:0.314807 
2048 1:0.29841 2:0.507251 3:0.624029 4:0.338435 
2048 1:0.550987 2:0.348973 3:0.420654 4:0.508716 
2048 1:0.665341 2:0.324312 3:0.341188 4:0.521038 
2048 1:0.425876 2:0.444614 3:0.554809 4:0.368514 
2048 1:0.531171 2:0.395844 3:0.416505 4:0.478653 
2048 1:0.332487 2:0.470942 3:0.657763 4:0.313717 
2048 1:0.517044 2:0.392525 3:0.436168 4:0.475249 
2048 1:0.488542 2:0.460504 3:0.587461 4:0.261134 
2048 1:0.482048 2:0.529917 3:0.449605 4:0.336261 
2048 1:0.547545 2:0.366367 3:0.537141 4:0.369334 
2048 1:0.533145 2:0.350166 3:0.471513 4:0.47048 
2048 1:0.569947 2:0.302473 3:0.411027 4:0.555111 
2048 1:0.307021 2:0.503951 3:0.60319 4:0.35821 
690.4452916622871 1:0.186693 2:0.478894 3:0.817731 4:0.259834 
2048 1:0.544026 2:0.338717 3:0.360402 4:0.592779 
2048 1:0.639311 2:0.254228 3:0.453288 4:0.502583 
2048 1:0.45512 2:0.462067 3:0.458102 4:0.428866 
2048 1:0.387501 2:0.467996 3:0.60412 4:0.326105 
2048 1:0.628496 2:0.282209 3:0.351168 4:0.590237 
2048 1:0.715333 2:0.235725 3:0.35166 4:0.56267 
2048 1:0.441523 2:0.454066 3:0.492088 4:0.413266 
2048 1:0.491112 2:0.382692 3:0.433299 4:0.511861 
2048 1:0.461226 2:0.489308 3:0.480893 4:0.368587 
2048 1:0.515467 2:0.359269 3:0.431218 4:0.518625 
2048 1:0.588109 2:0.358973 3:0.383607 4:0.506046 
2048 1:0.362716 2:0.446344 3:0.592947 4:0.383177 
2048 1:0.320133 2:0.490597 3:0.604036 4:0.361384 
2048 1:0.470826 2:0.350382 3:0.412516 4:0.588764 
2048 1:0.616562 2:0.316741 3:0.334442 4:0.579736 
2048 1:0.640135 2:0.264889 3:0.419646 4:0.524526 
2048 1:0.468886 2:0.44304 3:0.495197 4:0.398745 
2048 1:0.671015 2:0.316895 3:0.390171 4:0.471737 
2048 1:0.419381 2:0.465443 3:0.509831 4:0.402019 
2048 1:0.675474 2:0.300364 3:0.373255 4:0.503467 
2048 1:0.759678 2:0.270153 3:0.430125 4:0.401004 
2048 1:0.541846 2:0.339197 3:0.396603 4:0.553767 
2048 1:0.563431 2:0.330511 3:0.401565 4:0.539775 
2048 1:0.454543 2:0.361178 3:0.355579 4:0.652131 
2048 1:0.57754 2:0.502612 3:0.396649 4:0.338479 
2048 1:0.414254 2:0.427684 3:0.503048 4:0.456035 
2048 1:0.578746 2:0.32652 3:0.428468 4:0.500952 
2048 1:0.468173 2:0.419346 3:0.374864 4:0.554175 
2048 1:0.587883 2:0.292837 3:0.385563 4:0.577836 
2048 1:0.513314 2:0.372351 3:0.534704 4:0.394286 
2048 1:0.684501 2:0.266736 3:0.279142 4:0.634938 
2048 1:0.514248 2:0.319831 3:0.338291 4:0.663705 
2048 1:0.684925 2:0.307912 3:0.343381 4:0.519316 
2048 1:0.521631 2:0.333779 3:0.632683 4:0.323607 
2048 1:0.578693 2:0.332441 3:0.434515 4:0.489049 
2048 1:0.508929 2:0.406538 3:0.398308 4:0.506917 
2048 1:0.532063 2:0.366173 3:0.387435 4:0.543556 
2048 1:0.433957 2:0.477838 3:0.504136 4:0.378951 
2048 1:0.556044 2:0.338863 3:0.446242 4:0.489997 
2048 1:0.621801 2:0.257899 3:0.335073 4:0.640763 
2048 1:0.461723 2:0.37311 3:0.464775 4:0.513888 
2048 1:0.612805 2:0.27479 3:0.322276 4:0.642975 
2048 1:0.445013 2:0.391175 3:0.483937 4:0.48978 
2048 1:0.50832 2:0.36648 3:0.452712 4:0.494263 
2048 1:0.674678 2:0.304356 3:0.32919 4:0.547992 
2048 1:0.531769 2:0.3451 3:0.398018 4:0.554221 
2048 1:0.638206 2:0.281042 3:0.397199 4:0.533763 
2048 1:0.596635 2:0.245228 3:0.344649 4:0.667035 
2048 1:0.509723 2:0.327661 3:0.474105 4:0.513244 
2048 1:0.647636 2:0.321929 3:0.373646 4:0.504693 
2048 1:0.351553 2:0.45285 3:0.412464 4:0.579219 
2048 1:0.494722 2:0.36443 3:0.433795 4:0.527552 
2048 1:0.592815 2:0.336701 3:0.420753 4:0.486599 
2048 1:0.606074 2:0.340425 3:0.391882 4:0.501241 
2048 1:0.506477 2:0.333307 3:0.399605 4:0.58875 
2048 1:0.673498 2:0.334104 3:0.407598 4:0.430403 
2048 1:0.700766 2:0.26274 3:0.327981 4:0.57223 
2048 1:0.762032 2:0.178799 3:0.274439 4:0.668538 
877.2869008721385 1:0.223314 2:0.735031 3:0.571495 4:0.204609 
2048 1:0.578739 2:0.309955 3:0.476859 4:0.469282 
2048 1:0.462161 2:0.397199 3:0.474926 4:0.475546 
2048 1:0.64333 2:0.287614 3:0.377727 4:0.542599 
2048 1:0.649309 2:0.341445 3:0.41325 4:0.439055 
2048 1:0.505036 2:0.355497 3:0.429416 4:0.534752 
2048 1:0.755138 2:0.169044 3:0.374755 4:0.578471 
2048 1:0.623311 2:0.316424 3:0.344806 4:0.562652 
2048 1:0.544388 2:0.386599 3:0.435827 4:0.458068 
2048 1:0.69947 2:0.25667 3:0.298821 4:0.611578 
2048 1:0.260264 2:0.47567 3:0.721993 4:0.301671 
2048 1:0.673722 2:0.279752 3:0.407899 4:0.490376 
2048 1:0.528643 2:0.341553 3:0.428114 4:0.52876 
2048 1:0.52925 2:0.313077 3:0.410722 4:0.579811 
2048 1:0.488903 2:0.38209 3:0.441447 4:0.504462 
2048 1:0.39061 2:0.596538 3:0.389208 4:0.407 
2048 1:0.619655 2:0.342889 3:0.327815 4:0.555076 
2048 1:0.421076 2:0.461537 3:0.43862 4:0.479318 
2048 1:0.638429 2:0.331673 3:0.390246 4:0.483691 
2048 1:0.523618 2:0.353571 3:0.405215 4:0.545481 
2048 1:0.643378 2:0.287558 3:0.344551 4:0.576933 
2048 1:0.612065 2:0.296378 3:0.357055 4:0.582493 
2048 1:0.432814 2:0.41507 3:0.556167 4:0.393989 
2048 1:0.597174 2:0.283387 3:0.363557 4:0.603437 
2048 1:0.651697 2:0.249362 3:0.319896 4:0.638774 
2048 1:0.548566 2:0.328035 3:0.375569 4:0.583633 
2048 1:0.704482 2:0.242996 3:0.345548 4:0.571122 
182.8517284120134 1:0.625957 2:0.195744 3:0.316029 4:0.72465 
2048 1:0.554792 2:0.29503 3:0.409007 4:0.578335 
2048 1:0.659178 2:0.302221 3:0.329598 4:0.563719 
2048 1:0.566184 2:0.300189 3:0.504864 4:0.459712 
2048 1:0.584094 2:0.286859 3:0.364141 4:0.610778 
2048 1:0.734489 2:0.249942 3:0.318544 4:0.566836 
2048 1:0.549085 2:0.34822 3:0.486637 4:0.442308 
2048 1:0.560161 2:0.342051 3:0.475902 4:0.449104 
2048 1:0.602868 2:0.296056 3:0.321548 4:0.62893 
2048 1:0.588302 2:0.306432 3:0.371128 4:0.576109 
