svm_type c_svc
kernel_type rbf
gamma 0.5
nr_class 2
total_sv 12430
rho 0.474938
label 1 -1
nr_sv 6223 6207
SV
8192 1:0.432199 2:0.362095 3:0.378846 4:0.189584 5:0.203094 6:0.16968 7:0.393798 8:0.287776 9:0.479219 10:0.189211 11:0.183815 12:0.341838 13:0.295599 14:0.308966 15:0.219715 16:0.19952 
8192 1:0.414255 2:0.351579 3:0.331265 4:0.191535 5:0.227934 6:0.189111 7:0.441841 8:0.288719 9:0.408401 10:0.29963 11:0.199675 12:0.288106 13:0.282827 14:0.306324 15:0.181063 16:0.218556 
831.8121819512809 1:0.204303 2:0.285459 3:0.339315 4:0.120732 5:0.210725 6:0.209203 7:0.325946 8:0.465092 9:0.335254 10:0.266528 11:0.188486 12:0.452624 13:0.225735 14:0.412479 15:0.377063 16:0.279834 
8192 1:0.333126 2:0.37308 3:0.3488 4:0.134449 5:0.246463 6:0.217797 7:0.2827 8:0.368677 9:0.384523 10:0.12654 11:0.214367 12:0.426774 13:0.260397 14:0.346206 15:0.31885 16:0.232108 
88.05189121202505 1:0.111363 2:0.333303 3:0.227891 4:0.0381928 5:0.140901 6:0.476496 7:0.767615 8:0.257391 9:0.459903 10:0.735837 11:0.36537 12:0.197379 13:0.0172526 14:0.21054 15:0.248006 16:0.0212457 
8192 1:0.301792 2:0.306378 3:0.380053 4:0.140126 5:0.2324 6:0.26243 7:0.247664 8:0.40277 9:0.35202 10:0.148281 11:0.208186 12:0.374511 13:0.272742 14:0.372125 15:0.250032 16:0.318881 
8192 1:0.440817 2:0.334564 3:0.399341 4:0.298241 5:0.24868 6:0.135834 7:0.210944 8:0.266676 9:0.399647 10:0.12357 11:0.127827 12:0.319038 13:0.46316 14:0.231461 15:0.242542 16:0.362729 
8192 1:0.148666 2:0.422363 3:0.277775 4:0.0419888 5:0.265598 6:0.478584 7:0.456665 8:0.30849 9:0.389447 10:0.262916 11:0.374905 12:0.33455 13:0.095251 14:0.335178 15:0.213276 16:0.0622861 
8192 1:0.248982 2:0.240714 3:0.350947 4:0.157299 5:0.175741 6:0.307696 7:0.274742 8:0.410826 9:0.355556 10:0.303057 11:0.245782 12:0.336903 13:0.253205 14:0.302339 15:0.357078 16:0.28292 
8192 1:0.102164 2:0.281441 3:0.296937 4:0.0261617 5:0.223931 6:0.48355 7:0.545433 8:0.254049 9:0.357783 10:0.346529 11:0.44841 12:0.393887 13:0.021399 14:0.40157 15:0.199939 16:0.0667018 
8192 1:0.0809861 2:0.336152 3:0.272966 4:0.0457469 5:0.237891 6:0.373449 7:0.504158 8:0.363519 9:0.326608 10:0.38193 11:0.412107 12:0.349425 13:0.0990084 14:0.38849 15:0.220774 16:0.139963 
8192 1:0.365245 2:0.352801 3:0.318175 4:0.185685 5:0.246267 6:0.301892 7:0.265657 8:0.325894 9:0.347864 10:0.0772914 11:0.164477 12:0.385987 13:0.310088 14:0.344713 15:0.241406 16:0.293298 
8192 1:0.112658 2:0.240954 3:0.275262 4:0.0499308 5:0.130434 6:0.39094 7:0.582414 8:0.22986 9:0.364507 10:0.454271 11:0.534052 12:0.385275 13:0.0783357 14:0.293734 15:0.271967 16:0.100299 
8192 1:0.146462 2:0.293623 3:0.242145 4:0.066487 5:0.214356 6:0.460832 7:0.472936 8:0.369466 9:0.298695 10:0.336664 11:0.354718 12:0.35775 13:0.0990409 14:0.422725 15:0.223008 16:0.132767 
8192 1:0.0806434 2:0.295056 3:0.231812 4:0.0357418 5:0.144527 6:0.561221 7:0.378744 8:0.401755 9:0.336933 10:0.165778 11:0.432152 12:0.394681 13:0.0945101 14:0.406696 15:0.27898 16:0.149117 
8192 1:0.291264 2:0.318225 3:0.4006 4:0.119454 5:0.245199 6:0.208671 7:0.32353 8:0.309689 9:0.394918 10:0.191787 11:0.31356 12:0.404316 13:0.222443 14:0.334883 15:0.261108 16:0.240405 
8192 1:0.242989 2:0.28741 3:0.544814 4:0.0666682 5:0.152459 6:0.272118 7:0.436053 8:0.19408 9:0.620449 10:0.299706 11:0.403927 12:0.376122 13:0.141268 14:0.21868 15:0.272378 16:0.0741717 
8192 1:0.282371 2:0.444878 3:0.300257 4:0.0727493 5:0.267944 6:0.351438 7:0.400683 8:0.298743 9:0.391545 10:0.175202 11:0.342704 12:0.355697 13:0.182284 14:0.311538 15:0.202397 16:0.1165 
8192 1:0.303453 2:0.422215 3:0.370858 4:0.142952 5:0.362473 6:0.355679 7:0.284742 8:0.279524 9:0.361078 10:0.194204 11:0.192858 12:0.29052 13:0.23379 14:0.295598 15:0.172943 16:0.244678 
8192 1:0.31347 2:0.341273 3:0.387718 4:0.16111 5:0.289981 6:0.215499 7:0.303303 8:0.27611 9:0.401532 10:0.217825 11:0.245045 12:0.401414 13:0.231687 14:0.294929 15:0.32396 16:0.214226 
8192 1:0.396231 2:0.238249 3:0.345234 4:0.199119 5:0.188354 6:0.227743 7:0.297775 8:0.296717 9:0.349503 10:0.288039 11:0.240465 12:0.358363 13:0.290176 14:0.254376 15:0.337341 16:0.292448 
8192 1:0.173553 2:0.265196 3:0.313729 4:0.130077 5:0.240695 6:0.295831 7:0.441693 8:0.354849 9:0.32713 10:0.430737 11:0.262485 12:0.30442 13:0.161925 14:0.365611 15:0.241475 16:0.292071 
8192 1:0.438831 2:0.38132 3:0.421953 4:0.0813233 5:0.245614 6:0.210663 7:0.333901 8:0.289823 9:0.331251 10:0.178046 11:0.170919 12:0.535639 13:0.318507 14:0.287727 15:0.282607 16:0.157648 
8192 1:0.257718 2:0.301111 3:0.380873 4:0.125839 5:0.274877 6:0.255202 7:0.315063 8:0.261223 9:0.378321 10:0.181834 11:0.287582 12:0.421327 13:0.175513 14:0.339623 15:0.286591 16:0.299448 
8192 1:0.423756 2:0.383998 3:0.428139 4:0.16277 5:0.265938 6:0.18571 7:0.25547 8:0.285268 9:0.468862 10:0.0725926 11:0.198247 12:0.364566 13:0.280605 14:0.295508 15:0.237791 16:0.272474 
8192 1:0.216824 2:0.368716 3:0.36413 4:0.0855161 5:0.253441 6:0.247685 7:0.360496 8:0.296834 9:0.447241 10:0.211918 11:0.371992 12:0.42549 13:0.137586 14:0.306615 15:0.355001 16:0.143056 
8192 1:0.216842 2:0.383291 3:0.376028 4:0.065327 5:0.227068 6:0.335401 7:0.40446 8:0.286084 9:0.472043 10:0.179178 11:0.341768 12:0.407522 13:0.144443 14:0.322083 15:0.268487 16:0.117347 
8192 1:0.499863 2:0.179895 3:0.285379 4:0.100002 5:0.106898 6:0.377372 7:0.408016 8:0.329286 9:0.301195 10:0.497727 11:0.287 12:0.293882 13:0.166816 14:0.226326 15:0.330828 16:0.176158 
8192 1:0.322428 2:0.34449 3:0.418838 4:0.123849 5:0.275122 6:0.238449 7:0.301025 8:0.313685 9:0.366028 10:0.191742 11:0.229202 12:0.428729 13:0.270482 14:0.324034 15:0.258047 16:0.205042 
8192 1:0.173381 2:0.39664 3:0.272242 4:0.063315 5:0.262761 6:0.363899 7:0.48337 8:0.356796 9:0.381711 10:0.306845 11:0.289764 12:0.357485 13:0.1063 14:0.38549 15:0.243973 16:0.130446 
8192 1:0.252697 2:0.240662 3:0.301919 4:0.103998 5:0.201698 6:0.331808 7:0.564657 8:0.187411 9:0.32976 10:0.580425 11:0.382953 12:0.297206 13:0.133476 14:0.229591 15:0.226164 16:0.192837 
8192 1:0.242678 2:0.312292 3:0.349519 4:0.123802 5:0.225248 6:0.266402 7:0.354973 8:0.351392 9:0.381826 10:0.18123 11:0.267059 12:0.413696 13:0.206587 14:0.39579 15:0.262123 16:0.239688 
8192 1:0.380411 2:0.393343 3:0.236925 4:0.121768 5:0.201035 6:0.355012 7:0.342785 8:0.45405 9:0.392894 10:0.181537 11:0.23575 12:0.319362 13:0.187963 14:0.373015 15:0.310567 16:0.0806383 
8192 1:0.146749 2:0.302123 3:0.30189 4:0.0939475 5:0.199711 6:0.353536 7:0.379986 8:0.340964 9:0.320038 10:0.243394 11:0.299582 12:0.457212 13:0.19799 14:0.35112 15:0.323323 16:0.243487 
8192 1:0.220297 2:0.36833 3:0.305717 4:0.107904 5:0.217777 6:0.331306 7:0.366181 8:0.333085 9:0.451521 10:0.125373 11:0.321448 12:0.389588 13:0.143949 14:0.368062 15:0.299619 16:0.173754 
8192 1:0.363513 2:0.402771 3:0.34831 4:0.131819 5:0.218208 6:0.304553 7:0.365831 8:0.293725 9:0.468231 10:0.0901429 11:0.22185 12:0.346451 13:0.237435 14:0.326762 15:0.190579 16:0.212741 
8192 1:0.199777 2:0.341451 3:0.383307 4:0.0804503 5:0.252033 6:0.344338 7:0.388994 8:0.295542 9:0.424487 10:0.268267 11:0.293543 12:0.393135 13:0.144104 14:0.318233 15:0.289841 16:0.16065 
8192 1:0.156731 2:0.3843 3:0.388932 4:0.0446815 5:0.236742 6:0.395721 7:0.41696 8:0.275639 9:0.480445 10:0.254857 11:0.410571 12:0.350953 13:0.114146 14:0.280124 15:0.249877 16:0.0752197 
8192 1:0.294933 2:0.394097 3:0.388016 4:0.111378 5:0.272086 6:0.272032 7:0.300996 8:0.344584 9:0.441137 10:0.0919655 11:0.266374 12:0.357671 13:0.207485 14:0.368169 15:0.207976 16:0.218325 
8192 1:0.33284 2:0.334969 3:0.349815 4:0.144828 5:0.266031 6:0.199997 7:0.341499 8:0.335849 9:0.30081 10:0.232527 11:0.226935 12:0.429671 13:0.300565 14:0.35203 15:0.250134 16:0.226877 
8192 1:0.28575 2:0.296951 3:0.41214 4:0.170899 5:0.20684 6:0.198349 7:0.215938 8:0.302809 9:0.406118 10:0.0695622 11:0.274402 12:0.488087 13:0.307746 14:0.299755 15:0.370537 16:0.283416 
8192 1:0.275777 2:0.389455 3:0.400769 4:0.132412 5:0.289602 6:0.309323 7:0.390516 8:0.238894 9:0.438481 10:0.170074 11:0.274456 12:0.387631 13:0.219138 14:0.333412 15:0.19296 16:0.106394 
8192 1:0.465427 2:0.331578 3:0.434812 4:0.188186 5:0.254226 6:0.199275 7:0.164107 8:0.38265 9:0.357427 10:0.10386 11:0.21097 12:0.328153 13:0.386115 14:0.304492 15:0.20355 16:0.256256 
8192 1:0.286736 2:0.336334 3:0.368689 4:0.0996781 5:0.247039 6:0.269817 7:0.375227 8:0.280531 9:0.382708 10:0.212326 11:0.320216 12:0.42162 13:0.194727 14:0.33281 15:0.255568 16:0.179338 
8192 1:0.232595 2:0.326318 3:0.380268 4:0.125639 5:0.231499 6:0.258021 7:0.310948 8:0.375693 9:0.363939 10:0.128074 11:0.219398 12:0.445727 13:0.263101 14:0.403998 15:0.248221 16:0.275491 
8192 1:0.24563 2:0.391428 3:0.264532 4:0.13268 5:0.242066 6:0.310326 7:0.329921 8:0.471038 9:0.301976 10:0.169628 11:0.174329 12:0.364866 13:0.283002 14:0.41642 15:0.231446 16:0.255133 
8192 1:0.135021 2:0.38155 3:0.344135 4:0.0628345 5:0.237236 6:0.3203 7:0.420084 8:0.290695 9:0.439175 10:0.214576 11:0.384834 12:0.445842 13:0.13067 14:0.327462 15:0.319697 16:0.110963 
8192 1:0.178736 2:0.314047 3:0.317091 4:0.114425 5:0.27735 6:0.320443 7:0.46867 8:0.314245 9:0.300746 10:0.567839 11:0.257075 12:0.32044 13:0.180649 14:0.254365 15:0.314527 16:0.168773 
8192 1:0.403091 2:0.316653 3:0.436611 4:0.138845 5:0.237399 6:0.268941 7:0.290784 8:0.350351 9:0.444003 10:0.24994 11:0.328709 12:0.236953 13:0.240578 14:0.292483 15:0.176862 16:0.136528 
8192 1:0.393079 2:0.361099 3:0.406289 4:0.0843279 5:0.198815 6:0.225755 7:0.276956 8:0.417697 9:0.443451 10:0.109602 11:0.20168 12:0.365534 13:0.229063 14:0.356257 15:0.244174 16:0.282946 
8192 1:0.262664 2:0.273115 3:0.394876 4:0.0608838 5:0.131689 6:0.254537 7:0.478649 8:0.247246 9:0.437321 10:0.265324 11:0.312023 12:0.533945 13:0.176853 14:0.323139 15:0.323277 16:0.153213 
8192 1:0.220821 2:0.365428 3:0.349625 4:0.111135 5:0.224335 6:0.265619 7:0.303644 8:0.399479 9:0.381595 10:0.112801 11:0.238296 12:0.428715 13:0.250688 14:0.381288 15:0.280647 16:0.270025 
8192 1:0.186461 2:0.39167 3:0.376681 4:0.0378772 5:0.25054 6:0.320874 7:0.397065 8:0.300688 9:0.445108 10:0.250624 11:0.420913 12:0.36868 13:0.119935 14:0.292572 15:0.265248 16:0.114928 
8192 1:0.278691 2:0.381108 3:0.380606 4:0.106404 5:0.264764 6:0.253285 7:0.301273 8:0.353926 9:0.410159 10:0.134598 11:0.254478 12:0.408868 13:0.21451 14:0.354898 15:0.276953 16:0.212247 
8192 1:0.181754 2:0.280298 3:0.327581 4:0.0624037 5:0.204007 6:0.414508 7:0.481873 8:0.334194 9:0.377894 10:0.408592 11:0.370782 12:0.307302 13:0.0975854 14:0.351984 15:0.215215 16:0.118424 
8192 1:0.251102 2:0.353362 3:0.295096 4:0.208752 5:0.227851 6:0.217854 7:0.236235 8:0.357389 9:0.348615 10:0.0547196 11:0.179324 12:0.423972 13:0.336261 14:0.339478 15:0.32749 16:0.407616 
8192 1:0.333642 2:0.354697 3:0.318328 4:0.115886 5:0.26216 6:0.381489 7:0.323282 8:0.380059 9:0.376569 10:0.244431 11:0.237303 12:0.279058 13:0.176646 14:0.336246 15:0.239111 16:0.174855 
8192 1:0.296559 2:0.399829 3:0.384924 4:0.101708 5:0.254668 6:0.269079 7:0.315262 8:0.30094 9:0.428114 10:0.149847 11:0.318604 12:0.387203 13:0.229475 14:0.281404 15:0.265123 16:0.17306 
8192 1:0.331995 2:0.344887 3:0.327388 4:0.0797024 5:0.16447 6:0.279625 7:0.333284 8:0.462676 9:0.434292 10:0.127965 11:0.172968 12:0.394723 13:0.180287 14:0.405661 15:0.310105 16:0.262734 
8192 1:0.307951 2:0.365028 3:0.400272 4:0.0771447 5:0.168731 6:0.257449 7:0.420032 8:0.321293 9:0.54018 10:0.185787 11:0.302375 12:0.386634 13:0.160429 14:0.320537 15:0.290122 16:0.107284 
8192 1:0.324985 2:0.297018 3:0.50207 4:0.115509 5:0.265357 6:0.154504 7:0.238253 8:0.274386 9:0.491735 10:0.165932 11:0.376416 12:0.416584 13:0.174357 14:0.287764 15:0.347308 16:0.178486 
8192 1:0.222999 2:0.371019 3:0.356121 4:0.071381 5:0.211887 6:0.31292 7:0.389912 8:0.402002 9:0.444716 10:0.176315 11:0.284526 12:0.389911 13:0.163326 14:0.402226 15:0.252921 16:0.132358 
8192 1:0.18751 2:0.307844 3:0.330156 4:0.100185 5:0.222759 6:0.319049 7:0.343714 8:0.354542 9:0.339815 10:0.215193 11:0.302205 12:0.463242 13:0.198964 14:0.36529 15:0.336219 16:0.1933 
8192 1:0.329632 2:0.309736 3:0.372385 4:0.177388 5:0.245015 6:0.198883 7:0.255578 8:0.300484 9:0.347738 10:0.168063 11:0.219367 12:0.470621 13:0.305846 14:0.291032 15:0.371221 16:0.267321 
8192 1:0.224399 2:0.204924 3:0.350884 4:0.077942 5:0.212324 6:0.437832 7:0.433685 8:0.338719 9:0.315662 10:0.441665 11:0.350884 12:0.30264 13:0.110967 14:0.368375 15:0.201209 16:0.144524 
8192 1:0.219376 2:0.368475 3:0.356678 4:0.108658 5:0.230415 6:0.293736 7:0.363149 8:0.323884 9:0.426523 10:0.103248 11:0.309367 12:0.432839 13:0.206089 14:0.388552 15:0.24259 16:0.168585 
8192 1:0.122211 2:0.325529 3:0.372116 4:0.0651984 5:0.23063 6:0.331393 7:0.433997 8:0.326136 9:0.431531 10:0.209356 11:0.446998 12:0.384084 13:0.112904 14:0.430133 15:0.180193 16:0.0967152 
8192 1:0.392645 2:0.329471 3:0.324446 4:0.223991 5:0.243868 6:0.178252 7:0.202765 8:0.324228 9:0.320414 10:0.0958999 11:0.148805 12:0.386137 13:0.369472 14:0.290839 15:0.296517 16:0.439562 
8192 1:0.289516 2:0.287163 3:0.465328 4:0.100282 5:0.227009 6:0.234202 7:0.310736 8:0.339956 9:0.454613 10:0.273579 11:0.248285 12:0.335549 13:0.187937 14:0.305015 15:0.264856 16:0.295551 
8192 1:0.334485 2:0.387012 3:0.286443 4:0.162145 5:0.260345 6:0.252123 7:0.308457 8:0.426703 9:0.384223 10:0.114049 11:0.20682 12:0.338204 13:0.23455 14:0.420313 15:0.248647 16:0.213323 
8192 1:0.210308 2:0.356395 3:0.353655 4:0.100978 5:0.269027 6:0.272181 7:0.381785 8:0.311512 9:0.349441 10:0.218867 11:0.322 12:0.415057 13:0.213706 14:0.361969 15:0.223587 16:0.1966 
8192 1:0.518655 2:0.402834 3:0.339177 4:0.124514 5:0.262455 6:0.340416 7:0.30164 8:0.414994 9:0.395349 10:0.189916 11:0.138969 12:0.211773 13:0.242461 14:0.338154 15:0.134779 16:0.184704 
8192 1:0.293596 2:0.270248 3:0.343944 4:0.0721622 5:0.237661 6:0.286918 7:0.49964 8:0.291793 9:0.365543 10:0.541572 11:0.353196 12:0.256895 13:0.0908767 14:0.281956 15:0.225348 16:0.189819 
4205.008952298741 1:0.278414 2:0.285047 3:0.402901 4:0.145473 5:0.167646 6:0.221039 7:0.242562 8:0.408544 9:0.403684 10:0.07575 11:0.188063 12:0.423624 13:0.294337 14:0.384345 15:0.278873 16:0.38639 
8192 1:0.235334 2:0.232864 3:0.351767 4:0.198869 5:0.219507 6:0.13227 7:0.313303 8:0.409481 9:0.293611 10:0.130619 11:0.252222 12:0.473974 13:0.299743 14:0.523471 15:0.231093 16:0.310088 
8192 1:0.17645 2:0.278253 3:0.463414 4:0.0796172 5:0.162737 6:0.282995 7:0.465786 8:0.222316 9:0.571107 10:0.2786 11:0.445926 12:0.390734 13:0.105327 14:0.297109 15:0.278431 16:0.0757078 
8192 1:0.373629 2:0.33514 3:0.377167 4:0.108037 5:0.207201 6:0.214683 7:0.301573 8:0.324735 9:0.416267 10:0.182023 11:0.267953 12:0.352006 13:0.226505 14:0.279947 15:0.266626 16:0.331407 
8192 1:0.177689 2:0.28688 3:0.359034 4:0.126346 5:0.204405 6:0.253788 7:0.320035 8:0.336685 9:0.374483 10:0.244677 11:0.312035 12:0.440286 13:0.220914 14:0.309376 15:0.374107 16:0.266278 
8192 1:0.309251 2:0.321336 3:0.392765 4:0.135383 5:0.261603 6:0.207403 7:0.342535 8:0.262627 9:0.422512 10:0.198664 11:0.278524 12:0.409681 13:0.192526 14:0.326282 15:0.286436 16:0.244285 
8192 1:0.231055 2:0.271675 3:0.38801 4:0.0838209 5:0.221379 6:0.310107 7:0.364649 8:0.420974 9:0.403798 10:0.374705 11:0.296115 12:0.287238 13:0.13284 14:0.360422 15:0.263515 16:0.201138 
8192 1:0.366774 2:0.351466 3:0.409454 4:0.199363 5:0.286298 6:0.246935 7:0.250956 8:0.25613 9:0.467771 10:0.0693513 11:0.207937 12:0.396388 13:0.253251 14:0.320785 15:0.298144 16:0.190995 
6635.07018994552 1:0.232561 2:0.328739 3:0.434527 4:0.103073 5:0.257144 6:0.297673 7:0.43125 8:0.315995 9:0.486495 10:0.179278 11:0.294443 12:0.393076 13:0.141586 14:0.456707 15:0.168393 16:0.0557442 
8192 1:0.318963 2:0.310671 3:0.359235 4:0.204197 5:0.23575 6:0.173967 7:0.261947 8:0.291991 9:0.399152 10:0.067618 11:0.209588 12:0.461433 13:0.28794 14:0.351638 15:0.33445 16:0.324204 
8192 1:0.169867 2:0.342738 3:0.315808 4:0.0925161 5:0.194041 6:0.263435 7:0.394084 8:0.357592 9:0.432746 10:0.146583 11:0.288224 12:0.465584 13:0.151252 14:0.401219 15:0.335881 16:0.240393 
8192 1:0.295647 2:0.363957 3:0.353768 4:0.154248 5:0.234884 6:0.199706 7:0.288295 8:0.320419 9:0.361612 10:0.100495 11:0.272666 12:0.462718 13:0.316365 14:0.322686 15:0.29698 16:0.24249 
8192 1:0.342113 2:0.366425 3:0.426146 4:0.125711 5:0.214455 6:0.233644 7:0.311711 8:0.340645 9:0.47852 10:0.118409 11:0.196427 12:0.39584 13:0.257754 14:0.325796 15:0.264238 16:0.220668 
8192 1:0.167021 2:0.331691 3:0.365539 4:0.107924 5:0.16714 6:0.277052 7:0.491764 8:0.325538 9:0.479617 10:0.247881 11:0.287988 12:0.391615 13:0.19094 14:0.379718 15:0.225441 16:0.172324 
8192 1:0.391124 2:0.322627 3:0.342153 4:0.212166 5:0.221589 6:0.207556 7:0.218269 8:0.360572 9:0.366373 10:0.119684 11:0.239995 12:0.315482 13:0.343228 14:0.302829 15:0.256633 16:0.324296 
8192 1:0.261292 2:0.369965 3:0.322567 4:0.14114 5:0.237959 6:0.272602 7:0.297022 8:0.374425 9:0.368156 10:0.0935192 11:0.246466 12:0.420151 13:0.265566 14:0.377398 15:0.274751 16:0.236783 
8192 1:0.240639 2:0.35987 3:0.423594 4:0.128686 5:0.25462 6:0.242967 7:0.270102 8:0.341524 9:0.453729 10:0.108859 11:0.279087 12:0.396879 13:0.233666 14:0.340595 15:0.279372 16:0.225787 
8192 1:0.136867 2:0.220288 3:0.37197 4:0.0597417 5:0.190328 6:0.312859 7:0.525837 8:0.330557 9:0.378645 10:0.556319 11:0.423874 12:0.33385 13:0.0871864 14:0.337144 15:0.268203 16:0.0941595 
8192 1:0.149699 2:0.217621 3:0.42515 4:0.103502 5:0.222224 6:0.309984 7:0.346733 8:0.381736 9:0.400483 10:0.341585 11:0.348387 12:0.387376 13:0.134881 14:0.396069 15:0.316216 16:0.133277 
8192 1:0.241838 2:0.35938 3:0.398764 4:0.103586 5:0.257508 6:0.280497 7:0.306649 8:0.388552 9:0.421445 10:0.134121 11:0.255729 12:0.413988 13:0.205664 14:0.39939 15:0.268203 16:0.162643 
8192 1:0.249121 2:0.388711 3:0.424305 4:0.107408 5:0.209866 6:0.229355 7:0.433295 8:0.239098 9:0.543045 10:0.274348 11:0.268555 12:0.393997 13:0.200016 14:0.220375 15:0.322557 16:0.153897 
8192 1:0.292953 2:0.246026 3:0.379676 4:0.190256 5:0.191175 6:0.250464 7:0.272722 8:0.336691 9:0.436701 10:0.161869 11:0.285197 12:0.338764 13:0.231007 14:0.350729 15:0.289023 16:0.292477 
8192 1:0.222451 2:0.312354 3:0.343066 4:0.106808 5:0.213132 6:0.3003 7:0.313392 8:0.401694 9:0.354315 10:0.163318 11:0.305452 12:0.440357 13:0.219701 14:0.395939 15:0.304655 16:0.177616 
8192 1:0.29317 2:0.220536 3:0.400983 4:0.132483 5:0.20048 6:0.204058 7:0.398691 8:0.257562 9:0.355545 10:0.292471 11:0.312448 12:0.471001 13:0.21362 14:0.353862 15:0.28664 16:0.220067 
8192 1:0.222725 2:0.342102 3:0.361654 4:0.110759 5:0.206152 6:0.311781 7:0.313283 8:0.348201 9:0.411132 10:0.134903 11:0.261848 12:0.440385 13:0.227033 14:0.341948 15:0.314976 16:0.219539 
8192 1:0.25733 2:0.329049 3:0.365144 4:0.145547 5:0.22982 6:0.210631 7:0.281491 8:0.325236 9:0.393492 10:0.115556 11:0.276689 12:0.432386 13:0.251533 14:0.339041 15:0.309659 16:0.309918 
8192 1:0.341366 2:0.3047 3:0.366157 4:0.203363 5:0.245367 6:0.224404 7:0.308397 8:0.268294 9:0.404424 10:0.233914 11:0.232294 12:0.351554 13:0.267135 14:0.276861 15:0.303896 16:0.261708 
8192 1:0.283155 2:0.418771 3:0.381695 4:0.0800828 5:0.232697 6:0.232353 7:0.408161 8:0.320848 9:0.502778 10:0.149506 11:0.298426 12:0.375526 13:0.17116 14:0.34566 15:0.230493 16:0.158853 
8192 1:0.200119 2:0.332646 3:0.321644 4:0.107155 5:0.18767 6:0.283035 7:0.294976 8:0.416847 9:0.396973 10:0.0810444 11:0.328992 12:0.42692 13:0.208567 14:0.405661 15:0.307517 16:0.239745 
8192 1:0.405467 2:0.308931 3:0.359991 4:0.144976 5:0.240686 6:0.250415 7:0.328386 8:0.309841 9:0.389232 10:0.232763 11:0.270777 12:0.283898 13:0.215497 14:0.316048 15:0.194996 16:0.280342 
8192 1:0.328228 2:0.313541 3:0.256913 4:0.26621 5:0.235565 6:0.195175 7:0.227995 8:0.316206 9:0.30557 10:0.0923203 11:0.154499 12:0.372996 13:0.363393 14:0.318398 15:0.30688 16:0.483747 
8192 1:0.27012 2:0.242049 3:0.343066 4:0.1831 5:0.18996 6:0.191931 7:0.329689 8:0.317516 9:0.36514 10:0.204148 11:0.2818 12:0.431551 13:0.254351 14:0.361912 15:0.321996 16:0.306505 
8192 1:0.175743 2:0.328259 3:0.258501 4:0.0736097 5:0.260878 6:0.394057 7:0.425378 8:0.439142 9:0.302912 10:0.374726 11:0.253335 12:0.307284 13:0.109527 14:0.416705 15:0.245092 16:0.206401 
8192 1:0.277098 2:0.312118 3:0.35193 4:0.16696 5:0.233676 6:0.176799 7:0.316588 8:0.289758 9:0.368377 10:0.163349 11:0.264124 12:0.440107 13:0.264565 14:0.330047 15:0.307957 16:0.326517 
8192 1:0.176957 2:0.319546 3:0.340654 4:0.0463444 5:0.212937 6:0.6008 7:0.432945 8:0.346926 9:0.445527 10:0.334833 11:0.277095 12:0.199933 13:0.057046 14:0.337208 15:0.149426 16:0.150384 
8192 1:0.459563 2:0.295651 3:0.407503 4:0.287974 5:0.218763 6:0.141131 7:0.171697 8:0.262081 9:0.397439 10:0.126096 11:0.149074 12:0.343184 13:0.451374 14:0.197047 15:0.302554 16:0.388346 
8192 1:0.26421 2:0.275732 3:0.396775 4:0.168354 5:0.157743 6:0.215482 7:0.283765 8:0.374274 9:0.496697 10:0.0913685 11:0.300561 12:0.397229 13:0.230291 14:0.379208 15:0.32661 16:0.228632 
8192 1:0.352176 2:0.377819 3:0.477597 4:0.114548 5:0.213552 6:0.195337 7:0.285669 8:0.357259 9:0.532219 10:0.0481671 11:0.243516 12:0.397764 13:0.259718 14:0.349358 15:0.235183 16:0.174472 
8192 1:0.292408 2:0.223284 3:0.361409 4:0.19155 5:0.191336 6:0.184398 7:0.314388 8:0.28406 9:0.36275 10:0.23415 11:0.303674 12:0.441267 13:0.263245 14:0.318513 15:0.352263 16:0.284549 
8192 1:0.277192 2:0.394148 3:0.376107 4:0.118832 5:0.290762 6:0.270886 7:0.278734 8:0.365208 9:0.400761 10:0.152631 11:0.287989 12:0.370437 13:0.218704 14:0.339253 15:0.278787 16:0.15424 
8192 1:0.290204 2:0.368713 3:0.311918 4:0.151922 5:0.247775 6:0.23328 7:0.336865 8:0.368085 9:0.392558 10:0.136173 11:0.226622 12:0.392835 13:0.233234 14:0.39089 15:0.272938 16:0.237631 
8192 1:0.303752 2:0.280365 3:0.336865 4:0.220178 5:0.215912 6:0.184058 7:0.276886 8:0.271775 9:0.392873 10:0.10877 11:0.225034 12:0.43842 13:0.281248 14:0.330121 15:0.345853 16:0.362902 
8192 1:0.202815 2:0.436788 3:0.407713 4:0.0964159 5:0.245575 6:0.200482 7:0.362811 8:0.316745 9:0.503977 10:0.105263 11:0.264409 12:0.455009 13:0.221982 14:0.323432 15:0.30698 16:0.187718 
8192 1:0.164764 2:0.24593 3:0.35574 4:0.0738361 5:0.179215 6:0.357426 7:0.418379 8:0.436957 9:0.359092 10:0.364106 11:0.277495 12:0.386995 13:0.149665 14:0.40951 15:0.296093 16:0.151579 
8192 1:0.249143 2:0.26639 3:0.27129 4:0.239248 5:0.220381 6:0.228179 7:0.299676 8:0.287647 9:0.30162 10:0.193332 11:0.202098 12:0.393068 13:0.313827 14:0.322898 15:0.3112 16:0.448032 
8192 1:0.198097 2:0.305451 3:0.358608 4:0.0763007 5:0.189427 6:0.310308 7:0.458419 8:0.268339 9:0.429742 10:0.312971 11:0.414959 12:0.379127 13:0.139517 14:0.30306 15:0.261912 16:0.142449 
6306.67136908977 1:0.496844 2:0.477815 3:0.239568 4:0.192384 5:0.19459 6:0.195571 7:0.126148 8:0.73303 9:0.257093 10:0.0741308 11:0.0674824 12:0.199076 13:0.518789 14:0.371161 15:0.18253 16:0.306785 
8192 1:0.222912 2:0.303184 3:0.366014 4:0.0681097 5:0.209102 6:0.337199 7:0.513563 8:0.285813 9:0.391967 10:0.460842 11:0.368447 12:0.316694 13:0.14334 14:0.286461 15:0.214718 16:0.0992297 
8192 1:0.261292 2:0.381348 3:0.374517 4:0.130613 5:0.240616 6:0.304414 7:0.307531 8:0.313731 9:0.458174 10:0.0813982 11:0.284975 12:0.374284 13:0.222875 14:0.338646 15:0.243808 16:0.204746 
8192 1:0.263574 2:0.374947 3:0.347985 4:0.117222 5:0.251391 6:0.271726 7:0.285272 8:0.370328 9:0.387075 10:0.133896 11:0.241761 12:0.416043 13:0.232325 14:0.341877 15:0.31418 16:0.237364 
8192 1:0.195832 2:0.365799 3:0.322744 4:0.115726 5:0.266504 6:0.294109 7:0.321181 8:0.416637 9:0.403116 10:0.116126 11:0.205273 12:0.435086 13:0.161675 14:0.451813 15:0.322557 16:0.20922 
8192 1:0.372427 2:0.429898 3:0.397073 4:0.14851 5:0.276066 6:0.228744 7:0.29336 8:0.318739 9:0.46573 10:0.0729911 11:0.186046 12:0.366736 13:0.274469 14:0.321605 15:0.228134 16:0.207936 
8192 1:0.453536 2:0.329165 3:0.34713 4:0.152171 5:0.26792 6:0.206095 7:0.309007 8:0.280518 9:0.310275 10:0.12637 11:0.200791 12:0.418945 13:0.282899 14:0.359158 15:0.202483 16:0.301622 
8192 1:0.221162 2:0.285716 3:0.381697 4:0.120902 5:0.202835 6:0.289183 7:0.311819 8:0.349129 9:0.409986 10:0.163301 11:0.30394 12:0.409489 13:0.20125 14:0.369445 15:0.290459 16:0.245533 
8192 1:0.44832 2:0.274827 3:0.312767 4:0.322506 5:0.218247 6:0.130043 7:0.161102 8:0.293452 9:0.345211 10:0.0341939 11:0.113392 12:0.36827 13:0.427144 14:0.298521 15:0.311338 16:0.499279 
3698.832506885865 1:0.285955 2:0.367937 3:0.397293 4:0.121457 5:0.269673 6:0.248077 7:0.272986 8:0.452312 9:0.39329 10:0.135654 11:0.231541 12:0.318958 13:0.244307 14:0.422178 15:0.173036 16:0.239899 
8192 1:0.294301 2:0.310775 3:0.438004 4:0.137636 5:0.185297 6:0.216235 7:0.331444 8:0.300457 9:0.462351 10:0.14732 11:0.266264 12:0.40771 13:0.273968 14:0.317072 15:0.245602 16:0.256913 
8192 1:0.270638 2:0.35372 3:0.368474 4:0.140522 5:0.235657 6:0.21993 7:0.248893 8:0.353676 9:0.404503 10:0.0703521 11:0.242117 12:0.465638 13:0.260122 14:0.344851 15:0.353259 16:0.266165 
8192 1:0.250514 2:0.300973 3:0.400654 4:0.103948 5:0.25685 6:0.269894 7:0.376432 8:0.320236 9:0.368784 10:0.295637 11:0.305427 12:0.370322 13:0.192841 14:0.352091 15:0.223153 16:0.198252 
8192 1:0.517358 2:0.226894 3:0.384872 4:0.227705 5:0.244491 6:0.196618 7:0.203019 8:0.336699 9:0.316775 10:0.177255 11:0.148523 12:0.390363 13:0.322914 14:0.353862 15:0.29269 16:0.268687 
8192 1:0.18039 2:0.275848 3:0.256157 4:0.1074 5:0.174515 6:0.344188 7:0.561934 8:0.284891 9:0.362417 10:0.439429 11:0.392194 12:0.342639 13:0.12517 14:0.339558 15:0.253498 16:0.118845 
8192 1:0.267888 2:0.379997 3:0.291978 4:0.176858 5:0.231062 6:0.235261 7:0.219279 8:0.508072 9:0.259116 10:0.0516276 11:0.179445 12:0.418112 13:0.409 14:0.434997 15:0.22681 16:0.290674 
8192 1:0.199964 2:0.317705 3:0.309299 4:0.0960114 5:0.241752 6:0.360768 7:0.396936 8:0.385425 9:0.324158 10:0.27442 11:0.285135 12:0.389842 13:0.17666 14:0.409621 15:0.248382 16:0.151618 
8192 1:0.272245 2:0.323019 3:0.333269 4:0.139731 5:0.254828 6:0.348867 7:0.371993 8:0.285376 9:0.356078 10:0.155593 11:0.256926 12:0.416998 13:0.21253 14:0.395322 15:0.213944 16:0.179696 
8192 1:0.209034 2:0.297707 3:0.382431 4:0.144276 5:0.235918 6:0.289855 7:0.371858 8:0.31301 9:0.38246 10:0.261854 11:0.285044 12:0.360225 13:0.228363 14:0.355301 15:0.218445 16:0.226814 
8192 1:0.277861 2:0.339394 3:0.357276 4:0.137716 5:0.218479 6:0.251891 7:0.411488 8:0.268541 9:0.344656 10:0.234927 11:0.336226 12:0.461017 13:0.295831 14:0.309638 15:0.244247 16:0.0957601 
8192 1:0.172947 2:0.396156 3:0.330836 4:0.0652451 5:0.155135 6:0.360865 7:0.450709 8:0.377819 9:0.542438 10:0.199983 11:0.321539 12:0.354344 13:0.116782 14:0.341346 15:0.309475 16:0.0824868 
8192 1:0.251756 2:0.327612 3:0.446873 4:0.0725272 5:0.268356 6:0.274622 7:0.343303 8:0.393829 9:0.414151 10:0.349334 11:0.289095 12:0.322412 13:0.165548 14:0.327522 15:0.262736 16:0.134484 
8192 1:0.162443 2:0.361062 3:0.289844 4:0.109616 5:0.223491 6:0.269488 7:0.326863 8:0.492626 9:0.272664 10:0.0812268 11:0.255436 12:0.467424 13:0.289561 14:0.505882 15:0.214226 16:0.246251 
8192 1:0.453529 2:0.248159 3:0.359183 4:0.293033 5:0.225711 6:0.146998 7:0.20065 8:0.310504 9:0.328676 10:0.172651 11:0.14788 12:0.360225 13:0.417236 14:0.285414 15:0.306177 16:0.358914 
8192 1:0.1936 2:0.359669 3:0.34318 4:0.0357521 5:0.245469 6:0.424019 7:0.49437 8:0.339649 9:0.356312 10:0.332927 11:0.290718 12:0.331358 13:0.143254 14:0.37584 15:0.126405 16:0.132587 
8192 1:0.175147 2:0.372804 3:0.30208 4:0.0794751 5:0.243509 6:0.388587 7:0.393864 8:0.362205 9:0.394976 10:0.133535 11:0.293215 12:0.408442 13:0.139079 14:0.431869 15:0.233994 16:0.157648 
8192 1:0.268277 2:0.369617 3:0.38124 4:0.139697 5:0.199637 6:0.240318 7:0.314445 8:0.383075 9:0.475411 10:0.101949 11:0.267569 12:0.362666 13:0.256805 14:0.354778 15:0.253181 16:0.213617 
8192 1:0.350327 2:0.258235 3:0.385414 4:0.201357 5:0.241918 6:0.213695 7:0.306113 8:0.28185 9:0.392722 10:0.311458 11:0.223166 12:0.332746 13:0.254597 14:0.269713 15:0.321 16:0.280024 
8192 1:0.197618 2:0.387605 3:0.317825 4:0.115303 5:0.246078 6:0.320043 7:0.29485 8:0.371027 9:0.385318 10:0.119558 11:0.29108 12:0.368505 13:0.221181 14:0.344551 15:0.267953 16:0.268364 
8192 1:0.378874 2:0.377191 3:0.398705 4:0.119185 5:0.207339 6:0.323671 7:0.409545 8:0.269143 9:0.518636 10:0.15107 11:0.245037 12:0.303208 13:0.204325 14:0.312136 15:0.154283 16:0.151209 
8192 1:0.281173 2:0.376877 3:0.455309 4:0.166504 5:0.269778 6:0.180214 7:0.317293 8:0.231378 9:0.447414 10:0.173402 11:0.297763 12:0.407503 13:0.321381 14:0.247544 15:0.256305 16:0.179403 
8192 1:0.206393 2:0.424927 3:0.409439 4:0.0844169 5:0.248003 6:0.305273 7:0.291752 8:0.385158 9:0.483442 10:0.10607 11:0.29845 12:0.360052 13:0.217708 14:0.327596 15:0.253646 16:0.159933 
8192 1:0.635799 2:0.320846 3:0.452554 4:0.226775 5:0.244668 6:0.116431 7:0.141161 8:0.337458 9:0.308656 10:0.037343 11:0.111253 12:0.399624 13:0.500482 14:0.29411 15:0.17555 16:0.301895 
8192 1:0.245426 2:0.278717 3:0.2106 4:0.176759 5:0.218185 6:0.274271 7:0.398074 8:0.391656 9:0.237756 10:0.254362 11:0.229637 12:0.404491 13:0.250562 14:0.444021 15:0.259457 16:0.296194 
8192 1:0.17543 2:0.384176 3:0.337714 4:0.071469 5:0.225575 6:0.373488 7:0.398429 8:0.358035 9:0.444785 10:0.155726 11:0.276738 12:0.420004 13:0.144481 14:0.389694 15:0.278504 16:0.123055 
8192 1:0.229353 2:0.374478 3:0.478288 4:0.138581 5:0.235397 6:0.264906 7:0.261013 8:0.311888 9:0.525478 10:0.0953553 11:0.325513 12:0.361277 13:0.266152 14:0.283363 15:0.262177 16:0.151425 
8192 1:0.294597 2:0.386154 3:0.345789 4:0.136008 5:0.32141 6:0.247196 7:0.477729 8:0.322026 9:0.364039 10:0.497874 11:0.190831 12:0.287142 13:0.210358 14:0.279738 15:0.242462 16:0.105921 
8192 1:0.257733 2:0.349666 3:0.357614 4:0.140979 5:0.20888 6:0.244891 7:0.37895 8:0.371786 9:0.41201 10:0.193652 11:0.222281 12:0.408597 13:0.268109 14:0.372834 15:0.263953 16:0.182988 
8192 1:0.224399 2:0.379207 3:0.309254 4:0.137545 5:0.243656 6:0.240101 7:0.317994 8:0.345131 9:0.350791 10:0.143541 11:0.319816 12:0.385987 13:0.269093 14:0.334197 15:0.254805 16:0.280546 
8192 1:0.350752 2:0.316078 3:0.359538 4:0.168411 5:0.296709 6:0.302628 7:0.269911 8:0.303493 9:0.340371 10:0.197159 11:0.218169 12:0.338274 13:0.238957 14:0.336157 15:0.236466 16:0.260229 
8192 1:0.361629 2:0.413544 3:0.333996 4:0.142295 5:0.238034 6:0.237434 7:0.374189 8:0.332639 9:0.464334 10:0.127828 11:0.185012 12:0.33219 13:0.232494 14:0.347024 15:0.210329 16:0.248144 
8192 1:0.31276 2:0.30765 3:0.389583 4:0.158924 5:0.209291 6:0.207443 7:0.299784 8:0.286661 9:0.442863 10:0.0864939 11:0.313516 12:0.437936 13:0.244316 14:0.346263 15:0.293037 16:0.22351 
8192 1:0.306842 2:0.42367 3:0.338668 4:0.126814 5:0.290372 6:0.350437 7:0.314614 8:0.365651 9:0.415367 10:0.10779 11:0.246795 12:0.293742 13:0.216669 14:0.376106 15:0.165431 16:0.162526 
8192 1:0.138331 2:0.327035 3:0.318772 4:0.0819164 5:0.187165 6:0.351236 7:0.383829 8:0.366684 9:0.386229 10:0.159956 11:0.338875 12:0.452219 13:0.174631 14:0.400583 15:0.290695 16:0.178577 
8192 1:0.204564 2:0.290101 3:0.334038 4:0.0891408 5:0.228021 6:0.331808 7:0.403991 8:0.397513 9:0.363488 10:0.333943 11:0.27241 12:0.355081 13:0.135584 14:0.398088 15:0.271994 16:0.191307 
8192 1:0.346364 2:0.325434 3:0.376944 4:0.194313 5:0.234256 6:0.186047 7:0.237761 8:0.324844 9:0.379852 10:0.0505907 11:0.177236 12:0.430691 13:0.327871 14:0.351453 15:0.271736 16:0.361928 
8192 1:0.381806 2:0.289957 3:0.254041 4:0.286937 5:0.223845 6:0.157842 7:0.187203 8:0.349089 9:0.301827 10:0.0548437 11:0.137975 12:0.392107 13:0.374867 14:0.344878 15:0.342837 16:0.47927 
8192 1:0.250911 2:0.351506 3:0.327568 4:0.180709 5:0.235766 6:0.264065 7:0.282535 8:0.37494 9:0.405007 10:0.100431 11:0.203165 12:0.354318 13:0.266163 14:0.375225 15:0.26111 16:0.320044 
8192 1:0.615903 2:0.337058 3:0.400696 4:0.275002 5:0.323384 6:0.118949 7:0.132299 8:0.316826 9:0.342736 10:0.0604828 11:0.126134 12:0.287206 13:0.406627 14:0.315324 15:0.183799 16:0.324813 
8192 1:0.459663 2:0.36266 3:0.347984 4:0.277782 5:0.246543 6:0.127478 7:0.188631 8:0.301608 9:0.392546 10:0.0519301 11:0.157745 12:0.342302 13:0.420581 14:0.262041 15:0.280383 16:0.363376 
8192 1:0.530133 2:0.258688 3:0.330175 4:0.294407 5:0.19559 6:0.125174 7:0.131162 8:0.348494 9:0.267822 10:0.0492375 11:0.102682 12:0.367465 13:0.493318 14:0.297587 15:0.25348 16:0.511785 
8192 1:0.220982 2:0.384743 3:0.394003 4:0.120666 5:0.234697 6:0.269172 7:0.352427 8:0.369531 9:0.497342 10:0.153651 11:0.305172 12:0.309634 13:0.200581 14:0.365315 15:0.205087 16:0.177453 
8192 1:0.454437 2:0.354928 3:0.324154 4:0.175301 5:0.243642 6:0.221178 7:0.238425 8:0.396951 9:0.320109 10:0.125755 11:0.142725 12:0.376075 13:0.331013 14:0.341885 15:0.268982 16:0.283556 
8192 1:0.345618 2:0.33515 3:0.355062 4:0.140284 5:0.211236 6:0.231884 7:0.267019 8:0.405531 9:0.388286 10:0.087895 11:0.220943 12:0.386882 13:0.267699 14:0.38604 15:0.255109 16:0.2855 
8192 1:0.383123 2:0.364951 3:0.415367 4:0.181683 5:0.274945 6:0.19064 7:0.249419 8:0.290901 9:0.399553 10:0.0401084 11:0.199153 12:0.435181 13:0.330292 14:0.343861 15:0.232332 16:0.248453 
8192 1:0.322157 2:0.407086 3:0.309156 4:0.132584 5:0.253672 6:0.247974 7:0.28521 8:0.361531 9:0.370947 10:0.131775 11:0.226493 12:0.383254 13:0.26218 14:0.305276 15:0.300712 16:0.275111 
8192 1:0.479036 2:0.414853 3:0.340268 4:0.167277 5:0.248475 6:0.196165 7:0.202151 8:0.420951 9:0.370323 10:0.067142 11:0.154569 12:0.319745 13:0.347341 14:0.309738 15:0.235666 16:0.306648 
8192 1:0.349393 2:0.317665 3:0.419244 4:0.149803 5:0.257113 6:0.309753 7:0.254985 8:0.325469 9:0.427425 10:0.186151 11:0.277292 12:0.279681 13:0.23438 14:0.302321 15:0.209517 16:0.221646 
8192 1:0.416242 2:0.358111 3:0.459469 4:0.149485 5:0.263196 6:0.255273 7:0.194402 8:0.302322 9:0.41767 10:0.0730446 11:0.152849 12:0.387001 13:0.320064 14:0.272167 15:0.246044 16:0.301286 
8192 1:0.399026 2:0.226218 3:0.388491 4:0.154153 5:0.178608 6:0.298489 7:0.373782 8:0.256822 9:0.35877 10:0.332353 11:0.312495 12:0.312393 13:0.263654 14:0.26698 15:0.198943 16:0.212336 
8192 1:0.35028 2:0.314897 3:0.424365 4:0.20735 5:0.229167 6:0.198721 7:0.303039 8:0.269626 9:0.399711 10:0.147959 11:0.183668 12:0.412007 13:0.364674 14:0.306935 15:0.229248 16:0.266999 
8192 1:0.334148 2:0.31963 3:0.33501 4:0.211309 5:0.273789 6:0.201912 7:0.264866 8:0.324421 9:0.286759 10:0.131936 11:0.193413 12:0.457045 13:0.347873 14:0.364454 15:0.288897 16:0.264841 
8192 1:0.75277 2:0.30975 3:0.402967 4:0.238967 5:0.197132 6:0.0828157 7:0.12384 8:0.347269 9:0.386274 10:0.067142 11:0.100015 12:0.30282 13:0.438221 14:0.227518 15:0.259474 16:0.371099 
8192 1:0.463557 2:0.373729 3:0.391928 4:0.193743 5:0.266208 6:0.226475 7:0.261819 8:0.286079 9:0.484118 10:0.0703588 11:0.216969 12:0.307678 13:0.257558 14:0.312597 15:0.224471 16:0.208492 
8192 1:0.509794 2:0.387903 3:0.375546 4:0.192134 5:0.241813 6:0.145941 7:0.291054 8:0.299881 9:0.408788 10:0.0549344 11:0.176251 12:0.41354 13:0.3578 14:0.327178 15:0.222419 16:0.204974 
8192 1:0.449817 2:0.251952 3:0.297393 4:0.338916 5:0.2125 6:0.122828 7:0.151143 8:0.374636 9:0.25774 10:0.0746861 11:0.1192 12:0.344614 13:0.501543 14:0.34365 15:0.252019 16:0.474407 
8192 1:0.371697 2:0.304322 3:0.357562 4:0.229711 5:0.208345 6:0.171464 7:0.197647 8:0.350329 9:0.361024 10:0.0539027 11:0.2113 12:0.389135 13:0.382976 14:0.326626 15:0.277056 16:0.368603 
8192 1:0.388251 2:0.305865 3:0.418653 4:0.189198 5:0.214829 6:0.0985663 7:0.181355 8:0.322067 9:0.344346 10:0.0982764 11:0.212936 12:0.518401 13:0.393142 14:0.261196 15:0.402948 16:0.314706 
2245.277909211033 1:0.26693 2:0.169392 3:0.302269 4:0.310701 5:0.134551 6:0.077766 7:0.18345 8:0.414177 9:0.289431 10:0.0498841 11:0.154808 12:0.503814 13:0.424548 14:0.428337 15:0.40008 16:0.518506 
8192 1:0.25735 2:0.3597 3:0.375351 4:0.152771 5:0.243768 6:0.250532 7:0.311393 8:0.286299 9:0.452444 10:0.0894547 11:0.293728 12:0.413839 13:0.229042 14:0.337826 15:0.284774 16:0.21329 
8192 1:0.502734 2:0.28009 3:0.422224 4:0.226754 5:0.259599 6:0.154914 7:0.14126 8:0.29165 9:0.36024 10:0.0469757 11:0.166192 12:0.377667 13:0.357049 14:0.305374 15:0.25268 16:0.403505 
8192 1:0.523148 2:0.28362 3:0.41211 4:0.246222 5:0.219161 6:0.100928 7:0.178324 8:0.30733 9:0.400325 10:0.0701368 11:0.16463 12:0.384368 13:0.378588 14:0.295108 15:0.293488 16:0.353463 
8192 1:0.30037 2:0.348245 3:0.356963 4:0.231364 5:0.240266 6:0.186815 7:0.234837 8:0.303213 9:0.36199 10:0.0523648 11:0.226696 12:0.441726 13:0.394181 14:0.312997 15:0.292883 16:0.291989 
8192 1:0.399554 2:0.271947 3:0.393341 4:0.160901 5:0.225601 6:0.119148 7:0.270018 8:0.325836 9:0.329656 10:0.228524 11:0.187473 12:0.459429 13:0.312084 14:0.293392 15:0.35088 16:0.34425 
8192 1:0.411614 2:0.378694 3:0.336998 4:0.191138 5:0.257201 6:0.190075 7:0.266175 8:0.32222 9:0.33266 10:0.110238 11:0.19084 12:0.393346 13:0.367249 14:0.30389 15:0.240442 16:0.28904 
8192 1:0.518972 2:0.295079 3:0.32665 4:0.308174 5:0.225664 6:0.1424 7:0.177888 8:0.299807 9:0.388968 10:0.0480647 11:0.160042 12:0.319107 13:0.395128 14:0.295131 15:0.283765 16:0.368981 
8192 1:0.527654 2:0.278618 3:0.553062 4:0.16066 5:0.183025 6:0.171317 7:0.247321 8:0.282107 9:0.463281 10:0.0793679 11:0.187193 12:0.410556 13:0.374746 14:0.300002 15:0.169742 16:0.217699 
8192 1:0.279936 2:0.317931 3:0.291219 4:0.227462 5:0.206651 6:0.194512 7:0.25544 8:0.359729 9:0.328991 10:0.0829993 11:0.167204 12:0.385437 13:0.361547 14:0.351762 15:0.267176 16:0.473807 
8192 1:0.534766 2:0.356027 3:0.422642 4:0.212494 5:0.226958 6:0.201832 7:0.208736 8:0.326354 9:0.429672 10:0.051175 11:0.146815 12:0.350944 13:0.390606 14:0.286762 15:0.223353 16:0.219993 
8192 1:0.415549 2:0.319689 3:0.396303 4:0.178739 5:0.236822 6:0.164862 7:0.194728 8:0.316816 9:0.393317 10:0.0500532 11:0.202139 12:0.438832 13:0.30656 14:0.312483 15:0.326339 16:0.335281 
8192 1:0.41609 2:0.220793 3:0.347544 4:0.342484 5:0.18804 6:0.0959931 7:0.14282 8:0.2957 9:0.368711 10:0.0467576 11:0.157874 12:0.362535 13:0.437362 14:0.297322 15:0.329077 16:0.516249 
8192 1:0.444605 2:0.310352 3:0.358021 4:0.228568 5:0.258245 6:0.166063 7:0.25173 8:0.29327 9:0.339905 10:0.242341 11:0.165025 12:0.361243 13:0.35156 14:0.236147 15:0.33302 16:0.299874 
8192 1:0.582382 2:0.372832 3:0.401453 4:0.168319 5:0.268198 6:0.117082 7:0.219058 8:0.290976 9:0.359821 10:0.100251 11:0.155827 12:0.385222 13:0.352101 14:0.260455 15:0.237979 16:0.33224 
8192 1:0.443479 2:0.346041 3:0.439418 4:0.249228 5:0.257573 6:0.156532 7:0.173527 8:0.32143 9:0.433069 10:0.0466188 11:0.165893 12:0.333718 13:0.405243 14:0.295918 15:0.227627 16:0.29388 
8192 1:0.311308 2:0.251931 3:0.385336 4:0.154173 5:0.224276 6:0.259185 7:0.344398 8:0.331992 9:0.385297 10:0.304883 11:0.283286 12:0.315925 13:0.213735 14:0.338423 15:0.241123 16:0.237066 
8192 1:0.331433 2:0.27061 3:0.268515 4:0.274281 5:0.202248 6:0.181341 7:0.248621 8:0.316191 9:0.299152 10:0.199412 11:0.195967 12:0.379163 13:0.378002 14:0.270769 15:0.36957 16:0.405429 
8192 1:0.408211 2:0.276798 3:0.377961 4:0.297668 5:0.226982 6:0.151752 7:0.153692 8:0.319718 9:0.386151 10:0.0370216 11:0.168785 12:0.366659 13:0.411054 14:0.315396 15:0.298688 16:0.375093 
8192 1:0.418833 2:0.362305 3:0.335386 4:0.223444 5:0.222047 6:0.194205 7:0.252101 8:0.350174 9:0.409943 10:0.0922491 11:0.188309 12:0.350579 13:0.346794 14:0.307149 15:0.283307 16:0.254511 
8192 1:0.512513 2:0.367674 3:0.325004 4:0.190898 5:0.241003 6:0.16769 7:0.227582 8:0.338395 9:0.351411 10:0.0957789 11:0.178341 12:0.356563 13:0.34232 14:0.285308 15:0.267788 16:0.326318 
8192 1:0.370725 2:0.313934 3:0.342237 4:0.159026 5:0.223524 6:0.307568 7:0.365274 8:0.31072 9:0.434242 10:0.266927 11:0.243468 12:0.248488 13:0.195732 14:0.307686 15:0.207218 16:0.24126 
8192 1:0.420293 2:0.315114 3:0.305851 4:0.278272 5:0.239782 6:0.201218 7:0.21972 8:0.336139 9:0.312878 10:0.0818519 11:0.11346 12:0.366444 13:0.416698 14:0.33944 15:0.253275 16:0.36828 
7705.750377731246 1:0.289713 2:0.238699 3:0.336409 4:0.278207 5:0.186344 6:0.159783 7:0.157427 8:0.362134 9:0.240864 10:0.0454241 11:0.202992 12:0.471327 13:0.493934 14:0.347157 15:0.303967 16:0.445917 
8192 1:0.395175 2:0.303346 3:0.363638 4:0.143587 5:0.222737 6:0.223794 7:0.324299 8:0.357363 9:0.35739 10:0.219556 11:0.207133 12:0.364341 13:0.263101 14:0.350412 15:0.2349 16:0.269416 
8192 1:0.311662 2:0.361985 3:0.438539 4:0.105304 5:0.201313 6:0.179268 7:0.307108 8:0.390457 9:0.45613 10:0.142373 11:0.176734 12:0.451426 13:0.271163 14:0.336319 15:0.312167 16:0.241505 
8192 1:0.497203 2:0.32321 3:0.344997 4:0.26917 5:0.204684 6:0.103648 7:0.226173 8:0.248526 9:0.4116 10:0.0411583 11:0.155829 12:0.372859 13:0.389115 14:0.256987 15:0.28448 16:0.43672 
8192 1:0.479191 2:0.281621 3:0.247111 4:0.327344 5:0.21609 6:0.131214 7:0.20346 8:0.332377 9:0.336568 10:0.0624643 11:0.120855 12:0.345529 13:0.387268 14:0.341738 15:0.325146 16:0.432844 
8192 1:0.322704 2:0.375201 3:0.360164 4:0.183453 5:0.204772 6:0.177558 7:0.300229 8:0.298615 9:0.469471 10:0.0955266 11:0.150203 12:0.510059 13:0.295152 14:0.278232 15:0.447431 16:0.222948 
8192 1:0.430679 2:0.29349 3:0.468702 4:0.16543 5:0.235963 6:0.221277 7:0.222845 8:0.277972 9:0.448918 10:0.118822 11:0.194352 12:0.3593 13:0.277148 14:0.283563 15:0.247302 16:0.318856 
8192 1:0.343949 2:0.367897 3:0.275687 4:0.21397 5:0.231799 6:0.190221 7:0.230748 8:0.349182 9:0.323028 10:0.0599457 11:0.202632 12:0.398129 13:0.364022 14:0.313281 15:0.301178 16:0.386102 
8192 1:0.201582 2:0.263831 3:0.280505 4:0.174393 5:0.199574 6:0.273983 7:0.324823 8:0.394271 9:0.322669 10:0.232395 11:0.289177 12:0.383652 13:0.239704 14:0.388024 15:0.319047 16:0.281331 
8192 1:0.630545 2:0.290481 3:0.349695 4:0.374427 5:0.251315 6:0.0865071 7:0.136561 8:0.223507 9:0.334398 10:0.0412221 11:0.11087 12:0.337368 13:0.520922 14:0.230434 15:0.259941 16:0.388798 
8192 1:0.657015 2:0.301393 3:0.383835 4:0.315461 5:0.266188 6:0.116453 7:0.169144 8:0.245806 9:0.391439 10:0.0711587 11:0.150684 12:0.29932 13:0.417581 14:0.262546 15:0.231559 16:0.287637 
8192 1:0.259328 2:0.349048 3:0.375518 4:0.0840471 5:0.25891 6:0.352403 7:0.324083 8:0.388871 9:0.351623 10:0.174923 11:0.178674 12:0.421958 13:0.214627 14:0.398845 15:0.239396 16:0.210678 
8192 1:0.295564 2:0.245448 3:0.298182 4:0.206418 5:0.206732 6:0.222195 7:0.345402 8:0.330657 9:0.296456 10:0.372838 11:0.299196 12:0.307338 13:0.2936 14:0.283379 15:0.285178 16:0.300112 
8192 1:0.347358 2:0.311577 3:0.439042 4:0.181497 5:0.244417 6:0.192664 7:0.258582 8:0.363822 9:0.382839 10:0.0787566 11:0.183796 12:0.427858 13:0.345137 14:0.412821 15:0.195161 16:0.241036 
8192 1:0.44504 2:0.328575 3:0.381119 4:0.248024 5:0.20161 6:0.135177 7:0.20982 8:0.358536 9:0.4083 10:0.0459474 11:0.161223 12:0.350766 13:0.414466 14:0.31754 15:0.242184 16:0.346693 
8192 1:0.590388 2:0.384142 3:0.333713 4:0.276324 5:0.31858 6:0.124748 7:0.164912 8:0.279471 9:0.280049 10:0.0611927 11:0.110143 12:0.37136 13:0.456575 14:0.263597 15:0.237705 16:0.326859 
8192 1:0.369165 2:0.307982 3:0.369517 4:0.107617 5:0.288618 6:0.30714 7:0.299318 8:0.298361 9:0.369967 10:0.162619 11:0.247286 12:0.404912 13:0.14162 14:0.37332 15:0.266882 16:0.217156 
8192 1:0.33164 2:0.303984 3:0.285502 4:0.209034 5:0.184867 6:0.229164 7:0.279991 8:0.371728 9:0.332095 10:0.128322 11:0.201932 12:0.370008 13:0.338238 14:0.346304 15:0.271198 16:0.3705 
8192 1:0.294256 2:0.36524 3:0.357075 4:0.118497 5:0.240089 6:0.273773 7:0.305076 8:0.354432 9:0.412618 10:0.0761002 11:0.261599 12:0.414283 13:0.216191 14:0.390075 15:0.254504 16:0.214652 
8192 1:0.49067 2:0.349651 3:0.338204 4:0.27359 5:0.285969 6:0.12786 7:0.163059 8:0.283778 9:0.319368 10:0.0319119 11:0.130492 12:0.38827 13:0.42109 14:0.289123 15:0.272271 16:0.403242 
8192 1:0.454963 2:0.282493 3:0.304048 4:0.280167 5:0.226798 6:0.14954 7:0.219101 8:0.270598 9:0.314915 10:0.113568 11:0.172489 12:0.37627 13:0.39192 14:0.279418 15:0.30034 16:0.421772 
1615.680138457463 1:0.393125 2:0.328779 3:0.301764 4:0.253532 5:0.215128 6:0.124447 7:0.208398 8:0.340063 9:0.38219 10:0.0536775 11:0.203228 12:0.397948 13:0.35454 14:0.312707 15:0.360771 16:0.364207 
8192 1:0.384054 2:0.274037 3:0.34979 4:0.249833 5:0.218836 6:0.167972 7:0.225701 8:0.334591 9:0.321231 10:0.114604 11:0.218137 12:0.401794 13:0.388158 14:0.342401 15:0.275654 16:0.312512 
8192 1:0.560067 2:0.249356 3:0.31171 4:0.386775 5:0.217173 6:0.0969388 7:0.108447 8:0.296511 9:0.300496 10:0.0293955 11:0.113118 12:0.316946 13:0.522962 14:0.278479 15:0.267726 16:0.485898 
8192 1:0.38941 2:0.382785 3:0.398442 4:0.15581 5:0.261731 6:0.236559 7:0.35654 8:0.259803 9:0.470832 10:0.192979 11:0.191642 12:0.333424 13:0.243872 14:0.280342 15:0.227315 16:0.214619 
8192 1:0.484715 2:0.391737 3:0.432523 4:0.186186 5:0.28603 6:0.183796 7:0.288453 8:0.256596 9:0.505006 10:0.127724 11:0.22669 12:0.305519 13:0.264726 14:0.274894 15:0.220034 16:0.156925 
8192 1:0.435453 2:0.292442 3:0.36851 4:0.284093 5:0.225683 6:0.110623 7:0.194568 8:0.318922 9:0.352876 10:0.0512495 11:0.132326 12:0.416897 13:0.436497 14:0.329115 15:0.287971 16:0.375848 
8192 1:0.508359 2:0.324301 3:0.447301 4:0.294979 5:0.281654 6:0.115186 7:0.137214 8:0.246916 9:0.409027 10:0.0366872 11:0.158981 12:0.357675 13:0.444382 14:0.247987 15:0.256351 16:0.319705 
8192 1:0.362799 2:0.369965 3:0.434363 4:0.0879432 5:0.216445 6:0.239651 7:0.44265 8:0.239812 9:0.534814 10:0.228085 11:0.299311 12:0.351361 13:0.160805 14:0.288226 15:0.212424 16:0.125437 
8192 1:0.366442 2:0.27146 3:0.362101 4:0.19462 5:0.228101 6:0.187731 7:0.233113 8:0.342555 9:0.37858 10:0.145187 11:0.214705 12:0.370018 13:0.264204 14:0.341507 15:0.310471 16:0.368164 
8192 1:0.11296 2:0.354346 3:0.375218 4:0.0843688 5:0.219507 6:0.315592 7:0.436403 8:0.392623 9:0.443675 10:0.251563 11:0.269037 12:0.415286 13:0.172729 14:0.402519 15:0.279525 16:0.111743 
8192 1:0.45861 2:0.285059 3:0.349504 4:0.267583 5:0.230043 6:0.170296 7:0.168306 8:0.312286 9:0.299911 10:0.00596684 11:0.1511 12:0.413221 13:0.436594 14:0.342695 15:0.235362 16:0.408302 
8192 1:0.325887 2:0.362578 3:0.412589 4:0.0820837 5:0.232571 6:0.284467 7:0.351151 8:0.338385 9:0.45363 10:0.0906043 11:0.212672 12:0.4289 13:0.197683 14:0.397638 15:0.212516 16:0.190254 
8192 1:0.36319 2:0.299832 3:0.403651 4:0.178893 5:0.227574 6:0.17366 7:0.207824 8:0.286594 9:0.385078 10:0.0313768 11:0.250474 12:0.465067 13:0.312506 14:0.324001 15:0.303036 16:0.342862 
8192 1:0.317433 2:0.298142 3:0.388215 4:0.0886768 5:0.213938 6:0.307316 7:0.333747 8:0.336195 9:0.357045 10:0.249153 11:0.229754 12:0.437033 13:0.221606 14:0.323606 15:0.29597 16:0.205536 
8192 1:0.34484 2:0.306993 3:0.348113 4:0.262091 5:0.24504 6:0.164376 7:0.268431 8:0.269362 9:0.370739 10:0.153704 11:0.185169 12:0.350332 13:0.36687 14:0.290793 15:0.259904 16:0.38995 
8192 1:0.12999 2:0.397924 3:0.317091 4:0.0988214 5:0.235882 6:0.384531 7:0.399924 8:0.401539 9:0.373805 10:0.200414 11:0.232196 12:0.401484 13:0.227156 14:0.397527 15:0.238527 16:0.139841 
8192 1:0.520251 2:0.341578 3:0.281883 4:0.362931 5:0.232856 6:0.131125 7:0.167808 8:0.289823 9:0.325243 10:0.0467596 11:0.110731 12:0.277609 13:0.523118 14:0.241221 15:0.225647 16:0.454873 
8192 1:0.280993 2:0.268135 3:0.322562 4:0.161371 5:0.170771 6:0.224105 7:0.448364 8:0.334818 9:0.404213 10:0.403496 11:0.314233 12:0.312759 13:0.217765 14:0.304712 15:0.289372 16:0.181495 
8192 1:0.279256 2:0.373578 3:0.244105 4:0.174072 5:0.250207 6:0.278986 7:0.281408 8:0.473127 9:0.264307 10:0.0453209 11:0.157524 12:0.433533 13:0.318507 14:0.491992 15:0.234485 16:0.261708 
8192 1:0.429684 2:0.335697 3:0.451034 4:0.12054 5:0.246463 6:0.289206 7:0.2827 8:0.310318 9:0.431886 10:0.193531 11:0.255022 12:0.342493 13:0.254474 14:0.277083 15:0.224008 16:0.128949 
5728.039701831677 1:0.0752489 2:0.197778 3:0.341847 4:0.0340049 5:0.138239 6:0.500848 7:0.600349 8:0.383883 9:0.383611 10:0.689274 11:0.440519 12:0.178988 13:0.0477063 14:0.325003 15:0.172671 16:0.0472901 
8192 1:0.262607 2:0.359019 3:0.412444 4:0.138149 5:0.232769 6:0.236428 7:0.311542 8:0.298586 9:0.494385 10:0.109141 11:0.284948 12:0.387819 13:0.214867 14:0.326098 15:0.278121 16:0.223635 
8192 1:0.436683 2:0.30822 3:0.31346 4:0.257645 5:0.23788 6:0.121789 7:0.243656 8:0.327545 9:0.379022 10:0.108407 11:0.181315 12:0.356869 13:0.328437 14:0.338782 15:0.304676 16:0.354186 
8192 1:0.268857 2:0.248704 3:0.346857 4:0.138311 5:0.227548 6:0.236704 7:0.371539 8:0.413798 9:0.339107 10:0.42932 11:0.271979 12:0.268577 13:0.196063 14:0.347658 15:0.258579 16:0.27071 
8192 1:0.4356 2:0.349373 3:0.3826 4:0.225238 5:0.243433 6:0.198243 7:0.277425 8:0.317147 9:0.413381 10:0.249695 11:0.179561 12:0.254758 13:0.357896 14:0.226178 15:0.238724 16:0.263516 
8192 1:0.212089 2:0.28984 3:0.318321 4:0.128543 5:0.204055 6:0.308555 7:0.362557 8:0.371878 9:0.374191 10:0.268027 11:0.276817 12:0.381114 13:0.188429 14:0.35884 15:0.324076 16:0.222874 
8192 1:0.339702 2:0.260367 3:0.378127 4:0.149224 5:0.19063 6:0.219153 7:0.346061 8:0.319379 9:0.402939 10:0.239584 11:0.271123 12:0.401846 13:0.222923 14:0.336191 15:0.304666 16:0.228437 
8192 1:0.434567 2:0.301274 3:0.334831 4:0.207937 5:0.280469 6:0.213149 7:0.3338 8:0.268441 9:0.366506 10:0.283196 11:0.240078 12:0.296981 13:0.238938 14:0.301298 15:0.250442 16:0.230011 
8192 1:0.457261 2:0.286869 3:0.382431 4:0.244642 5:0.23949 6:0.128019 7:0.190959 8:0.29985 9:0.374449 10:0.0956774 11:0.217533 12:0.384661 13:0.360574 14:0.29415 15:0.305522 16:0.325681 
8192 1:0.279162 2:0.336162 3:0.306581 4:0.203039 5:0.213416 6:0.249209 7:0.273351 8:0.381181 9:0.372884 10:0.0814965 11:0.206123 12:0.335883 13:0.312175 14:0.377876 15:0.223502 16:0.373544 
8192 1:0.466953 2:0.319256 3:0.300121 4:0.305081 5:0.247197 6:0.145071 7:0.16705 8:0.260265 9:0.358452 10:0.0427358 11:0.169759 12:0.368056 13:0.395989 14:0.255799 15:0.342146 16:0.40434 
8192 1:0.234829 2:0.406832 3:0.251376 4:0.125084 5:0.255862 6:0.382609 7:0.360022 8:0.364009 9:0.389141 10:0.152741 11:0.257018 12:0.360433 13:0.174763 14:0.365986 15:0.291617 16:0.153535 
8192 1:0.299566 2:0.335261 3:0.388276 4:0.15744 5:0.225452 6:0.214057 7:0.270049 8:0.36837 9:0.411342 10:0.0998619 11:0.227781 12:0.431123 13:0.283437 14:0.364117 15:0.303909 16:0.232466 
8192 1:0.230506 2:0.388065 3:0.489177 4:0.0942794 5:0.245114 6:0.208351 7:0.312528 8:0.277743 9:0.547268 10:0.151369 11:0.287569 12:0.437646 13:0.202659 14:0.256078 15:0.351489 16:0.167217 
8192 1:0.502805 2:0.284009 3:0.39856 4:0.268632 5:0.236972 6:0.104117 7:0.170993 8:0.276755 9:0.41018 10:0.0281894 11:0.169364 12:0.375065 13:0.367007 14:0.308273 15:0.280298 16:0.392303 
8192 1:0.215803 2:0.339798 3:0.295397 4:0.104755 5:0.236814 6:0.373559 7:0.395167 8:0.428716 9:0.293103 10:0.340031 11:0.230563 12:0.318181 13:0.235239 14:0.368384 15:0.209733 16:0.196353 
8192 1:0.42069 2:0.22531 3:0.341182 4:0.354575 5:0.199891 6:0.085054 7:0.141107 8:0.258066 9:0.3438 10:0.0303306 11:0.152919 12:0.405134 13:0.465034 14:0.283998 15:0.341107 16:0.517353 
8192 1:0.340079 2:0.348729 3:0.332513 4:0.150996 5:0.276968 6:0.248798 7:0.282808 8:0.41673 9:0.367581 10:0.191688 11:0.201558 12:0.370505 13:0.221227 14:0.38882 15:0.31365 16:0.175804 
8192 1:0.469764 2:0.328087 3:0.319524 4:0.225554 5:0.222857 6:0.153135 7:0.212113 8:0.336595 9:0.334398 10:0.0619439 11:0.182178 12:0.381595 13:0.378452 14:0.310975 15:0.270681 16:0.374208 
8192 1:0.29756 2:0.287068 3:0.288284 4:0.0825479 5:0.202736 6:0.347204 7:0.513913 8:0.423675 9:0.338722 10:0.468964 11:0.288541 12:0.233099 13:0.125869 14:0.410957 15:0.147141 16:0.129516 
8192 1:0.294323 2:0.36772 3:0.366617 4:0.157885 5:0.283832 6:0.294222 7:0.280216 8:0.353111 9:0.449892 10:0.115792 11:0.253287 12:0.300815 13:0.194637 14:0.376396 15:0.225073 16:0.215051 
8192 1:0.501055 2:0.249671 3:0.423849 4:0.30162 5:0.168858 6:0.118908 7:0.203177 8:0.255834 9:0.467983 10:0.0576501 11:0.177477 12:0.314278 13:0.41454 14:0.262275 15:0.242469 16:0.399485 
8192 1:0.482884 2:0.317377 3:0.43399 4:0.226962 5:0.211391 6:0.138626 7:0.25076 8:0.26148 9:0.514124 10:0.109947 11:0.223049 12:0.355421 13:0.312884 14:0.252256 15:0.314628 16:0.215864 
8192 1:0.212753 2:0.326687 3:0.31725 4:0.119832 5:0.201084 6:0.297282 7:0.282508 8:0.408239 9:0.370772 10:0.072542 11:0.304602 12:0.420749 13:0.222603 14:0.412215 15:0.282966 16:0.268641 
8192 1:0.403419 2:0.296561 3:0.290582 4:0.257703 5:0.211699 6:0.167333 7:0.232338 8:0.31885 9:0.321779 10:0.100057 11:0.163817 12:0.391361 13:0.377405 14:0.31206 15:0.312387 16:0.413821 
8192 1:0.265232 2:0.260184 3:0.395162 4:0.104876 5:0.248966 6:0.280764 7:0.395507 8:0.377759 9:0.351829 10:0.400908 11:0.254804 12:0.31943 13:0.166601 14:0.37494 15:0.228241 16:0.203726 
8192 1:0.341433 2:0.36303 3:0.346007 4:0.116701 5:0.227191 6:0.218267 7:0.354709 8:0.414877 9:0.400631 10:0.178445 11:0.181639 12:0.409425 13:0.229331 14:0.401026 15:0.280577 16:0.190631 
8192 1:0.515376 2:0.272666 3:0.317898 4:0.379509 5:0.207092 6:0.0751291 7:0.103239 8:0.304086 9:0.305533 10:0.0171907 11:0.0901 12:0.349271 13:0.553294 14:0.256442 15:0.294776 16:0.529432 
8192 1:0.369702 2:0.342624 3:0.304674 4:0.206532 5:0.217472 6:0.228709 7:0.243726 8:0.379874 9:0.356002 10:0.106197 11:0.1894 12:0.351365 13:0.334564 14:0.330083 15:0.279944 16:0.324141 
8192 1:0.448192 2:0.270011 3:0.295349 4:0.422062 5:0.239684 6:0.0940911 7:0.134254 8:0.220403 9:0.31525 10:0.0401231 11:0.117322 12:0.369468 13:0.537749 14:0.235141 15:0.337179 16:0.483981 
8192 1:0.405199 2:0.358013 3:0.454256 4:0.178989 5:0.276637 6:0.191784 7:0.230573 8:0.30615 9:0.449012 10:0.237395 11:0.186119 12:0.343138 13:0.306081 14:0.206061 15:0.344013 16:0.194805 
8192 1:0.323886 2:0.303399 3:0.386975 4:0.241201 5:0.229767 6:0.171091 7:0.168589 8:0.370238 9:0.387219 10:0.068789 11:0.179637 12:0.387536 13:0.373109 14:0.325253 15:0.323301 16:0.361917 
8192 1:0.234378 2:0.320501 3:0.384142 4:0.0888433 5:0.22911 6:0.301051 7:0.620852 8:0.286125 9:0.443311 10:0.675166 11:0.26914 12:0.215358 13:0.139295 14:0.238927 15:0.205148 16:0.0604038 
8192 1:0.318652 2:0.33818 3:0.352491 4:0.19867 5:0.250491 6:0.221588 7:0.24812 8:0.394822 9:0.349367 10:0.087992 11:0.151099 12:0.405134 13:0.335097 14:0.395661 15:0.257081 16:0.2964 
8192 1:0.27543 2:0.362193 3:0.317411 4:0.09716 5:0.240967 6:0.292374 7:0.35066 8:0.354579 9:0.416193 10:0.161771 11:0.276835 12:0.366427 13:0.144266 14:0.374333 15:0.271959 16:0.24188 
8192 1:0.471198 2:0.347077 3:0.425267 4:0.219468 5:0.246055 6:0.187799 7:0.264183 8:0.252468 9:0.480178 10:0.0696027 11:0.174961 12:0.356259 13:0.320237 14:0.294075 15:0.237473 16:0.236131 
900.6002462644075 1:0.300025 2:0.372617 3:0.353243 4:0.138135 5:0.262712 6:0.158053 7:0.309927 8:0.371539 9:0.359933 10:0.120395 11:0.191926 12:0.445855 13:0.280381 14:0.385909 15:0.268478 16:0.311023 
8192 1:0.274261 2:0.277857 3:0.396028 4:0.196269 5:0.163046 6:0.210579 7:0.283754 8:0.305744 9:0.440363 10:0.166984 11:0.25944 12:0.36569 13:0.315828 14:0.272212 15:0.298785 16:0.349934 
8192 1:0.458593 2:0.288456 3:0.41047 4:0.208323 5:0.245292 6:0.172621 7:0.240937 8:0.322622 9:0.412971 10:0.194755 11:0.21653 12:0.301392 13:0.291139 14:0.29761 15:0.257561 16:0.278711 
8192 1:0.367502 2:0.341896 3:0.326979 4:0.252076 5:0.236468 6:0.172388 7:0.166761 8:0.38013 9:0.31929 10:0.084181 11:0.13665 12:0.36989 13:0.428468 14:0.290861 15:0.307212 16:0.413192 
8192 1:0.530027 2:0.346728 3:0.383785 4:0.190349 5:0.285213 6:0.195989 7:0.231087 8:0.280573 9:0.441667 10:0.0631155 11:0.199581 12:0.356122 13:0.236412 14:0.329944 15:0.270363 16:0.220597 
8192 1:0.527047 2:0.348198 3:0.329011 4:0.274682 5:0.277899 6:0.171032 7:0.23183 8:0.278788 9:0.350617 10:0.125735 11:0.165864 12:0.316817 13:0.391107 14:0.275628 15:0.239737 16:0.268752 
8192 1:0.226357 2:0.298634 3:0.373758 4:0.136487 5:0.229061 6:0.280299 7:0.388341 8:0.318988 9:0.362801 10:0.324643 11:0.270005 12:0.330269 13:0.246267 14:0.316062 15:0.209111 16:0.26714 
8192 1:0.262569 2:0.252234 3:0.399745 4:0.115176 5:0.191545 6:0.309251 7:0.264237 8:0.475947 9:0.355598 10:0.259885 11:0.258085 12:0.333033 13:0.242461 14:0.380995 15:0.271236 16:0.227994 
8192 1:0.390179 2:0.240068 3:0.32736 4:0.239983 5:0.195796 6:0.184818 7:0.210696 8:0.358577 9:0.337825 10:0.139205 11:0.17527 12:0.343191 13:0.332104 14:0.336248 15:0.292335 16:0.456472 
8192 1:0.424844 2:0.331586 3:0.321753 4:0.248047 5:0.251356 6:0.158352 7:0.187456 8:0.351652 9:0.329952 10:0.0419207 11:0.145706 12:0.35067 13:0.381954 14:0.340836 15:0.240043 16:0.441785 
8192 1:0.422376 2:0.354296 3:0.442714 4:0.133552 5:0.223984 6:0.182848 7:0.302454 8:0.263262 9:0.493572 10:0.135006 11:0.240539 12:0.361042 13:0.240713 14:0.263323 15:0.254781 16:0.270567 
8192 1:0.487633 2:0.306935 3:0.320515 4:0.336944 5:0.244911 6:0.133072 7:0.178464 8:0.29621 9:0.337192 10:0.0388392 11:0.0867829 12:0.348435 13:0.464733 14:0.308917 15:0.257863 16:0.424529 
8192 1:0.319125 2:0.353238 3:0.522222 4:0.132195 5:0.259913 6:0.194359 7:0.312357 8:0.298978 9:0.542086 10:0.164006 11:0.191611 12:0.374979 13:0.233597 14:0.318578 15:0.243535 16:0.194983 
8192 1:0.513972 2:0.333735 3:0.308812 4:0.156778 5:0.27077 6:0.214647 7:0.266534 8:0.328835 9:0.352688 10:0.0932266 11:0.175903 12:0.399021 13:0.203078 14:0.380234 15:0.294061 16:0.269171 
8192 1:0.341847 2:0.315856 3:0.333368 4:0.187892 5:0.25374 6:0.2578 7:0.176887 8:0.432709 9:0.387349 10:0.145632 11:0.246204 12:0.28614 13:0.239022 14:0.34554 15:0.324105 16:0.282322 
8192 1:0.547469 2:0.340226 3:0.367067 4:0.285663 5:0.278647 6:0.113613 7:0.163102 8:0.277865 9:0.394682 10:0.0645973 11:0.171066 12:0.34889 13:0.390565 14:0.261636 15:0.309357 16:0.283496 
8192 1:0.277702 2:0.256691 3:0.406449 4:0.153337 5:0.251174 6:0.266984 7:0.283848 8:0.352597 9:0.313965 10:0.374633 11:0.260426 12:0.341495 13:0.269008 14:0.279849 15:0.301603 16:0.234877 
8192 1:0.416151 2:0.411395 3:0.425063 4:0.157185 5:0.311613 6:0.217485 7:0.243547 8:0.359689 9:0.465038 10:0.076993 11:0.174158 12:0.31519 13:0.25002 14:0.358996 15:0.205917 16:0.20254 
8192 1:0.334448 2:0.295605 3:0.299247 4:0.306464 5:0.218404 6:0.147184 7:0.226604 8:0.302279 9:0.292422 10:0.11257 11:0.144245 12:0.387751 13:0.467564 14:0.291764 15:0.282525 16:0.468658 
8192 1:0.299918 2:0.267443 3:0.3217 4:0.164004 5:0.19802 6:0.277253 7:0.314289 8:0.376841 9:0.344614 10:0.166979 11:0.204089 12:0.358808 13:0.24857 14:0.405244 15:0.225618 16:0.363441 
8192 1:0.374731 2:0.320568 3:0.348887 4:0.257912 5:0.258778 6:0.150388 7:0.163061 8:0.379851 9:0.319132 10:0.0670424 11:0.145884 12:0.372722 13:0.413125 14:0.341636 15:0.274442 16:0.403082 
8192 1:0.271042 2:0.313345 3:0.330331 4:0.161035 5:0.212671 6:0.236499 7:0.313696 8:0.369842 9:0.378873 10:0.225477 11:0.231379 12:0.360711 13:0.253478 14:0.326202 15:0.3112 16:0.307279 
8192 1:0.313234 2:0.357533 3:0.368498 4:0.16293 5:0.292773 6:0.209129 7:0.293661 8:0.330203 9:0.328707 10:0.268297 11:0.189837 12:0.348981 13:0.308168 14:0.280651 15:0.260936 16:0.309859 
8192 1:0.218163 2:0.328787 3:0.388215 4:0.109738 5:0.294109 6:0.311158 7:0.311104 8:0.440068 9:0.383232 10:0.328349 11:0.25052 12:0.299577 13:0.166385 14:0.374457 15:0.271674 16:0.15261 
8192 1:0.218609 2:0.326546 3:0.362138 4:0.0865676 5:0.217311 6:0.340008 7:0.367118 8:0.382199 9:0.432415 10:0.208481 11:0.336434 12:0.312094 13:0.142791 14:0.393476 15:0.201493 16:0.190615 
8192 1:0.359511 2:0.242843 3:0.26939 4:0.248136 5:0.214181 6:0.232639 7:0.282366 8:0.337988 9:0.336694 10:0.233838 11:0.212866 12:0.298459 13:0.263599 14:0.335921 15:0.307239 16:0.375086 
8192 1:0.413009 2:0.298482 3:0.429993 4:0.192976 5:0.234369 6:0.185998 7:0.196565 8:0.350528 9:0.418858 10:0.0874363 11:0.192537 12:0.387393 13:0.310095 14:0.333821 15:0.293246 16:0.279894 
8192 1:0.160489 2:0.513197 3:0.181736 4:0.105079 5:0.2563 6:0.399225 7:0.239972 8:0.59688 9:0.259254 10:0.112471 11:0.195461 12:0.342198 13:0.328014 14:0.367681 15:0.29745 16:0.201337 
8192 1:0.156173 2:0.365166 3:0.300643 4:0.15906 5:0.272512 6:0.384989 7:0.293248 8:0.41184 9:0.341748 10:0.153225 11:0.221 12:0.370525 13:0.249209 14:0.406609 15:0.265674 16:0.189602 
8192 1:0.278813 2:0.31553 3:0.371885 4:0.143742 5:0.259268 6:0.273709 7:0.308214 8:0.366241 9:0.392423 10:0.229515 11:0.263184 12:0.327165 13:0.20892 14:0.360783 15:0.252486 16:0.226261 
8192 1:0.10423 2:0.161211 3:0.472115 4:0.0773425 5:0.184727 6:0.311833 7:0.419319 8:0.348683 9:0.382812 10:0.54053 11:0.384454 12:0.347336 13:0.139079 14:0.307946 15:0.305875 16:0.164502 
8192 1:0.282959 2:0.258621 3:0.314563 4:0.222052 5:0.205977 6:0.164258 7:0.2332 8:0.408695 9:0.31027 10:0.164183 11:0.160716 12:0.432101 13:0.331336 14:0.372761 15:0.377172 16:0.403613 
8192 1:0.197767 2:0.322567 3:0.318606 4:0.103819 5:0.215073 6:0.393919 7:0.392119 8:0.379818 9:0.369967 10:0.276453 11:0.304817 12:0.30134 13:0.185286 14:0.36606 15:0.198431 16:0.190158 
8192 1:0.208237 2:0.30129 3:0.334936 4:0.112603 5:0.228497 6:0.278845 7:0.381693 8:0.405929 9:0.366214 10:0.313261 11:0.294066 12:0.346131 13:0.177694 14:0.385925 15:0.272324 16:0.202494 
8192 1:0.643674 2:0.247315 3:0.392818 4:0.373355 5:0.165458 6:0.0766751 7:0.15942 8:0.200097 9:0.384547 10:0.0233113 11:0.0909458 12:0.375944 13:0.557625 14:0.202377 15:0.27109 16:0.419222 
8192 1:0.383229 2:0.404612 3:0.394741 4:0.136824 5:0.299304 6:0.247079 7:0.313426 8:0.279866 9:0.491045 10:0.0946874 11:0.227556 12:0.361339 13:0.177821 14:0.341958 15:0.248998 16:0.166221 
8192 1:0.206664 2:0.35238 3:0.340595 4:0.167924 5:0.212081 6:0.308024 7:0.357983 8:0.334051 9:0.414714 10:0.151961 11:0.294514 12:0.35381 13:0.276582 14:0.352182 15:0.216579 16:0.192485 
733.1576448128671 1:0.426718 2:0.403874 3:0.531532 4:0.15543 5:0.186124 6:0.266607 7:0.216658 8:0.34523 9:0.640542 10:0.0680586 11:0.185865 12:0.271989 13:0.312867 14:0.208986 15:0.258863 16:0.131003 
8192 1:0.376977 2:0.395895 3:0.345626 4:0.211323 5:0.309039 6:0.241996 7:0.190588 8:0.377988 9:0.369127 10:0.0354038 11:0.136239 12:0.334325 13:0.325989 14:0.366002 15:0.229844 16:0.306662 
8192 1:0.401053 2:0.285697 3:0.565682 4:0.169908 5:0.231676 6:0.196277 7:0.239246 8:0.225179 9:0.495438 10:0.11821 11:0.230268 12:0.381084 13:0.328002 14:0.253312 15:0.203574 16:0.257292 
8192 1:0.272541 2:0.323401 3:0.357045 4:0.187263 5:0.255113 6:0.267583 7:0.288371 8:0.329888 9:0.399703 10:0.112294 11:0.257206 12:0.364753 13:0.256004 14:0.382843 15:0.240573 16:0.242644 
8192 1:0.686076 2:0.313833 3:0.364089 4:0.296278 5:0.219449 6:0.105079 7:0.160767 8:0.268597 9:0.340371 10:0.012518 11:0.114989 12:0.374215 13:0.485949 14:0.26015 15:0.236466 16:0.332515 
8192 1:0.404564 2:0.316531 3:0.347867 4:0.292822 5:0.263776 6:0.107173 7:0.163375 8:0.293878 9:0.333657 10:0.0162918 11:0.168723 12:0.394654 13:0.428682 14:0.318151 15:0.27244 16:0.438135 
8192 1:0.305277 2:0.31979 3:0.385644 4:0.229544 5:0.270195 6:0.14909 7:0.196805 8:0.33548 9:0.324509 10:0.0643837 11:0.173073 12:0.464824 13:0.392472 14:0.353038 15:0.297357 16:0.352557 
8192 1:0.278454 2:0.371923 3:0.376245 4:0.135964 5:0.238194 6:0.221635 7:0.314194 8:0.337761 9:0.436257 10:0.149168 11:0.287236 12:0.381197 13:0.242705 14:0.324859 15:0.278137 16:0.214294 
8192 1:0.339946 2:0.295495 3:0.410993 4:0.163223 5:0.211713 6:0.269151 7:0.257412 8:0.323395 9:0.442946 10:0.0739932 11:0.257182 12:0.385658 13:0.252892 14:0.359412 15:0.249497 16:0.242124 
267.0541206324243 1:0.647474 2:0.2556 3:0.511918 4:0.189879 5:0.179582 6:0.212178 7:0.1485 8:0.286848 9:0.561973 10:0.0179327 11:0.192925 12:0.297993 13:0.254304 14:0.277174 15:0.257582 16:0.248528 
8192 1:0.449055 2:0.317315 3:0.342851 4:0.231214 5:0.229958 6:0.180249 7:0.256751 8:0.290437 9:0.40641 10:0.122222 11:0.229935 12:0.335175 13:0.31292 14:0.293951 15:0.275145 16:0.288449 
8192 1:0.493244 2:0.341797 3:0.426149 4:0.271116 5:0.25275 6:0.125276 7:0.175245 8:0.245053 9:0.436089 10:0.035847 11:0.14748 12:0.373064 13:0.419855 14:0.239218 15:0.278413 16:0.334158 
8192 1:0.196839 2:0.274958 3:0.367783 4:0.102387 5:0.253143 6:0.349774 7:0.378611 8:0.324771 9:0.357418 10:0.349845 11:0.322307 12:0.35787 13:0.152301 14:0.341337 15:0.27551 16:0.165511 
8192 1:0.458042 2:0.263881 3:0.520628 4:0.159446 5:0.224703 6:0.101622 7:0.225283 8:0.271834 9:0.501499 10:0.211858 11:0.267372 12:0.340495 13:0.247837 14:0.238846 15:0.301487 16:0.30075 
8192 1:0.465645 2:0.263415 3:0.464017 4:0.210424 5:0.196717 6:0.125592 7:0.189724 8:0.310714 9:0.512641 10:0.126691 11:0.22227 12:0.303964 13:0.276929 14:0.257571 15:0.318351 16:0.356038 
1136.641174699069 1:0.331061 2:0.305463 3:0.515475 4:0.223984 5:0.256342 6:0.0945949 7:0.169767 8:0.353525 9:0.507858 10:0.174007 11:0.218882 12:0.316385 13:0.329467 14:0.264036 15:0.328533 16:0.288046 
6711.70405785693 1:0.491098 2:0.28705 3:0.392792 4:0.243243 5:0.241777 6:0.137629 7:0.12464 8:0.340656 9:0.355951 10:0.0478206 11:0.130596 12:0.368898 13:0.374784 14:0.304217 15:0.292037 16:0.441828 
8192 1:0.405794 2:0.289709 3:0.29189 4:0.33022 5:0.231586 6:0.142302 7:0.171005 8:0.321214 9:0.339381 10:0.0411219 11:0.148034 12:0.35528 13:0.424982 14:0.324404 15:0.307602 16:0.433366 
8192 1:0.385033 2:0.318598 3:0.360644 4:0.25853 5:0.257849 6:0.14293 7:0.202646 8:0.314948 9:0.34989 10:0.0904362 11:0.156591 12:0.384657 13:0.392015 14:0.312749 15:0.281921 16:0.386316 
8192 1:0.40567 2:0.330581 3:0.260721 4:0.242438 5:0.226649 6:0.204262 7:0.246392 8:0.394053 9:0.307408 10:0.136401 11:0.142064 12:0.305581 13:0.363834 14:0.34236 15:0.246576 16:0.405355 
8192 1:0.199437 2:0.311605 3:0.375138 4:0.131105 5:0.212596 6:0.297954 7:0.358119 8:0.373322 9:0.434959 10:0.212557 11:0.319701 12:0.353124 13:0.203064 14:0.382343 15:0.250584 16:0.157301 
8192 1:0.307097 2:0.290187 3:0.312978 4:0.218303 5:0.211106 6:0.182869 7:0.295779 8:0.274232 9:0.402541 10:0.178321 11:0.253415 12:0.37207 13:0.261941 14:0.285868 15:0.349483 16:0.372831 
8192 1:0.417699 2:0.357969 3:0.482387 4:0.165281 5:0.235201 6:0.146692 7:0.222379 8:0.293951 9:0.494153 10:0.0744315 11:0.252278 12:0.397176 13:0.318829 14:0.262967 15:0.284963 16:0.213036 
8192 1:0.327933 2:0.332333 3:0.426824 4:0.115681 5:0.224308 6:0.280136 7:0.279351 8:0.339165 9:0.462862 10:0.0784192 11:0.294084 12:0.378159 13:0.214557 14:0.366127 15:0.226168 16:0.188285 
8192 1:0.270566 2:0.384684 3:0.403326 4:0.144818 5:0.279227 6:0.193535 7:0.263821 8:0.390672 9:0.411633 10:0.0957395 11:0.139219 12:0.472549 13:0.276341 14:0.37946 15:0.334887 16:0.236937 
8192 1:0.485024 2:0.293793 3:0.477361 4:0.284632 5:0.25497 6:0.150564 7:0.187818 8:0.228931 9:0.528983 10:0.0600082 11:0.148981 12:0.308978 13:0.336869 14:0.267472 15:0.265803 16:0.306538 
8192 1:0.317676 2:0.301637 3:0.464799 4:0.17432 5:0.208091 6:0.17154 7:0.260912 8:0.311471 9:0.377682 10:0.0777434 11:0.220034 12:0.491121 13:0.390024 14:0.346088 15:0.234847 16:0.264871 
8192 1:0.28271 2:0.338879 3:0.319452 4:0.170646 5:0.224908 6:0.255371 7:0.308999 8:0.375596 9:0.395479 10:0.174349 11:0.233432 12:0.374646 13:0.253021 14:0.349859 15:0.314484 16:0.226528 
8192 1:0.379017 2:0.334154 3:0.336382 4:0.159234 5:0.24691 6:0.16818 7:0.293584 8:0.380499 9:0.347954 10:0.226438 11:0.192227 12:0.341428 13:0.272742 14:0.334035 15:0.272635 16:0.33744 
8192 1:0.293114 2:0.332021 3:0.398447 4:0.140736 5:0.234139 6:0.246929 7:0.277137 8:0.337352 9:0.439832 10:0.106101 11:0.290733 12:0.387182 13:0.228719 14:0.352964 15:0.27161 16:0.221249 
6561.2990190174 1:0.579387 2:0.362111 3:0.452832 4:0.17455 5:0.278786 6:0.0798152 7:0.197186 8:0.315299 9:0.406839 10:0.0700612 11:0.152197 12:0.408388 13:0.343329 14:0.299311 15:0.251124 16:0.273087 
8192 1:0.251084 2:0.359068 3:0.324486 4:0.11051 5:0.219562 6:0.328821 7:0.317003 8:0.423636 9:0.437372 10:0.148393 11:0.2675 12:0.321469 13:0.167641 14:0.391102 15:0.266386 16:0.211432 
8192 1:0.432443 2:0.287824 3:0.350947 4:0.270553 5:0.225906 6:0.140522 7:0.163226 8:0.377825 9:0.339486 10:0.0277803 11:0.169289 12:0.383881 13:0.409929 14:0.369089 15:0.272034 16:0.358755 
8192 1:0.446627 2:0.242253 3:0.34345 4:0.347926 5:0.192385 6:0.133131 7:0.126803 8:0.325456 9:0.367557 10:0.0386457 11:0.139556 12:0.335789 13:0.457565 14:0.295238 15:0.312663 16:0.456467 
8192 1:0.308955 2:0.285451 3:0.362352 4:0.236962 5:0.219008 6:0.157269 7:0.253661 8:0.305653 9:0.405086 10:0.142282 11:0.211945 12:0.402024 13:0.317738 14:0.309849 15:0.351717 16:0.344722 
3931.470229203135 1:0.476944 2:0.284928 3:0.461206 4:0.198869 5:0.192051 6:0.134591 7:0.255373 8:0.316765 9:0.497544 10:0.10643 11:0.192169 12:0.37616 13:0.295895 14:0.326493 15:0.279525 16:0.240248 
8192 1:0.481431 2:0.428253 3:0.346087 4:0.186304 5:0.299506 6:0.214332 7:0.216838 8:0.343133 9:0.390203 10:0.0332353 11:0.13202 12:0.327644 13:0.322914 14:0.31957 15:0.212029 16:0.300673 
8192 1:0.33247 2:0.328384 3:0.400703 4:0.162221 5:0.238699 6:0.228598 7:0.29435 8:0.298228 9:0.369805 10:0.149621 11:0.239386 12:0.426392 13:0.320849 14:0.314436 15:0.249951 16:0.233599 
8192 1:0.396784 2:0.388526 3:0.416789 4:0.153548 5:0.252092 6:0.190516 7:0.226617 8:0.353455 9:0.421301 10:0.0547835 11:0.188147 12:0.412319 13:0.325771 14:0.313164 15:0.270973 16:0.245171 
8192 1:0.257136 2:0.299647 3:0.325635 4:0.193424 5:0.227367 6:0.218688 7:0.338546 8:0.267416 9:0.3866 10:0.218045 11:0.206692 12:0.460883 13:0.250825 14:0.304398 15:0.39506 16:0.282346 
8192 1:0.332737 2:0.314318 3:0.316771 4:0.152914 5:0.19056 6:0.298803 7:0.294597 8:0.317982 9:0.389967 10:0.0842791 11:0.280197 12:0.425639 13:0.24453 14:0.343078 15:0.306952 16:0.22641 
8192 1:0.400233 2:0.316632 3:0.343555 4:0.232992 5:0.251568 6:0.153362 7:0.193232 8:0.361195 9:0.330329 10:0.0223807 11:0.155579 12:0.408838 13:0.366997 14:0.38739 15:0.256564 16:0.389562 
8192 1:0.457601 2:0.342257 3:0.374413 4:0.236946 5:0.275143 6:0.142665 7:0.199689 8:0.295956 9:0.372541 10:0.0622513 11:0.170005 12:0.37482 13:0.364939 14:0.307517 15:0.26026 16:0.3415 
8192 1:0.189899 2:0.334599 3:0.305776 4:0.112676 5:0.213364 6:0.349954 7:0.33216 8:0.358048 9:0.377626 10:0.140439 11:0.310844 12:0.382189 13:0.191564 14:0.373586 15:0.262839 16:0.261849 
8192 1:0.362792 2:0.32719 3:0.346811 4:0.178243 5:0.242154 6:0.219944 7:0.247866 8:0.387559 9:0.398371 10:0.172355 11:0.232521 12:0.295382 13:0.257059 14:0.331748 15:0.270177 16:0.302338 
8192 1:0.261551 2:0.318594 3:0.332184 4:0.180575 5:0.226716 6:0.270547 7:0.312915 8:0.356161 9:0.438933 10:0.12651 11:0.290528 12:0.318833 13:0.208157 14:0.393851 15:0.241589 16:0.246558 
8192 1:0.360759 2:0.292917 3:0.335447 4:0.253724 5:0.212517 6:0.154066 7:0.233692 8:0.273067 9:0.383829 10:0.0626711 11:0.171152 12:0.450769 13:0.349475 14:0.306968 15:0.361569 16:0.389041 
8192 1:0.374551 2:0.36923 3:0.317652 4:0.130095 5:0.298068 6:0.347719 7:0.346069 8:0.300718 9:0.382608 10:0.0737197 11:0.213526 12:0.406477 13:0.15416 14:0.439172 15:0.214955 16:0.134805 
8192 1:0.216325 2:0.379761 3:0.30728 4:0.0546668 5:0.146583 6:0.300316 7:0.473534 8:0.33133 9:0.498526 10:0.263308 11:0.441617 12:0.324173 13:0.12764 14:0.287488 15:0.267696 16:0.11826 
8192 1:0.432505 2:0.295291 3:0.273646 4:0.240627 5:0.25205 6:0.172621 7:0.276583 8:0.339219 9:0.360776 10:0.21169 11:0.181318 12:0.354466 13:0.253244 14:0.333146 15:0.379901 16:0.271987 
8192 1:0.357687 2:0.360293 3:0.279209 4:0.169451 5:0.219905 6:0.253944 7:0.306622 8:0.411984 9:0.388397 10:0.0661765 11:0.204456 12:0.358765 13:0.248307 14:0.428342 15:0.241117 16:0.25476 
8192 1:0.316566 2:0.447781 3:0.356769 4:0.112188 5:0.260924 6:0.30379 7:0.278799 8:0.394671 9:0.393243 10:0.0697244 11:0.210609 12:0.38748 13:0.302327 14:0.339253 15:0.228669 16:0.164406 
8192 1:0.290617 2:0.413325 3:0.309754 4:0.135222 5:0.258429 6:0.259238 7:0.340068 8:0.3458 9:0.389752 10:0.138577 11:0.229361 12:0.383931 13:0.24891 14:0.340268 15:0.261797 16:0.229396 
8192 1:0.267474 2:0.263402 3:0.327527 4:0.104482 5:0.171502 6:0.355385 7:0.390238 8:0.363216 9:0.321055 10:0.363456 11:0.298468 12:0.297118 13:0.2271 14:0.298542 15:0.215496 16:0.270422 
8192 1:0.19389 2:0.256905 3:0.306642 4:0.104601 5:0.197916 6:0.383446 7:0.560583 8:0.280993 9:0.345262 10:0.611301 11:0.345227 12:0.230032 13:0.145645 14:0.252324 15:0.203281 16:0.162923 
8192 1:0.454864 2:0.361944 3:0.36459 4:0.292466 5:0.248241 6:0.149182 7:0.179134 8:0.36211 9:0.331164 10:0.0731786 11:0.0908396 12:0.363812 13:0.516823 14:0.287649 15:0.246532 16:0.306366 
8192 1:0.379396 2:0.3506 3:0.335888 4:0.141516 5:0.270784 6:0.25971 7:0.331155 8:0.329154 9:0.377974 10:0.207872 11:0.26404 12:0.313308 13:0.20721 14:0.346956 15:0.213312 16:0.217741 
8192 1:0.270384 2:0.288023 3:0.244524 4:0.252532 5:0.203656 6:0.212286 7:0.27593 8:0.307945 9:0.306692 10:0.174171 11:0.20699 12:0.410314 13:0.340088 14:0.292185 15:0.382914 16:0.405602 
8192 1:0.254458 2:0.308393 3:0.331367 4:0.116622 5:0.185919 6:0.260889 7:0.334443 8:0.375749 9:0.407442 10:0.133744 11:0.25678 12:0.470424 13:0.197248 14:0.39437 15:0.353409 16:0.221396 
8192 1:0.349793 2:0.374285 3:0.331475 4:0.167147 5:0.249275 6:0.200513 7:0.294505 8:0.31455 9:0.378044 10:0.0722506 11:0.258813 12:0.417938 13:0.289766 14:0.350029 15:0.257244 16:0.251819 
8192 1:0.259782 2:0.370129 3:0.341324 4:0.12815 5:0.251835 6:0.28818 7:0.373435 8:0.31897 9:0.429239 10:0.142653 11:0.253361 12:0.373053 13:0.190962 14:0.383571 15:0.222311 16:0.220196 
8192 1:0.295071 2:0.326143 3:0.336921 4:0.162141 5:0.208154 6:0.207307 7:0.263611 8:0.411154 9:0.379962 10:0.0783494 11:0.203301 12:0.427122 13:0.279548 14:0.400081 15:0.30906 16:0.312325 
8192 1:0.398297 2:0.27773 3:0.442887 4:0.184709 5:0.209754 6:0.239957 7:0.24078 8:0.316245 9:0.42271 10:0.167749 11:0.243931 12:0.327805 13:0.312102 14:0.286416 15:0.236397 16:0.257737 
8192 1:0.644921 2:0.30958 3:0.404829 4:0.307216 5:0.281816 6:0.11642 7:0.133936 8:0.238792 9:0.318207 10:0.0704635 11:0.097188 12:0.368169 13:0.4863 14:0.23127 15:0.250899 16:0.330038 
8192 1:0.293823 2:0.244455 3:0.351642 4:0.184414 5:0.217746 6:0.306769 7:0.291027 8:0.348456 9:0.335183 10:0.302004 11:0.260218 12:0.282945 13:0.263591 14:0.306063 15:0.249597 16:0.306045 
8192 1:0.568972 2:0.293254 3:0.277328 4:0.35063 5:0.244087 6:0.0987915 7:0.141588 8:0.273329 9:0.286508 10:0.0335633 11:0.127263 12:0.317197 13:0.47956 14:0.271518 15:0.249492 16:0.507438 
8192 1:0.518836 2:0.248272 3:0.308189 4:0.336882 5:0.245434 6:0.109239 7:0.119539 8:0.33176 9:0.27402 10:0.0256204 11:0.104598 12:0.349132 13:0.452274 14:0.350202 15:0.257347 16:0.511237 
8192 1:0.377061 2:0.334604 3:0.314749 4:0.19613 5:0.21209 6:0.187838 7:0.247287 8:0.36823 9:0.367256 10:0.0645933 11:0.179408 12:0.403502 13:0.320414 14:0.353228 15:0.297947 16:0.355514 
8192 1:0.486338 2:0.416007 3:0.466628 4:0.176711 5:0.31647 6:0.218717 7:0.21495 8:0.315043 9:0.51385 10:0.121593 11:0.115719 12:0.288854 13:0.262076 14:0.263531 15:0.266008 16:0.187238 
8192 1:0.164633 2:0.319695 3:0.29479 4:0.0839876 5:0.246217 6:0.391892 7:0.438615 8:0.477132 9:0.297385 10:0.420399 11:0.240252 12:0.270763 13:0.170993 14:0.415963 15:0.182262 16:0.178636 
8192 1:0.279387 2:0.348251 3:0.334365 4:0.0946909 5:0.184733 6:0.291697 7:0.410962 8:0.318072 9:0.418593 10:0.135137 11:0.360665 12:0.413257 13:0.196292 14:0.38427 15:0.210735 16:0.136563 
3870.593517668709 1:0.109659 2:0.323679 3:0.17254 4:0.0942191 5:0.226564 6:0.533535 7:0.367045 8:0.576498 9:0.222574 10:0.37373 11:0.207662 12:0.264313 13:0.15789 14:0.444377 15:0.279773 16:0.184982 
8192 1:0.525771 2:0.291257 3:0.356274 4:0.339286 5:0.236824 6:0.121315 7:0.120916 8:0.276204 9:0.342994 10:0.0389096 11:0.11592 12:0.375721 13:0.491025 14:0.247317 15:0.319495 16:0.387583 
8192 1:0.537113 2:0.253664 3:0.285129 4:0.295968 5:0.225619 6:0.130629 7:0.180863 8:0.26769 9:0.304633 10:0.0444619 11:0.175236 12:0.364802 13:0.372673 14:0.317417 15:0.28109 16:0.473379 
8192 1:0.664581 2:0.277294 3:0.397355 4:0.345782 5:0.230888 6:0.09651 7:0.057161 8:0.281477 9:0.346449 10:0.0260815 11:0.133204 12:0.291684 13:0.527494 14:0.205561 15:0.25141 16:0.415251 
8192 1:0.246542 2:0.245262 3:0.370095 4:0.12141 5:0.200425 6:0.257129 7:0.301103 8:0.412632 9:0.36954 10:0.0779714 11:0.26133 12:0.521029 13:0.181838 14:0.510094 15:0.317202 16:0.196985 
8192 1:0.341073 2:0.362547 3:0.491682 4:0.121443 5:0.244491 6:0.257907 7:0.26161 8:0.391387 9:0.564669 10:0.0768105 11:0.272842 12:0.279858 13:0.194817 14:0.383407 15:0.179092 16:0.139888 
8192 1:0.522243 2:0.390226 3:0.407161 4:0.256163 5:0.282709 6:0.179218 7:0.184703 8:0.332851 9:0.458794 10:0.0608228 11:0.136622 12:0.287822 13:0.375107 14:0.284346 15:0.243726 16:0.202372 
8192 1:0.470938 2:0.301231 3:0.316585 4:0.299695 5:0.21375 6:0.138206 7:0.147018 8:0.368663 9:0.346314 10:0.0547439 11:0.115882 12:0.337431 13:0.434986 14:0.301256 15:0.310534 16:0.42926 
8192 1:0.429224 2:0.333916 3:0.418813 4:0.226698 5:0.243379 6:0.179877 7:0.196562 8:0.338321 9:0.449804 10:0.0625 11:0.19898 12:0.326058 13:0.344832 14:0.315415 15:0.247809 16:0.267498 
8192 1:0.518904 2:0.274809 3:0.285362 4:0.288906 5:0.229981 6:0.172484 7:0.223126 8:0.259504 9:0.335639 10:0.114898 11:0.183831 12:0.344393 13:0.353633 14:0.282548 15:0.305458 16:0.366145 
8192 1:0.388908 2:0.33514 3:0.343718 4:0.19918 5:0.248218 6:0.23557 7:0.260972 8:0.293021 9:0.411157 10:0.139908 11:0.23251 12:0.350274 13:0.267395 14:0.288106 15:0.307554 16:0.25886 
8192 1:0.236008 2:0.383669 3:0.287034 4:0.164176 5:0.269424 6:0.281734 7:0.298368 8:0.358996 9:0.326042 10:0.1232 11:0.202014 12:0.435007 13:0.284315 14:0.360821 15:0.308683 16:0.258098 
8192 1:0.457892 2:0.229087 3:0.370366 4:0.194156 5:0.175114 6:0.237481 7:0.371702 8:0.235198 9:0.37572 10:0.284219 11:0.277698 12:0.265852 13:0.279756 14:0.275272 15:0.147013 16:0.328248 
8192 1:0.233255 2:0.338071 3:0.322025 4:0.149327 5:0.216229 6:0.297565 7:0.27678 8:0.446931 9:0.358551 10:0.125869 11:0.22172 12:0.366747 13:0.274099 14:0.404299 15:0.255605 16:0.275159 
8192 1:0.377509 2:0.34268 3:0.293898 4:0.181258 5:0.246368 6:0.203043 7:0.220096 8:0.405983 9:0.302834 10:0.178578 11:0.157636 12:0.338342 13:0.314231 14:0.304727 15:0.3112 16:0.412483 
8192 1:0.31596 2:0.316412 3:0.334322 4:0.181068 5:0.232675 6:0.237434 7:0.255981 8:0.383447 9:0.386058 10:0.117856 11:0.200267 12:0.369583 13:0.258861 14:0.376238 15:0.297147 16:0.31306 
8192 1:0.274881 2:0.348018 3:0.382173 4:0.173976 5:0.222282 6:0.21458 7:0.288606 8:0.354402 9:0.442444 10:0.0984591 11:0.240191 12:0.376057 13:0.28514 14:0.355483 15:0.257721 16:0.269447 
8192 1:0.244891 2:0.416441 3:0.389636 4:0.122523 5:0.281105 6:0.2709 7:0.298516 8:0.316821 9:0.516935 10:0.107876 11:0.308782 12:0.36699 13:0.162158 14:0.318506 15:0.320868 16:0.130084 
8192 1:0.268786 2:0.30951 3:0.392841 4:0.137659 5:0.165468 6:0.188177 7:0.297592 8:0.388756 9:0.425808 10:0.0994572 11:0.31551 12:0.451875 13:0.286911 14:0.37265 15:0.301968 16:0.204203 
8192 1:0.338712 2:0.293693 3:0.470128 4:0.144044 5:0.247032 6:0.2326 7:0.266613 8:0.285065 9:0.474431 10:0.231267 11:0.263003 12:0.373499 13:0.21946 14:0.261776 15:0.33998 16:0.185242 
8192 1:0.324395 2:0.372721 3:0.368697 4:0.159345 5:0.254607 6:0.235482 7:0.315186 8:0.300866 9:0.4274 10:0.179775 11:0.255205 12:0.364428 13:0.261204 14:0.286821 15:0.284285 16:0.2023 
8192 1:0.296209 2:0.343089 3:0.299424 4:0.21594 5:0.223684 6:0.220206 7:0.300604 8:0.339962 9:0.381307 10:0.129116 11:0.195893 12:0.386946 13:0.313276 14:0.339515 15:0.306544 16:0.298234 
8192 1:0.276508 2:0.313408 3:0.275884 4:0.207401 5:0.22772 6:0.261461 7:0.281105 8:0.328822 9:0.349692 10:0.0615076 11:0.204307 12:0.45984 13:0.27147 14:0.393678 15:0.341095 16:0.29884 
8192 1:0.301442 2:0.368026 3:0.384217 4:0.154833 5:0.284363 6:0.276501 7:0.275954 8:0.299743 9:0.391708 10:0.129699 11:0.196778 12:0.383005 13:0.263151 14:0.318862 15:0.252277 16:0.278777 
8192 1:0.32797 2:0.223201 3:0.363963 4:0.251956 5:0.240839 6:0.149939 7:0.407168 8:0.187851 9:0.340247 10:0.358555 11:0.196296 12:0.407948 13:0.317135 14:0.282672 15:0.289719 16:0.30792 
8192 1:0.526939 2:0.231605 3:0.397801 4:0.194227 5:0.190932 6:0.129898 7:0.171697 8:0.379949 9:0.360505 10:0.123094 11:0.167063 12:0.42056 13:0.320955 14:0.331587 15:0.361028 16:0.331712 
8192 1:0.277124 2:0.23135 3:0.359341 4:0.137422 5:0.196723 6:0.250302 7:0.351771 8:0.318261 9:0.371909 10:0.399244 11:0.365177 12:0.320468 13:0.185809 14:0.2617 15:0.337111 16:0.232568 
8192 1:0.264181 2:0.319001 3:0.329071 4:0.209228 5:0.252157 6:0.201415 7:0.285994 8:0.330779 9:0.345975 10:0.117573 11:0.158458 12:0.465069 13:0.308693 14:0.381938 15:0.324071 16:0.324917 
8192 1:0.157022 2:0.322075 3:0.25113 4:0.0968008 5:0.198665 6:0.324002 7:0.37442 8:0.414426 9:0.300483 10:0.140473 11:0.246351 12:0.50829 13:0.199613 14:0.458648 15:0.325585 16:0.253706 
8192 1:0.435422 2:0.335562 3:0.301913 4:0.234811 5:0.265137 6:0.190353 7:0.234946 8:0.391579 9:0.331767 10:0.0959028 11:0.137932 12:0.338342 13:0.330018 14:0.392132 15:0.241976 16:0.32273 
8192 1:0.400767 2:0.336989 3:0.320044 4:0.231383 5:0.245782 6:0.168194 7:0.228595 8:0.303239 9:0.366357 10:0.109931 11:0.16846 12:0.352477 13:0.333304 14:0.2827 15:0.299253 16:0.420285 
8192 1:0.240429 2:0.323121 3:0.415195 4:0.157418 5:0.226084 6:0.294998 7:0.315313 8:0.317214 9:0.45099 10:0.160069 11:0.22589 12:0.391691 13:0.249386 14:0.335086 15:0.279157 16:0.204325 
8192 1:0.239518 2:0.406094 3:0.162737 4:0.0627287 5:0.302602 6:0.354267 7:0.36432 8:0.535273 9:0.142148 10:0.201426 11:0.191696 12:0.498695 13:0.201654 14:0.525565 15:0.300939 16:0.116315 
8192 1:0.316876 2:0.35441 3:0.344971 4:0.14225 5:0.219827 6:0.20386 7:0.275794 8:0.382721 9:0.417905 10:0.081425 11:0.232722 12:0.367584 13:0.242368 14:0.371227 15:0.262092 16:0.346338 
8192 1:0.590128 2:0.317646 3:0.393292 4:0.28876 5:0.268446 6:0.138989 7:0.156597 8:0.297666 9:0.346074 10:0.0579517 11:0.112223 12:0.344204 13:0.453657 14:0.292761 15:0.222744 16:0.304527 
8192 1:0.350167 2:0.278641 3:0.357453 4:0.208317 5:0.196639 6:0.219803 7:0.227906 8:0.358157 9:0.394583 10:0.0895404 11:0.19484 12:0.384583 13:0.306459 14:0.348369 15:0.306096 16:0.348253 
8192 1:0.406917 2:0.367434 3:0.310962 4:0.275687 5:0.236009 6:0.155082 7:0.223653 8:0.335028 9:0.370725 10:0.0731292 11:0.156712 12:0.349019 13:0.425875 14:0.287437 15:0.281381 16:0.335609 
8192 1:0.348323 2:0.274245 3:0.376577 4:0.239823 5:0.226617 6:0.0826264 7:0.207367 8:0.306216 9:0.324458 10:0.11146 11:0.145906 12:0.473241 13:0.399123 14:0.30696 15:0.349005 16:0.471021 
8192 1:0.381766 2:0.30747 3:0.491937 4:0.113774 5:0.237772 6:0.248258 7:0.215298 8:0.39512 9:0.417803 10:0.131926 11:0.156207 12:0.437077 13:0.278642 14:0.350963 15:0.294152 16:0.193384 
8192 1:0.345688 2:0.340504 3:0.442787 4:0.140926 5:0.239117 6:0.159179 7:0.250859 8:0.373828 9:0.405849 10:0.105589 11:0.239674 12:0.375899 13:0.312006 14:0.351133 15:0.204356 16:0.307768 
8192 1:0.181453 2:0.245521 3:0.280269 4:0.0696986 5:0.183523 6:0.434783 7:0.540194 8:0.311061 9:0.284555 10:0.492375 11:0.322272 12:0.385566 13:0.13043 14:0.349706 15:0.255109 16:0.103391 
8192 1:0.387461 2:0.321234 3:0.339479 4:0.178153 5:0.278514 6:0.252547 7:0.318969 8:0.292737 9:0.388622 10:0.273375 11:0.24006 12:0.280422 13:0.209506 14:0.292241 15:0.256575 16:0.255795 
8192 1:0.373084 2:0.368097 3:0.353368 4:0.204887 5:0.210717 6:0.198339 7:0.248768 8:0.327016 9:0.437981 10:0.0716714 11:0.242724 12:0.34974 13:0.334499 14:0.283814 15:0.279513 16:0.278036 
8192 1:0.275755 2:0.3597 3:0.204772 4:0.269896 5:0.277204 6:0.250994 7:0.195493 8:0.478185 9:0.209542 10:0.0654077 11:0.12585 12:0.372608 13:0.410794 14:0.435394 15:0.27777 16:0.349373 
8192 1:0.297105 2:0.374225 3:0.419427 4:0.107782 5:0.274628 6:0.322258 7:0.307414 8:0.36979 9:0.402946 10:0.122151 11:0.227447 12:0.364416 13:0.247138 14:0.395746 15:0.15615 16:0.158708 
8192 1:0.494985 2:0.310193 3:0.374051 4:0.24717 5:0.234819 6:0.140324 7:0.240658 8:0.269918 9:0.394692 10:0.0686837 11:0.164204 12:0.356035 13:0.360376 14:0.311995 15:0.220907 16:0.371646 
8192 1:0.189661 2:0.197694 3:0.236248 4:0.133265 5:0.210559 6:0.342104 7:0.494527 8:0.339971 9:0.225862 10:0.45645 11:0.244351 12:0.384556 13:0.14686 14:0.427429 15:0.25924 16:0.292409 
8192 1:0.145054 2:0.382593 3:0.351329 4:0.1006 5:0.266233 6:0.297982 7:0.433777 8:0.358436 9:0.396983 10:0.236064 11:0.283782 12:0.421429 13:0.205448 14:0.408888 15:0.228896 16:0.0932691 
8192 1:0.389119 2:0.396737 3:0.358255 4:0.15434 5:0.26131 6:0.225211 7:0.23472 8:0.392414 9:0.410698 10:0.0782518 11:0.179164 12:0.327878 13:0.281974 14:0.337342 15:0.241261 16:0.301247 
8192 1:0.180777 2:0.358533 3:0.2278 4:0.167542 5:0.220611 6:0.326458 7:0.356125 8:0.442632 9:0.32993 10:0.129635 11:0.175405 12:0.375523 13:0.250984 14:0.457855 15:0.24854 16:0.303178 
8192 1:0.157093 2:0.41019 3:0.231916 4:0.0614589 5:0.273001 6:0.436738 7:0.504388 8:0.421134 9:0.360083 10:0.385727 11:0.271701 12:0.259448 13:0.0914654 14:0.396923 15:0.200558 16:0.0984201 
8192 1:0.289379 2:0.343677 3:0.318666 4:0.157066 5:0.226938 6:0.266734 7:0.364907 8:0.300686 9:0.424226 10:0.232776 11:0.31464 12:0.345773 13:0.209189 14:0.301946 15:0.297908 16:0.171756 
8192 1:0.247516 2:0.433524 3:0.35865 4:0.160074 5:0.32173 6:0.229745 7:0.305107 8:0.288309 9:0.400057 10:0.132396 11:0.257157 12:0.419604 13:0.269906 14:0.307799 15:0.291999 16:0.173143 
8192 1:0.518336 2:0.334956 3:0.255826 4:0.363139 5:0.271115 6:0.119339 7:0.152958 8:0.294866 9:0.275766 10:0.0452352 11:0.102322 12:0.310707 13:0.499828 14:0.277389 15:0.252302 16:0.46583 
8192 1:0.369854 2:0.388928 3:0.430715 4:0.138704 5:0.273056 6:0.239535 7:0.234921 8:0.344096 9:0.432799 10:0.094476 11:0.202721 12:0.367667 13:0.283273 14:0.309032 15:0.247292 16:0.229913 
8192 1:0.256055 2:0.340756 3:0.370779 4:0.12909 5:0.252053 6:0.269843 7:0.319834 8:0.327822 9:0.390131 10:0.113498 11:0.230325 12:0.428217 13:0.227471 14:0.389959 15:0.245106 16:0.26786 
8192 1:0.24761 2:0.305519 3:0.278192 4:0.14453 5:0.189477 6:0.251338 7:0.35719 8:0.338264 9:0.327253 10:0.127252 11:0.200706 12:0.483835 13:0.25002 14:0.396425 15:0.307132 16:0.36309 
8192 1:0.177938 2:0.333699 3:0.313149 4:0.105031 5:0.212614 6:0.307854 7:0.334039 8:0.339195 9:0.370297 10:0.12836 11:0.322427 12:0.476103 13:0.196234 14:0.371338 15:0.335177 16:0.220914 
8192 1:0.323663 2:0.323619 3:0.395336 4:0.168984 5:0.25077 6:0.216124 7:0.288396 8:0.342579 9:0.413521 10:0.155033 11:0.202072 12:0.357162 13:0.265507 14:0.354693 15:0.240278 16:0.293754 
8192 1:0.197138 2:0.2475 3:0.427062 4:0.107001 5:0.208617 6:0.335955 7:0.511623 8:0.267416 9:0.45492 10:0.396445 11:0.334644 12:0.289881 13:0.12466 14:0.370476 15:0.136479 16:0.144989 
8192 1:0.430921 2:0.365097 3:0.481512 4:0.17242 5:0.212485 6:0.153093 7:0.223875 8:0.303046 9:0.525909 10:0.0618785 11:0.242565 12:0.36171 13:0.327414 14:0.250849 15:0.270603 16:0.225677 
8192 1:0.36094 2:0.335007 3:0.400909 4:0.194067 5:0.234049 6:0.178364 7:0.21392 8:0.327003 9:0.414353 10:0.0641113 11:0.219015 12:0.399613 13:0.329728 14:0.310154 15:0.290543 16:0.312461 
8192 1:0.201353 2:0.30664 3:0.324579 4:0.0909911 5:0.258569 6:0.324096 7:0.400869 8:0.325616 9:0.366835 10:0.365223 11:0.360426 12:0.342167 13:0.115106 14:0.326208 15:0.304213 16:0.158175 
8192 1:0.421509 2:0.317449 3:0.378799 4:0.188522 5:0.232983 6:0.206392 7:0.205092 8:0.388055 9:0.385535 10:0.0682511 11:0.1886 12:0.334044 13:0.309063 14:0.366157 15:0.223192 16:0.339286 
8192 1:0.366321 2:0.309183 3:0.343981 4:0.119062 5:0.270381 6:0.375107 7:0.286581 8:0.342943 9:0.272199 10:0.104268 11:0.112174 12:0.461163 13:0.243761 14:0.427103 15:0.209459 16:0.28098 
8192 1:0.390104 2:0.270145 3:0.402145 4:0.226058 5:0.191623 6:0.19399 7:0.228035 8:0.322892 9:0.336597 10:0.103698 11:0.164768 12:0.422134 13:0.425245 14:0.322158 15:0.234947 16:0.347311 
8192 1:0.46525 2:0.384261 3:0.479078 4:0.142967 5:0.264394 6:0.160567 7:0.259447 8:0.279557 9:0.484002 10:0.153026 11:0.189957 12:0.371476 13:0.29235 14:0.240452 15:0.267374 16:0.209868 
8192 1:0.38572 2:0.361383 3:0.418927 4:0.17699 5:0.281872 6:0.184082 7:0.233005 8:0.298618 9:0.385037 10:0.0556607 11:0.187644 12:0.452584 13:0.330598 14:0.333941 15:0.26541 16:0.250366 
8192 1:0.352868 2:0.334519 3:0.330596 4:0.22011 5:0.222258 6:0.166167 7:0.248451 8:0.386715 9:0.377669 10:0.104623 11:0.198561 12:0.35096 13:0.343132 14:0.351006 15:0.270017 16:0.33564 
8192 1:0.556879 2:0.379901 3:0.413961 4:0.19838 5:0.248421 6:0.166063 7:0.111816 8:0.389779 9:0.323383 10:0.0969363 11:0.144397 12:0.361243 13:0.461735 14:0.221308 15:0.282607 16:0.263889 
8192 1:0.226268 2:0.337833 3:0.403725 4:0.11745 5:0.240478 6:0.266831 7:0.396715 8:0.365651 9:0.416887 10:0.282854 11:0.290257 12:0.327644 13:0.228022 14:0.364639 15:0.194652 16:0.147002 
8192 1:0.17664 2:0.434493 3:0.274356 4:0.140307 5:0.287568 6:0.337871 7:0.352311 8:0.348664 9:0.346966 10:0.16811 11:0.228715 12:0.360818 13:0.255478 14:0.34147 15:0.238696 16:0.246573 
8192 1:0.388551 2:0.310107 3:0.271831 4:0.258969 5:0.206457 6:0.178446 7:0.222877 8:0.408544 9:0.312641 10:0.0547083 11:0.13039 12:0.363041 13:0.390597 14:0.390207 15:0.258957 16:0.420169 
8192 1:0.358157 2:0.443011 3:0.479592 4:0.0945816 5:0.286799 6:0.238385 7:0.266404 8:0.250202 9:0.459569 10:0.0966343 11:0.349586 12:0.387934 13:0.290019 14:0.225469 15:0.206281 16:0.111604 
8192 1:0.469977 2:0.394279 3:0.456984 4:0.156578 5:0.257884 6:0.180877 7:0.261362 8:0.317773 9:0.490631 10:0.0998168 11:0.176223 12:0.310103 13:0.296815 14:0.288264 15:0.192099 16:0.249772 
8192 1:0.45077 2:0.253949 3:0.378034 4:0.23572 5:0.246835 6:0.128724 7:0.147092 8:0.381237 9:0.343154 10:0.0756911 11:0.123 12:0.42559 13:0.327403 14:0.377063 15:0.355878 16:0.381454 
8192 1:0.423044 2:0.316632 3:0.36422 4:0.113509 5:0.251568 6:0.257649 7:0.324838 8:0.330557 9:0.332872 10:0.230201 11:0.18098 12:0.364879 13:0.232179 14:0.337144 15:0.215826 16:0.299095 
8192 1:0.448175 2:0.300722 3:0.424593 4:0.200034 5:0.262258 6:0.191398 7:0.227808 8:0.284827 9:0.376713 10:0.155714 11:0.212624 12:0.43364 13:0.320927 14:0.286845 15:0.325565 16:0.174217 
8192 1:0.250543 2:0.205784 3:0.367702 4:0.109577 5:0.185633 6:0.359567 7:0.496941 8:0.246154 9:0.368264 10:0.550734 11:0.400694 12:0.229076 13:0.14925 14:0.244473 15:0.182013 16:0.187723 
8192 1:0.419383 2:0.309783 3:0.355674 4:0.258488 5:0.219095 6:0.157276 7:0.188221 8:0.351137 9:0.370385 10:0.0710793 11:0.150282 12:0.351256 13:0.402079 14:0.311409 15:0.272278 16:0.394563 
8192 1:0.347145 2:0.291514 3:0.383594 4:0.252707 5:0.228773 6:0.190476 7:0.194189 8:0.344344 9:0.325243 10:0.142437 11:0.173598 12:0.374188 13:0.430972 14:0.288498 15:0.278679 16:0.351436 
8192 1:0.300662 2:0.350895 3:0.439795 4:0.164226 5:0.247931 6:0.224392 7:0.267534 8:0.337125 9:0.423357 10:0.108445 11:0.202718 12:0.406064 13:0.321256 14:0.338552 15:0.239451 16:0.235755 
8192 1:0.522801 2:0.295763 3:0.330069 4:0.33836 5:0.254622 6:0.123935 7:0.184123 8:0.279723 9:0.377137 10:0.0772914 11:0.155705 12:0.317523 13:0.41492 14:0.294234 15:0.283612 16:0.326454 
8192 1:0.409879 2:0.313991 3:0.560983 4:0.126341 5:0.181175 6:0.145948 7:0.267714 8:0.278658 9:0.534206 10:0.0936205 11:0.255673 12:0.436171 13:0.316955 14:0.269376 15:0.249945 16:0.198226 
8192 1:0.388831 2:0.41211 3:0.383213 4:0.123095 5:0.296772 6:0.249637 7:0.317781 8:0.341166 9:0.432555 10:0.164694 11:0.219161 12:0.336879 13:0.218596 14:0.336357 15:0.225949 16:0.148362 
8192 1:0.48643 2:0.285752 3:0.415999 4:0.24169 5:0.221957 6:0.13065 7:0.203861 8:0.247772 9:0.449344 10:0.0690264 11:0.21954 12:0.387192 13:0.330845 14:0.269853 15:0.31631 16:0.308105 
8192 1:0.339631 2:0.401272 3:0.32849 4:0.122783 5:0.338248 6:0.298451 7:0.342455 8:0.355276 9:0.373922 10:0.203293 11:0.198826 12:0.347905 13:0.164425 14:0.392059 15:0.243641 16:0.138737 
8192 1:0.336538 2:0.395118 3:0.373882 4:0.140842 5:0.234245 6:0.219455 7:0.307551 8:0.333889 9:0.444819 10:0.0964104 11:0.221949 12:0.403065 13:0.27109 14:0.32336 15:0.275269 16:0.222691 
8192 1:0.248688 2:0.264677 3:0.334445 4:0.18175 5:0.214451 6:0.231115 7:0.28202 8:0.334319 9:0.359766 10:0.268054 11:0.299893 12:0.364416 13:0.244438 14:0.289099 15:0.36614 16:0.30566 
8192 1:0.232279 2:0.367354 3:0.437529 4:0.130568 5:0.278035 6:0.251385 7:0.22932 8:0.420944 9:0.405723 10:0.122285 11:0.281909 12:0.343656 13:0.272902 14:0.379569 15:0.210664 16:0.206799 
8192 1:0.263755 2:0.36339 3:0.392597 4:0.114693 5:0.221606 6:0.228181 7:0.322413 8:0.345005 9:0.451838 10:0.168798 11:0.269222 12:0.401556 13:0.228086 14:0.313816 15:0.308328 16:0.22153 
8192 1:0.225177 2:0.385659 3:0.437834 4:0.13185 5:0.275328 6:0.199022 7:0.291634 8:0.370569 9:0.446645 10:0.220157 11:0.23545 12:0.359602 13:0.264191 14:0.300634 15:0.288387 16:0.224924 
8192 1:0.177944 2:0.345595 3:0.363087 4:0.0895068 5:0.224695 6:0.285753 7:0.372675 8:0.33242 9:0.407965 10:0.227317 11:0.343803 12:0.398223 13:0.185465 14:0.332361 15:0.279754 16:0.202179 
8192 1:0.293524 2:0.32295 3:0.342093 4:0.157678 5:0.226627 6:0.263283 7:0.280867 8:0.379703 9:0.341881 10:0.118737 11:0.206907 12:0.404106 13:0.290991 14:0.383693 15:0.24927 16:0.30143 
8192 1:0.270288 2:0.300938 3:0.309083 4:0.106375 5:0.182005 6:0.265427 7:0.5294 8:0.24147 9:0.356856 10:0.491869 11:0.359562 12:0.31733 13:0.205388 14:0.218004 15:0.247479 16:0.197245 
8192 1:0.41476 2:0.328714 3:0.407872 4:0.162459 5:0.291448 6:0.213906 7:0.245629 8:0.309456 9:0.396858 10:0.117796 11:0.192181 12:0.384352 13:0.235666 14:0.35266 15:0.263463 16:0.262371 
8192 1:0.315255 2:0.387244 3:0.364389 4:0.136367 5:0.269467 6:0.239445 7:0.308609 8:0.364888 9:0.396391 10:0.240835 11:0.204379 12:0.330477 13:0.259718 14:0.289928 15:0.27902 16:0.240215 
8192 1:0.439562 2:0.505398 3:0.427525 4:0.144556 5:0.381567 6:0.280544 7:0.244521 8:0.238411 9:0.461892 10:0.139254 11:0.13368 12:0.277088 13:0.261265 14:0.192848 15:0.208255 16:0.225157 
8192 1:0.357771 2:0.317664 3:0.318107 4:0.214003 5:0.203805 6:0.172828 7:0.245983 8:0.340412 9:0.337943 10:0.102148 11:0.193659 12:0.403348 13:0.364775 14:0.312311 15:0.297904 16:0.395743 
8192 1:0.294432 2:0.359303 3:0.412597 4:0.116125 5:0.274778 6:0.23913 7:0.305951 8:0.339759 9:0.384902 10:0.202654 11:0.253575 12:0.395389 13:0.255626 14:0.327226 15:0.253097 16:0.1966 
8192 1:0.222004 2:0.301614 3:0.334607 4:0.147099 5:0.192107 6:0.23478 7:0.28716 8:0.379169 9:0.327682 10:0.164294 11:0.219241 12:0.464763 13:0.301147 14:0.345647 15:0.341483 16:0.345889 
8192 1:0.382241 2:0.341285 3:0.465058 4:0.128044 5:0.245788 6:0.2531 7:0.254134 8:0.319884 9:0.488825 10:0.0890843 11:0.187142 12:0.340576 13:0.222416 14:0.331345 15:0.210885 16:0.296782 
8192 1:0.382599 2:0.336983 3:0.423623 4:0.153085 5:0.240978 6:0.264609 7:0.35534 8:0.184212 9:0.433734 10:0.284016 11:0.314592 12:0.31822 13:0.270435 14:0.176888 15:0.228673 16:0.18293 
1422.49832412065 1:0.432356 2:0.419219 3:0.406457 4:0.207592 5:0.269593 6:0.150823 7:0.274541 8:0.330225 9:0.452105 10:0.125772 11:0.190474 12:0.310012 13:0.363223 14:0.279472 15:0.214785 16:0.199727 
8192 1:0.317977 2:0.265201 3:0.273853 4:0.298192 5:0.188628 6:0.133195 7:0.176633 8:0.343297 9:0.317034 10:0.0593658 11:0.162601 12:0.416855 13:0.406971 14:0.315997 15:0.384479 16:0.516429 
8192 1:0.276791 2:0.355266 3:0.382255 4:0.124232 5:0.243087 6:0.246974 7:0.33113 8:0.33521 9:0.409906 10:0.134518 11:0.221109 12:0.385667 13:0.242622 14:0.368309 15:0.208096 16:0.299999 
8192 1:0.437549 2:0.324254 3:0.399685 4:0.210086 5:0.254616 6:0.226511 7:0.216325 8:0.336137 9:0.407607 10:0.0989413 11:0.154083 12:0.292969 13:0.320743 14:0.330603 15:0.192969 16:0.342806 
8192 1:0.336736 2:0.324677 3:0.396527 4:0.24208 5:0.244572 6:0.172824 7:0.21251 8:0.268772 9:0.435486 10:0.0992945 11:0.231021 12:0.398313 13:0.344605 14:0.255696 15:0.351933 16:0.283415 
3531.676404061061 1:0.383229 2:0.346259 3:0.53389 4:0.140424 5:0.213606 6:0.160353 7:0.255093 8:0.352106 9:0.538452 10:0.101066 11:0.173711 12:0.359082 13:0.309616 14:0.312767 15:0.213621 16:0.255892 
8192 1:0.37787 2:0.251204 3:0.511031 4:0.16588 5:0.248847 6:0.167671 7:0.244904 8:0.313127 9:0.449726 10:0.266326 11:0.261726 12:0.341704 13:0.252843 14:0.283155 15:0.288162 16:0.22428 
8192 1:0.439656 2:0.364589 3:0.430295 4:0.155092 5:0.248155 6:0.218975 7:0.215218 8:0.377301 9:0.44956 10:0.0622513 11:0.157985 12:0.327271 13:0.285145 14:0.339633 15:0.219342 16:0.287579 
8192 1:0.439931 2:0.394297 3:0.427955 4:0.193124 5:0.267954 6:0.189011 7:0.17116 8:0.390412 9:0.454623 10:0.0904362 11:0.125092 12:0.308836 13:0.342598 14:0.278556 15:0.279962 16:0.276035 
8192 1:0.517498 2:0.363196 3:0.496525 4:0.198107 5:0.276005 6:0.147396 7:0.164972 8:0.280179 9:0.479325 10:0.0700825 11:0.163285 12:0.352932 13:0.348262 14:0.23587 15:0.269605 16:0.25527 
8192 1:0.261891 2:0.281372 3:0.341607 4:0.208784 5:0.182158 6:0.199161 7:0.235471 8:0.424276 9:0.354596 10:0.0799933 11:0.185358 12:0.446766 13:0.348624 14:0.398487 15:0.333743 16:0.334346 
8192 1:0.375805 2:0.415192 3:0.346751 4:0.193806 5:0.27844 6:0.174989 7:0.208279 8:0.376868 9:0.40011 10:0.0590134 11:0.151839 12:0.377107 13:0.325176 14:0.31508 15:0.312147 16:0.303601 
8192 1:0.280938 2:0.28331 3:0.302837 4:0.197147 5:0.217546 6:0.207766 7:0.267977 8:0.385969 9:0.253571 10:0.108285 11:0.157167 12:0.474504 13:0.359098 14:0.414316 15:0.275784 16:0.39923 
8192 1:0.432362 2:0.369155 3:0.369989 4:0.199157 5:0.248669 6:0.209268 7:0.24095 8:0.31482 9:0.412993 10:0.0785832 11:0.172224 12:0.341816 13:0.328613 14:0.297263 15:0.239079 16:0.30826 
8192 1:0.505542 2:0.267872 3:0.295013 4:0.358103 5:0.231316 6:0.107639 7:0.158373 8:0.264169 9:0.308277 10:0.058424 11:0.150982 12:0.34726 13:0.469706 14:0.274682 15:0.291912 16:0.45622 
8192 1:0.343773 2:0.370711 3:0.317382 4:0.194188 5:0.240717 6:0.188433 7:0.258117 8:0.381585 9:0.363824 10:0.0748262 11:0.139327 12:0.428169 13:0.33525 14:0.361524 15:0.30928 16:0.313264 
8192 1:0.353007 2:0.420643 3:0.367632 4:0.0833577 5:0.227191 6:0.231106 7:0.334676 8:0.352697 9:0.471596 10:0.107067 11:0.20379 12:0.438289 13:0.193839 14:0.324545 15:0.329299 16:0.190631 
8192 1:0.447288 2:0.39495 3:0.337619 4:0.223096 5:0.308436 6:0.189586 7:0.264763 8:0.318548 9:0.404365 10:0.115279 11:0.140034 12:0.305556 13:0.299161 14:0.331335 15:0.227432 16:0.27935 
8192 1:0.211637 2:0.313191 3:0.434108 4:0.137516 5:0.205071 6:0.27929 7:0.295991 8:0.323439 9:0.449707 10:0.138725 11:0.295901 12:0.40539 13:0.264682 14:0.325725 15:0.268203 16:0.218885 
8192 1:0.438906 2:0.359515 3:0.318749 4:0.284612 5:0.255167 6:0.118577 7:0.202359 8:0.30808 9:0.361275 10:0.0674195 11:0.143824 12:0.41152 13:0.423053 14:0.279019 15:0.35283 16:0.307128 
8192 1:0.298018 2:0.269237 3:0.30035 4:0.184717 5:0.234008 6:0.2037 7:0.304229 8:0.326514 9:0.307524 10:0.213029 11:0.207405 12:0.41743 13:0.252734 14:0.356926 15:0.327339 16:0.389145 
8192 1:0.34871 2:0.368295 3:0.394876 4:0.147861 5:0.265427 6:0.234442 7:0.337559 8:0.308071 9:0.420661 10:0.209466 11:0.204548 12:0.341949 13:0.260179 14:0.308176 15:0.221603 16:0.229819 
8192 1:0.149959 2:0.350382 3:0.337266 4:0.0760018 5:0.257248 6:0.298817 7:0.424838 8:0.343273 9:0.38037 10:0.28258 11:0.3157 12:0.374391 13:0.141268 14:0.382306 15:0.237308 16:0.218806 
8192 1:0.313735 2:0.297198 3:0.393318 4:0.143834 5:0.209955 6:0.226033 7:0.267714 8:0.395555 9:0.369147 10:0.0748964 11:0.216935 12:0.451314 13:0.288403 14:0.422076 15:0.252785 16:0.266705 
8192 1:0.269782 2:0.311141 3:0.387748 4:0.11957 5:0.214303 6:0.260904 7:0.33466 8:0.328023 9:0.408197 10:0.111984 11:0.254191 12:0.45444 13:0.217082 14:0.402544 15:0.256764 16:0.235569 
8192 1:0.37523 2:0.374906 3:0.410166 4:0.163618 5:0.286147 6:0.210956 7:0.226022 8:0.344738 9:0.430337 10:0.106258 11:0.183199 12:0.346423 13:0.269779 14:0.31979 15:0.262191 16:0.282936 
8192 1:0.350494 2:0.300603 3:0.43048 4:0.16711 5:0.223545 6:0.210264 7:0.196731 8:0.35819 9:0.369663 10:0.0793566 11:0.182006 12:0.433796 13:0.342747 14:0.333023 15:0.282779 16:0.333867 
8192 1:0.336679 2:0.355112 3:0.2872 4:0.242795 5:0.246612 6:0.195703 7:0.238376 8:0.345593 9:0.357852 10:0.0706919 11:0.186537 12:0.392331 13:0.343113 14:0.337588 15:0.322037 16:0.319574 
8192 1:0.176325 2:0.370284 3:0.331607 4:0.102921 5:0.193416 6:0.319608 7:0.370425 8:0.392894 9:0.439824 10:0.186565 11:0.30173 12:0.383113 13:0.204267 14:0.354776 15:0.300314 16:0.153905 
8192 1:0.380014 2:0.299017 3:0.305159 4:0.259335 5:0.2293 6:0.156924 7:0.169966 8:0.339743 9:0.306012 10:0.0684037 11:0.186069 12:0.382966 13:0.392598 14:0.307549 15:0.313058 16:0.45511 
8192 1:0.341683 2:0.301339 3:0.245678 4:0.346786 5:0.202643 6:0.121209 7:0.144511 8:0.412413 9:0.251052 10:0.0471119 11:0.121217 12:0.384913 13:0.533179 14:0.328898 15:0.330941 16:0.479798 
8192 1:0.367913 2:0.337961 3:0.338872 4:0.202775 5:0.225372 6:0.191611 7:0.271461 8:0.318905 9:0.36797 10:0.127828 11:0.197356 12:0.386012 13:0.337576 14:0.302157 15:0.28188 16:0.329861 
